tree
version=v2
num_class=1
num_tree_per_iteration=1
label_index=0
max_feature_idx=3
objective=lambdarank
feature_names=Column_0 Column_1 Column_2 Column_3
feature_infos=[0.15529999999999999:46.055300000000003] [0.00020000000000000001:0.030800000000000001] [0:7.8625999999999996] [0.012500000000000001:0.2626]
tree_sizes=336 705 695 706 711 703 708 710 713 707 713 491 638 563 636 341 343 263 266 265 419

Tree=0
num_leaves=3
num_cat=0
split_feature=0 2
split_gain=2.88652 0.778099
threshold=4.0677500000000011 0.16335000000000002
decision_type=2 2
left_child=1 -1
right_child=-2 -3
leaf_value=-0.029117774515870262 -0.027012084819936479 0.035557662408777141
leaf_count=11 45 13
internal_value=0 0.246996
internal_count=69 24
shrinkage=0.1


Tree=1
num_leaves=8
num_cat=0
split_feature=3 1 2 2 1 3 2
split_gain=81.0201 83.3477 61.6601 37.6303 26.5211 64.4976 13.5764
threshold=0.04710000000000001 0.00065000000000000008 2.7287000000000003 1.0000000180025095e-35 0.0029500000000000004 0.017500000000000005 0.30125000000000007
decision_type=2 2 2 2 2 2 2
left_child=1 -1 4 -2 5 6 -3
right_child=3 2 -4 -5 -6 -7 -8
leaf_value=-0.046193011191879733 0.044525389528660614 -0.047259603697493657 -0.037703622575323635 -0.0435148042565838 0.041309265447931932 -0.018865996072252006 0.042301230494657734
leaf_count=12 1 1 3 28 5 17 2
internal_value=0 0.100905 0.182906 -0.343865 0.253058 0.131745 0.385266
internal_count=69 40 28 29 25 20 3
shrinkage=0.1


Tree=2
num_leaves=8
num_cat=0
split_feature=0 2 2 0 1 2 1
split_gain=28.0883 18.5632 17.1226 16.4314 19.2661 14.2169 12.5363
threshold=3.2315 0.16335000000000002 1.0000000180025095e-35 11.661900000000001 0.0034000000000000007 2.7287000000000003 0.0058500000000000002
decision_type=2 2 2 2 2 2 2
left_child=1 -1 -2 4 -4 6 -3
right_child=2 5 3 -5 -6 -7 -8
leaf_value=-0.025915649497397927 0.034042744540615483 0.032865985586892701 0.012370295373640075 -0.039951197815560537 -0.045526231890365199 -0.035393586596447354 -0.047502132840467955
leaf_count=10 2 6 10 26 10 3 2
internal_value=0 0.158862 -0.151217 -0.210636 -0.0438882 0.238115 0.289892
internal_count=69 21 48 46 20 11 8
shrinkage=0.1


Tree=3
num_leaves=8
num_cat=0
split_feature=3 1 3 0 1 1 1
split_gain=19.4064 18.9347 4.80427 9.65758 6.15811 12.033 10.5136
threshold=0.061100000000000008 0.00065000000000000008 0.04710000000000001 29.835450000000005 0.0052500000000000003 0.0034000000000000007 0.0029500000000000004
decision_type=2 2 2 2 2 2 2
left_child=1 -1 4 -4 5 6 -3
right_child=-2 2 3 -5 -6 -7 -8
leaf_value=-0.041308072704176135 -0.03823999925354471 0.005999944846265988 -0.040116099837525163 0.033733292856946678 0.042028397491319147 -0.037178534551091283 0.042780166188975698
leaf_count=12 20 21 8 1 1 4 2
internal_value=0 0.0646124 0.123677 -0.122418 0.161187 0.110553 0.169753
internal_count=69 49 37 9 28 27 23
shrinkage=0.1


Tree=4
num_leaves=8
num_cat=0
split_feature=3 1 2 2 2 3 1
split_gain=13.2676 14.4047 7.26693 5.46657 5.30822 4.21324 9.3123
threshold=0.04710000000000001 0.00065000000000000008 1.0000000180025095e-35 0.0087000000000000011 2.7287000000000003 0.015150000000000002 0.0029500000000000004
decision_type=2 2 2 2 2 2 2
left_child=1 -1 -2 -3 5 -5 -7
right_child=2 3 -4 4 -6 6 -8
leaf_value=-0.039539215614613071 0.029264286815774716 -0.036811409469940201 -0.036619884174444707 0.041829408617471996 -0.034408520145737094 -0.0056059901117048996 0.030182181270211456
leaf_count=12 1 4 28 1 3 15 5
internal_value=0 0.0791745 -0.269393 0.141963 0.169729 0.198083 0.140393
internal_count=69 40 29 28 24 21 20
shrinkage=0.1


Tree=5
num_leaves=8
num_cat=0
split_feature=0 3 2 2 2 2 3
split_gain=10.166 11.3574 4.70642 4.06728 3.56024 0.769619 0.822986
threshold=11.661900000000001 0.04710000000000001 0.0087000000000000011 0.0087000000000000011 2.7287000000000003 0.16335000000000002 0.030850000000000006
decision_type=2 2 2 2 2 2 2
left_child=1 2 -1 -2 5 -4 -7
right_child=3 -3 4 -5 -6 6 -8
leaf_value=-0.036952792273746968 0.024552235477381626 -0.033037402680716657 0.005562470006909119 -0.033186308299825377 -0.033179037960534979 0.021903315169171846 0.045332523444364947
leaf_count=4 1 18 7 26 3 9 1
internal_value=0 0.0844779 0.160718 -0.253824 0.193325 0.221255 0.257444
internal_count=69 42 24 27 20 17 10
shrinkage=0.1


Tree=6
num_leaves=8
num_cat=0
split_feature=3 0 2 2 2 3 3
split_gain=8.46459 8.56466 3.33657 2.68781 2.68003 0.539679 0.450392
threshold=0.04710000000000001 11.661900000000001 0.16335000000000002 2.7287000000000003 1.0000000180025095e-35 0.024800000000000006 0.030850000000000006
decision_type=2 2 2 2 2 2 2
left_child=1 2 5 6 -2 -1 -4
right_child=4 -3 3 -5 -6 -7 -8
leaf_value=-0.00029098986463473107 0.019943243716598079 -0.028633013423575149 0.021204725939210415 -0.03038337877792981 -0.033688716647993597 -0.040536289919438445 0.042511614345322822
leaf_count=8 1 16 9 3 28 3 1
internal_value=0 0.0803834 0.156112 0.220091 -0.261479 -0.0813278 0.251392
internal_count=69 40 24 13 29 11 10
shrinkage=0.1


Tree=7
num_leaves=8
num_cat=0
split_feature=3 1 2 2 2 1 2
split_gain=6.30382 5.94747 1.7168 1.60269 1.35888 0.89635 0.399857
threshold=0.04710000000000001 0.00065000000000000008 0.16335000000000002 1.0000000180025095e-35 2.7287000000000003 0.00090000000000000008 0.35715000000000008
decision_type=2 2 2 2 2 2 2
left_child=1 -1 -3 -2 5 -4 -7
right_child=3 2 4 -5 -6 6 -8
leaf_value=-0.035170321203654563 0.016523005293417065 -0.0074741027325253857 -0.013946275622722718 -0.032048236558933844 -0.027649570941100283 0.032297298747962659 0.014960532886730715
leaf_count=12 1 11 3 28 3 4 7
internal_value=0 0.0751317 0.129661 -0.250548 0.179878 0.204204 0.231558
internal_count=69 40 28 29 17 14 11
shrinkage=0.1


Tree=8
num_leaves=8
num_cat=0
split_feature=3 1 2 2 3 3 2
split_gain=4.53627 4.30772 1.43528 1.10551 0.940736 2.80834 1.88512
threshold=0.04710000000000001 0.00065000000000000008 0.0087000000000000011 1.0000000180025095e-35 0.028400000000000005 0.017500000000000005 0.35715000000000008
decision_type=2 2 2 2 2 2 2
left_child=1 -1 -3 -2 5 -4 -6
right_child=3 2 4 -5 6 -7 -8
leaf_value=-0.033883196651942851 0.016643028625372803 -0.031771157543382375 0.027560284829896371 -0.030573333430777051 0.033205521913430729 -0.0047639057733198584 -0.036761316324422241
leaf_count=12 1 4 3 28 4 16 1
internal_value=0 0.0671886 0.115539 -0.237575 0.138805 0.0749892 0.271441
internal_count=69 40 28 29 24 19 5
shrinkage=0.1


Tree=9
num_leaves=8
num_cat=0
split_feature=3 3 3 1 2 2 2
split_gain=3.95254 4.75617 3.11401 2.18234 1.96816 1.76148 0.811297
threshold=0.04710000000000001 0.028400000000000005 0.019250000000000003 0.0029500000000000004 0.87500000000000011 0.35715000000000008 1.0000000180025095e-35
decision_type=2 2 2 2 2 2 2
left_child=1 2 4 -3 -1 -5 -2
right_child=6 3 -4 5 -6 -7 -8
leaf_value=-0.0072749329680766583 0.016908806995843066 -0.028799161712910578 -0.019586979364040729 0.037885352529547105 0.031410018603958104 -0.032226757422056697 -0.029609692721738568
leaf_count=10 1 3 22 2 2 1 28
internal_value=0 0.0643012 -0.0464311 0.265 0.118501 0.327489 -0.233067
internal_count=69 40 34 6 12 3 29
shrinkage=0.1


Tree=10
num_leaves=8
num_cat=0
split_feature=3 1 3 3 1 2 2
split_gain=3.09595 2.77471 0.995744 1.99794 1.31571 0.54045 0.510503
threshold=0.04710000000000001 0.00065000000000000008 0.028400000000000005 0.017500000000000005 0.0029500000000000004 0.35715000000000008 1.0000000180025095e-35
decision_type=2 2 2 2 2 2 2
left_child=1 -1 3 -3 -4 -6 -2
right_child=6 2 4 -5 5 -7 -8
leaf_value=-0.032665024252900673 0.017108475317724994 0.02319004713217232 -0.026118652633148928 -0.0089726040655523816 0.035483155491419734 -0.024680430951431066 -0.028451151818644368
leaf_count=12 1 4 3 18 2 1 28
internal_value=0 0.0658334 0.110626 0.0336414 0.245143 0.310341 -0.223933
internal_count=69 40 28 22 6 3 29
shrinkage=0.1


Tree=11
num_leaves=5
num_cat=0
split_feature=3 0 3 1
split_gain=2.3601 2.37112 0.348197 0.0375028
threshold=0.04710000000000001 11.661900000000001 0.013450000000000002 0.0034000000000000007
decision_type=2 2 2 2
left_child=1 2 -1 -2
right_child=3 -3 -4 -5
leaf_value=-0.038414846192790855 -0.0066294772244957327 -0.023972228550737905 0.013792605158972199 -0.033924998819281467
leaf_count=2 10 16 22 19
internal_value=0 0.0631274 0.121307 -0.215073
internal_count=69 40 24 29
shrinkage=0.1


Tree=12
num_leaves=7
num_cat=0
split_feature=3 0 2 0 3 2
split_gain=1.84773 1.20824 0.787775 0.683356 0.424803 0.283369
threshold=0.04710000000000001 11.661900000000001 0.0087000000000000011 0.87670000000000015 0.020850000000000004 1.0000000180025095e-35
decision_type=2 2 2 2 2 2
left_child=1 2 -1 -4 -3 -2
right_child=5 4 3 -5 -6 -7
leaf_value=-0.030535073984588157 0.018403029399527329 -0.031587689322085534 -0.0085498722886455641 0.018857322424485026 0.018717195583635774 -0.027536739291597591
leaf_count=4 1 14 7 13 2 28
internal_value=0 0.058007 0.106748 0.135163 -0.189986 -0.21072
internal_count=69 40 24 20 16 29
shrinkage=0.1


Tree=13
num_leaves=6
num_cat=0
split_feature=0 2 1 2 2
split_gain=1.11802 0.68687 3.34068 0.575184 0.662057
threshold=11.661900000000001 0.30125000000000007 0.0034000000000000007 0.17625000000000005 0.16335000000000002
decision_type=2 2 2 2 2
left_child=1 3 -3 4 -1
right_child=-2 2 -4 -5 -6
leaf_value=-0.0099574578482818383 -0.019128207917304435 0.025162889201032747 -0.028580796680951738 -0.038923964433064728 0.026445374537254675
leaf_count=18 27 6 10 6 2
internal_value=0 0.0523005 0.142112 -0.0606712 0.0044356
internal_count=69 42 16 26 20
shrinkage=0.1


Tree=14
num_leaves=7
num_cat=0
split_feature=3 1 0 3 1 0
split_gain=0.993299 1.09469 1.47653 0.766623 0.710402 0.201774
threshold=0.04710000000000001 0.0029500000000000004 8.6033000000000026 0.026450000000000005 0.0016500000000000002 0.87670000000000015
decision_type=2 2 2 2 2 2
left_child=1 2 4 -3 5 -1
right_child=-2 3 -4 -5 -6 -7
leaf_value=-0.021833480666786226 -0.019410421397226651 -0.038748671418030387 -0.026441395016297348 0.026099781138609474 -0.03119509665479523 0.01993445313074145
leaf_count=3 29 2 19 5 4 7
internal_value=0 0.0524073 -0.0350621 0.207617 0.0743617 0.140635
internal_count=69 40 33 7 14 10
shrinkage=0.1


Tree=15
num_leaves=3
num_cat=0
split_feature=3 0
split_gain=0.707602 0.284055
threshold=0.061100000000000008 11.661900000000001
decision_type=2 2
left_child=1 -1
right_child=-2 -3
leaf_value=0.0086511042940665053 -0.025469997280102376 -0.013782830961182392
leaf_count=28 20 21
internal_value=0 0.0384401
internal_count=69 49
shrinkage=0.1


Tree=16
num_leaves=3
num_cat=0
split_feature=3 1
split_gain=0.539383 0.502992
threshold=0.061100000000000008 0.00065000000000000008
decision_type=2 2
left_child=1 -1
right_child=-2 -3
leaf_value=-0.0294200793218331 -0.025086786276645498 0.0067409021336272794
leaf_count=12 20 37
internal_value=0 0.0364686
internal_count=69 49
shrinkage=0.1


Tree=17
num_leaves=2
num_cat=0
split_feature=0
split_gain=0.187202
threshold=11.661900000000001
decision_type=2
left_child=-1
right_child=-2
leaf_value=0.0044933300127667514 -0.01623554001371939
leaf_count=42 27
internal_value=0
internal_count=69
shrinkage=0.1


Tree=18
num_leaves=2
num_cat=0
split_feature=3
split_gain=0.287841
threshold=0.061100000000000008
decision_type=2
left_child=-1
right_child=-2
leaf_value=0.0033312448024059821 -0.023986690653828965
leaf_count=49 20
internal_value=0
internal_count=69
shrinkage=0.1


Tree=19
num_leaves=2
num_cat=0
split_feature=3
split_gain=0.133626
threshold=0.061100000000000008
decision_type=2
left_child=-1
right_child=-2
leaf_value=0.003049777029733075 -0.023462366607920219
leaf_count=49 20
internal_value=0
internal_count=69
shrinkage=0.1


Tree=20
num_leaves=4
num_cat=0
split_feature=3 3 3
split_gain=0.0288245 0.223824 0.147883
threshold=0.04710000000000001 0.028400000000000005 0.019250000000000003
decision_type=2 2 2
left_child=1 2 -1
right_child=-2 -3 -4
leaf_value=0.0088247919584314542 -0.016255224977114124 0.019095712049041057 -0.014139277941747045
leaf_count=12 29 6 22
internal_value=0 0.0405709 -0.0246134
internal_count=69 40 34
shrinkage=0.1


end of trees

feature importances:
Column_2=34
Column_3=34
Column_1=21
Column_0=14

parameters:
[boosting: gbdt]
[objective: lambdarank]
[metric: none,lambdarank]
[tree_learner: serial]
[device_type: cpu]
[data: ]
[valid: ]
[num_iterations: 100]
[learning_rate: 0.1]
[num_leaves: 8]
[num_threads: -1]
[max_depth: -1]
[min_data_in_leaf: 1]
[min_sum_hessian_in_leaf: 0.001]
[bagging_fraction: 1]
[bagging_freq: 0]
[bagging_seed: 3]
[feature_fraction: 0.8]
[feature_fraction_seed: 2]
[early_stopping_round: 0]
[max_delta_step: 0]
[lambda_l1: 0]
[lambda_l2: 0]
[min_gain_to_split: 1]
[drop_rate: 0.1]
[max_drop: 50]
[skip_drop: 0.5]
[xgboost_dart_mode: 0]
[uniform_drop: 0]
[drop_seed: 4]
[top_rate: 0.2]
[other_rate: 0.1]
[min_data_per_group: 100]
[max_cat_threshold: 32]
[cat_l2: 10]
[cat_smooth: 10]
[max_cat_to_onehot: 4]
[top_k: 20]
[monotone_constraints: ]
[feature_contri: ]
[forcedsplits_filename: ]
[refit_decay_rate: 0.9]
[verbosity: -1]
[max_bin: 255]
[min_data_in_bin: 3]
[bin_construct_sample_cnt: 200000]
[histogram_pool_size: -1]
[data_random_seed: 1]
[output_model: LightGBM_model.txt]
[snapshot_freq: -1]
[input_model: ]
[output_result: LightGBM_predict_result.txt]
[initscore_filename: ]
[valid_data_initscores: ]
[pre_partition: 0]
[enable_bundle: 1]
[max_conflict_rate: 0]
[is_enable_sparse: 1]
[sparse_threshold: 0.8]
[use_missing: 1]
[zero_as_missing: 0]
[two_round: 0]
[save_binary: 0]
[enable_load_from_binary_file: 1]
[header: 0]
[label_column: ]
[weight_column: ]
[group_column: ]
[ignore_column: ]
[categorical_feature: ]
[predict_raw_score: 0]
[predict_leaf_index: 0]
[predict_contrib: 0]
[num_iteration_predict: -1]
[pred_early_stop: 0]
[pred_early_stop_freq: 10]
[pred_early_stop_margin: 10]
[convert_model_language: ]
[convert_model: gbdt_prediction.cpp]
[num_class: 1]
[is_unbalance: 0]
[scale_pos_weight: 1]
[sigmoid: 1]
[boost_from_average: 1]
[reg_sqrt: 0]
[alpha: 0.9]
[fair_c: 1]
[poisson_max_delta_step: 0.7]
[tweedie_variance_power: 1.5]
[max_position: 20]
[label_gain: ]
[metric_freq: 1]
[is_provide_training_metric: 0]
[eval_at: 1]
[num_machines: 1]
[local_listen_port: 12400]
[time_out: 120]
[machine_list_filename: ]
[machines: ]
[gpu_platform_id: -1]
[gpu_device_id: -1]
[gpu_use_dp: 0]

end of parameters

pandas_categorical:null
