tree
version=v2
num_class=1
num_tree_per_iteration=1
label_index=0
max_feature_idx=3
objective=lambdarank
feature_names=Column_0 Column_1 Column_2 Column_3
feature_infos=[0.079100000000000004:35.822499999999998] [0.00080000000000000004:0.035799999999999998] [0:7.8625999999999996] [0.0207:0.2626]
tree_sizes=264 705 702 687 712 700 704 711 711 713 720 559 560 697 492 488 342 344 340 341 266 267

Tree=0
num_leaves=2
num_cat=0
split_feature=3
split_gain=1.31502
threshold=0.088750000000000009
decision_type=2
left_child=-1
right_child=-2
leaf_value=0.0098062184749285099 -0.040894802198609526
leaf_count=51 18
internal_value=0
internal_count=69
shrinkage=0.1


Tree=1
num_leaves=8
num_cat=0
split_feature=3 3 3 2 2 2 2
split_gain=148.713 154.592 96.2595 92.543 68.2747 56.6287 52.8916
threshold=0.033200000000000007 0.027200000000000005 0.071350000000000011 1.0000000180025095e-35 0.37450000000000006 0.10395000000000001 2.7310000000000003
decision_type=2 2 2 2 2 2 2
left_child=1 -1 3 -2 5 -4 -3
right_child=2 6 4 -5 -6 -7 -8
leaf_value=-0.028050623589006958 0.037969744279319151 0.042659174657983884 -0.047043284717404849 -0.048891258494829948 -0.045446740932098162 0.023999982046591088 -0.013030374655458544
leaf_count=9 1 5 6 23 11 13 1
internal_value=0 0.196825 -0.172031 -0.381419 0.0248415 0.143696 0.354894
internal_count=69 15 54 24 30 19 6
shrinkage=0.1


Tree=2
num_leaves=8
num_cat=0
split_feature=2 1 1 0 0 2 1
split_gain=44.8316 56.3905 26.6658 22.7518 38.3316 26.6143 5.77104
threshold=0.14490000000000003 0.0068000000000000014 0.0029500000000000004 3.0288000000000004 0.23955000000000001 0.33320000000000011 0.0052500000000000003
decision_type=2 2 2 2 2 2 2
left_child=-1 2 -2 4 -4 6 -5
right_child=1 -3 3 5 -6 -7 -8
leaf_value=-0.027460250417765182 -0.035863277591917285 -0.041629472133167637 0.030205473039460331 0.02666142407292442 -0.041236266588693969 -0.044954282256154943 0.047007064248947635
leaf_count=28 7 16 1 5 6 4 2
internal_value=0 0.0955091 0.181996 0.228135 0.00018081 0.330097 0.38026
internal_count=69 41 25 18 7 11 7
shrinkage=0.1


Tree=3
num_leaves=8
num_cat=0
split_feature=3 0 0 3 1 1 0
split_gain=33.4336 26.7804 32.1874 13.0269 10.8759 4.01835 4.00684
threshold=0.033200000000000007 4.1528000000000009 5.4118000000000013 0.027200000000000005 0.00175 0.015750000000000004 32.466950000000004
decision_type=2 2 2 2 2 2 2
left_child=3 -2 5 -1 -4 -3 -5
right_child=1 2 4 6 -6 -7 -8
leaf_value=-0.012021738886839883 -0.042681407490224227 0.034092442600265276 0.020735579169778542 0.03503895214684577 -0.038211835513078073 -0.020596395485342284 -0.023451730825979851
leaf_count=9 27 4 2 5 19 2 1
internal_value=0 -0.143585 0.00710522 0.224847 -0.266582 0.292518 0.322643
internal_count=69 54 27 15 21 6 6
shrinkage=0.1


Tree=4
num_leaves=8
num_cat=0
split_feature=3 3 2 2 2 3 1
split_gain=13.7813 12.6749 7.24199 18.6597 10.0223 3.51079 2.98217
threshold=0.033200000000000007 0.029150000000000006 0.33320000000000011 0.29505000000000009 1.0000000180025095e-35 0.071350000000000011 0.0058500000000000002
decision_type=2 2 2 2 2 2 2
left_child=1 -1 3 4 -2 -6 -5
right_child=2 -3 -4 6 5 -7 -8
leaf_value=-0.0040706060509390204 0.037609534868914551 0.038883700771323304 -0.038280272828662532 -0.04464950285054621 -0.041353306353035628 -0.013614416055895161 0.041665623606143759
leaf_count=12 1 3 17 1 17 17 1
internal_value=0 0.173568 -0.113689 -0.0460229 -0.179439 -0.252262 0.361409
internal_count=69 15 54 37 35 34 2
shrinkage=0.1


Tree=5
num_leaves=8
num_cat=0
split_feature=3 0 3 0 2 0 2
split_gain=11.6177 12.5125 11.5457 11.1444 6.33064 2.34959 1.01771
threshold=0.033200000000000007 4.1528000000000009 0.029150000000000006 5.4118000000000013 0.0081000000000000013 32.466950000000004 0.10395000000000001
decision_type=2 2 2 2 2 2 2
left_child=2 -2 -1 6 -5 -4 -3
right_child=1 3 5 4 -6 -7 -8
leaf_value=-0.0090960205880493035 -0.038405237002381271 -0.030632103547974927 0.040326420759451448 0.03309017542926479 -0.030077269974023393 -0.028390544215113479 0.02968031408334338
leaf_count=12 27 1 2 1 20 1 5
internal_value=0 -0.118661 0.175021 0.0219615 -0.189411 0.367166 0.264727
internal_count=69 54 15 27 21 3 6
shrinkage=0.1


Tree=6
num_leaves=8
num_cat=0
split_feature=3 3 0 0 2 3 2
split_gain=8.33779 7.93429 7.88905 7.59397 3.79052 0.71165 0.634788
threshold=0.033200000000000007 0.027200000000000005 4.1528000000000009 5.4118000000000013 0.0081000000000000013 0.022500000000000003 0.23245000000000002
decision_type=2 2 2 2 2 2 2
left_child=1 5 -2 6 -5 -1 -4
right_child=2 -3 3 4 -6 -7 -8
leaf_value=0.0038898832535482208 -0.03615289032397484 0.030217465624233376 -0.0021628063800443547 0.029180461457119507 -0.029458306265723485 -0.031971465690787251 0.030754653750409141
leaf_count=3 27 6 3 1 20 6 3
internal_value=0 0.168207 -0.115919 0.0117342 -0.193333 -0.173121 0.236375
internal_count=69 15 54 27 21 9 6
shrinkage=0.1


Tree=7
num_leaves=8
num_cat=0
split_feature=3 3 2 2 2 1 1
split_gain=6.17469 5.72319 1.92146 6.79829 1.92904 0.79152 0.738807
threshold=0.033200000000000007 0.029150000000000006 0.33320000000000011 0.29505000000000009 1.0000000180025095e-35 0.0058500000000000002 0.0029500000000000004
decision_type=2 2 2 2 2 2 2
left_child=1 -1 3 4 -2 -5 -3
right_child=2 6 -4 5 -6 -7 -8
leaf_value=-0.0071720192075055275 0.026212264111579488 -0.024539294495006529 -0.032997237814969931 -0.038523102357522078 -0.021712580797043357 0.036904284028892627 0.03734153651451317
leaf_count=12 1 1 17 1 34 1 2
internal_value=0 0.162649 -0.111542 -0.0545288 -0.169174 0.311107 0.340959
internal_count=69 15 54 37 35 2 3
shrinkage=0.1


Tree=8
num_leaves=8
num_cat=0
split_feature=3 3 2 2 2 2 2
split_gain=4.84855 4.00493 1.30524 4.7182 1.11452 0.441345 0.410509
threshold=0.033200000000000007 0.029150000000000006 0.33320000000000011 0.29505000000000009 1.0000000180025095e-35 0.10395000000000001 0.10970000000000001
decision_type=2 2 2 2 2 2 2
left_child=1 -1 3 4 -2 -6 -7
right_child=2 -3 -4 -5 5 6 -8
leaf_value=-0.0050779086682758157 0.024295055478311831 0.033154269645119784 -0.031819380879543849 0.029791395805695359 -0.034025330318163315 0.014315119138142963 -0.019059155099436967
leaf_count=12 1 3 17 2 17 3 14
internal_value=0 0.158374 -0.108867 -0.0540846 -0.156043 -0.19894 -0.107505
internal_count=69 15 54 37 35 34 17
shrinkage=0.1


Tree=9
num_leaves=8
num_cat=0
split_feature=3 3 2 2 2 2 1
split_gain=3.55507 3.58367 0.891922 3.16353 0.574769 0.449681 0.364845
threshold=0.033200000000000007 0.027200000000000005 0.33320000000000011 0.29505000000000009 1.0000000180025095e-35 0.10395000000000001 0.0058500000000000002
decision_type=2 2 2 2 2 2 2
left_child=1 -1 3 4 -2 -6 -5
right_child=2 -3 -4 6 5 -7 -8
leaf_value=-0.01464603536564872 0.022775811565837998 0.027048662498041345 -0.030623115019342912 -0.037992681409191716 -0.033353080518463266 -0.0085878923426666691 0.034239512115326248
leaf_count=9 1 6 17 1 17 17 1
internal_value=0 0.145747 -0.102783 -0.050633 -0.140798 -0.179245 0.274704
internal_count=69 15 54 37 35 34 2
shrinkage=0.1


Tree=10
num_leaves=8
num_cat=0
split_feature=3 3 3 1 2 1 1
split_gain=2.77345 2.52944 0.601096 1.81173 1.33105 0.260107 0.226315
threshold=0.033200000000000007 0.029150000000000006 0.071350000000000011 0.0068000000000000014 1.0000000180025095e-35 0.0034000000000000007 0.0029500000000000004
decision_type=2 2 2 2 2 2 2
left_child=1 5 4 -4 -2 6 -1
right_child=2 -3 3 -5 -6 -7 -8
leaf_value=-0.0072840675837956411 0.021197876264815778 0.031023114785889469 0.01116982566054615 -0.02215296910071627 -0.033575984256871909 -0.031184280928067621 0.030056903657154046
leaf_count=7 1 3 11 19 23 4 1
internal_value=0 0.139629 -0.0997974 -0.0274188 -0.239872 -0.0436578 0.0426928
internal_count=69 15 54 30 24 12 8
shrinkage=0.1


Tree=11
num_leaves=6
num_cat=0
split_feature=3 0 3 0 1
split_gain=2.1413 2.8589 1.93581 1.86823 0.000300907
threshold=0.033200000000000007 3.8032500000000002 0.027200000000000005 5.4118000000000013 0.0029500000000000004
decision_type=2 2 2 2 2
left_child=2 -2 -1 -3 -4
right_child=1 3 4 -5 -6
leaf_value=-0.013316640783109535 -0.034197845439134414 0.017949564828783817 -0.028468082402634595 -0.016052284398931957 0.027711894308295133
leaf_count=9 24 9 1 21 5
internal_value=0 -0.094252 0.138809 0.0146766 0.249976
internal_count=69 54 15 30 6
shrinkage=0.1


Tree=12
num_leaves=6
num_cat=0
split_feature=3 0 3 0 2
split_gain=1.54986 2.37465 1.54951 1.31599 0.399044
threshold=0.033200000000000007 3.8032500000000002 0.029150000000000006 5.4118000000000013 0.0081000000000000013
decision_type=2 2 2 2 2
left_child=2 -2 -1 -3 -5
right_child=1 3 -4 4 -6
leaf_value=-0.0046443599421776447 -0.033579612865809169 0.016875157990451244 0.029529165252036773 0.023269725511989282 -0.022954977248055133
leaf_count=12 24 9 3 1 20
internal_value=0 -0.0880518 0.13226 0.015578 -0.147569
internal_count=69 54 15 30 21
shrinkage=0.1


Tree=13
num_leaves=8
num_cat=0
split_feature=1 1 2 2 0 0 1
split_gain=1.18785 1.08358 0.876715 0.822375 0.80616 0.28089 0.0943513
threshold=0.0068000000000000014 0.0029500000000000004 0.10395000000000001 0.33320000000000011 0.23955000000000001 3.0288000000000004 0.00175
decision_type=2 2 2 2 2 2 2
left_child=1 6 -3 5 -5 -4 -1
right_child=-2 2 3 4 -6 -7 -8
leaf_value=-0.0004455486258598 -0.021965164889311658 -0.031825181257469706 -0.035361878695804545 0.026968452546375355 -0.029302036107816582 0.026229659282375185 -0.030799169600357425
leaf_count=10 22 6 2 1 8 8 12
internal_value=0 0.0496576 0.125091 0.162526 -0.0781637 0.235138 -0.119179
internal_count=69 47 25 19 9 10 22
shrinkage=0.1


Tree=14
num_leaves=5
num_cat=0
split_feature=1 1 1 1
split_gain=0.747504 0.883202 0.150966 1.53576
threshold=0.0068000000000000014 0.0029500000000000004 0.0034000000000000007 0.0052500000000000003
decision_type=2 2 2 2
left_child=1 -1 -3 -4
right_child=-2 2 3 -5
leaf_value=-0.012527441334323156 -0.020493077437843215 0.027188627737267157 -0.01688315818538446 0.022316901501558666
leaf_count=22 22 4 15 6
internal_value=0 0.0477714 0.12295 0.046372
internal_count=69 47 25 21
shrinkage=0.1


Tree=15
num_leaves=5
num_cat=0
split_feature=0 2 2 3
split_gain=0.530452 0.855911 0.920879 0.361359
threshold=3.0288000000000004 0.33320000000000011 0.29505000000000009 0.033200000000000007
decision_type=2 2 2 2
left_child=3 2 -2 -1
right_child=1 -3 -4 -5
leaf_value=0.0012556414081218127 0.0020236860929621499 -0.02447086324046455 0.031597591022958588 -0.032315184146897317
leaf_count=8 27 13 2 19
internal_value=0 0.0603234 0.110827 -0.150271
internal_count=69 42 29 27
shrinkage=0.1


Tree=16
num_leaves=3
num_cat=0
split_feature=1 1
split_gain=0.314496 0.636233
threshold=0.0068000000000000014 0.0029500000000000004
decision_type=2 2
left_child=1 -1
right_child=-2 -3
leaf_value=-0.012389896940795729 -0.019090117024643135 0.011997296783467623
leaf_count=22 22 25
internal_value=0 0.04375
internal_count=69 47
shrinkage=0.1


Tree=17
num_leaves=3
num_cat=0
split_feature=1 1
split_gain=0.157015 0.280713
threshold=0.0068000000000000014 0.0029500000000000004
decision_type=2 2
left_child=1 -1
right_child=-2 -3
leaf_value=-0.010926694974352127 -0.018266144516033613 0.011054839225053561
leaf_count=22 22 25
internal_value=0 0.0418001
internal_count=69 47
shrinkage=0.1


Tree=18
num_leaves=3
num_cat=0
split_feature=3 3
split_gain=0.352843 0.31161
threshold=0.033200000000000007 0.029150000000000006
decision_type=2 2
left_child=1 -1
right_child=-2 -3
leaf_value=-0.0029897407007261501 -0.007841778881242675 0.026776997970932304
leaf_count=12 54 3
internal_value=0 0.116935
internal_count=69 15
shrinkage=0.1


Tree=19
num_leaves=3
num_cat=0
split_feature=3 3
split_gain=0.138285 0.131541
threshold=0.033200000000000007 0.027200000000000005
decision_type=2 2
left_child=1 -1
right_child=-2 -3
leaf_value=-0.0093113476874837568 -0.0071730144905993998 0.020939907150127814
leaf_count=9 54 6
internal_value=0 0.110803
internal_count=69 15
shrinkage=0.1


Tree=20
num_leaves=2
num_cat=0
split_feature=0
split_gain=0.00962618
threshold=3.0288000000000004
decision_type=2
left_child=-1
right_child=-2
leaf_value=-0.013363977682944101 0.0054113337070609774
leaf_count=27 42
internal_value=0
internal_count=69
shrinkage=0.1


Tree=21
num_leaves=2
num_cat=0
split_feature=3
split_gain=0.0405519
threshold=0.033200000000000007
decision_type=2
left_child=-1
right_child=-2
leaf_value=0.010889048754122072 -0.0068858272886971571
leaf_count=15 54
internal_value=0
internal_count=69
shrinkage=0.1


end of trees

feature importances:
Column_3=33
Column_2=31
Column_1=24
Column_0=18

parameters:
[boosting: gbdt]
[objective: lambdarank]
[metric: none,lambdarank]
[tree_learner: serial]
[device_type: cpu]
[data: ]
[valid: ]
[num_iterations: 100]
[learning_rate: 0.1]
[num_leaves: 8]
[num_threads: -1]
[max_depth: -1]
[min_data_in_leaf: 1]
[min_sum_hessian_in_leaf: 0.001]
[bagging_fraction: 1]
[bagging_freq: 0]
[bagging_seed: 3]
[feature_fraction: 0.8]
[feature_fraction_seed: 2]
[early_stopping_round: 0]
[max_delta_step: 0]
[lambda_l1: 0]
[lambda_l2: 0]
[min_gain_to_split: 1]
[drop_rate: 0.1]
[max_drop: 50]
[skip_drop: 0.5]
[xgboost_dart_mode: 0]
[uniform_drop: 0]
[drop_seed: 4]
[top_rate: 0.2]
[other_rate: 0.1]
[min_data_per_group: 100]
[max_cat_threshold: 32]
[cat_l2: 10]
[cat_smooth: 10]
[max_cat_to_onehot: 4]
[top_k: 20]
[monotone_constraints: ]
[feature_contri: ]
[forcedsplits_filename: ]
[refit_decay_rate: 0.9]
[verbosity: -1]
[max_bin: 255]
[min_data_in_bin: 3]
[bin_construct_sample_cnt: 200000]
[histogram_pool_size: -1]
[data_random_seed: 1]
[output_model: LightGBM_model.txt]
[snapshot_freq: -1]
[input_model: ]
[output_result: LightGBM_predict_result.txt]
[initscore_filename: ]
[valid_data_initscores: ]
[pre_partition: 0]
[enable_bundle: 1]
[max_conflict_rate: 0]
[is_enable_sparse: 1]
[sparse_threshold: 0.8]
[use_missing: 1]
[zero_as_missing: 0]
[two_round: 0]
[save_binary: 0]
[enable_load_from_binary_file: 1]
[header: 0]
[label_column: ]
[weight_column: ]
[group_column: ]
[ignore_column: ]
[categorical_feature: ]
[predict_raw_score: 0]
[predict_leaf_index: 0]
[predict_contrib: 0]
[num_iteration_predict: -1]
[pred_early_stop: 0]
[pred_early_stop_freq: 10]
[pred_early_stop_margin: 10]
[convert_model_language: ]
[convert_model: gbdt_prediction.cpp]
[num_class: 1]
[is_unbalance: 0]
[scale_pos_weight: 1]
[sigmoid: 1]
[boost_from_average: 1]
[reg_sqrt: 0]
[alpha: 0.9]
[fair_c: 1]
[poisson_max_delta_step: 0.7]
[tweedie_variance_power: 1.5]
[max_position: 20]
[label_gain: ]
[metric_freq: 1]
[is_provide_training_metric: 0]
[eval_at: 1]
[num_machines: 1]
[local_listen_port: 12400]
[time_out: 120]
[machine_list_filename: ]
[machines: ]
[gpu_platform_id: -1]
[gpu_device_id: -1]
[gpu_use_dp: 0]

end of parameters

pandas_categorical:null
