tree
version=v2
num_class=1
num_tree_per_iteration=1
label_index=0
max_feature_idx=5
objective=lambdarank
feature_names=Column_0 Column_1 Column_2 Column_3 Column_4 Column_5
feature_infos=[0.41999999999999998:0.87] [0.00020000000000000001:1] [0.34810000000000002:0.65059999999999996] [0.125:1] [0:0.5] [0.40000000000000002:0.90000000000000002]
tree_sizes=337 702 694 705 703 702 697 701 562 706 411 703 340 340 560 340 263 265 338 341 263

Tree=0
num_leaves=3
num_cat=0
split_feature=5 5
split_gain=0.568809 1.91574
threshold=0.45000000000000007 0.75000000000000011
decision_type=2 2
left_child=-1 -2
right_child=1 -3
leaf_value=0.042411229624168677 -0.026663522349988346 0.017973990638690412
leaf_count=3 52 14
internal_value=0 -0.0556915
internal_count=69 66
shrinkage=0.1


Tree=1
num_leaves=8
num_cat=0
split_feature=2 2 4 0 0 0 3
split_gain=124.113 20.4501 29.6214 20.1174 27.2249 14.3253 13.1581
threshold=0.42885000000000006 0.53255000000000019 0.15000000000000005 0.79500000000000004 0.65500000000000014 0.75500000000000012 0.88195000000000012
decision_type=2 2 2 2 2 2 2
left_child=5 -2 -3 4 -4 6 -1
right_child=1 2 3 -5 -6 -7 -8
leaf_value=0.044127564093452948 -0.032688940071668469 -0.045954403195940227 -0.027080181224028239 -0.046982791931664075 0.019208699602174601 -0.049466083474111328 -0.049361684757534427
leaf_count=4 31 8 9 4 11 1 1
internal_value=0 -0.160261 -0.0703496 0.0142556 0.0713625 0.385006 0.414239
internal_count=69 63 32 24 20 6 5
shrinkage=0.1


Tree=2
num_leaves=8
num_cat=0
split_feature=3 1 1 1 5 0 0
split_gain=40.6646 32.1873 31.9 22.4777 24.3753 5.99216 5.356
threshold=0.68750000000000011 0.60420000000000007 0.56945000000000012 0.73440000000000005 0.75000000000000011 0.65500000000000014 0.79500000000000004
decision_type=2 2 2 2 2 2 2
left_child=1 -1 -2 4 -4 -6 -7
right_child=2 -3 3 -5 5 6 -8
leaf_value=0.039049906608694285 -0.037024544263426266 -0.047030290475225528 -0.016585840142709765 -0.048530320246693778 -0.047647081914518309 0.034866024721028552 -0.046515895540575031
leaf_count=5 32 5 17 5 1 3 1
internal_value=0 0.275245 -0.116682 0.0257319 0.104478 0.290161 0.320596
internal_count=69 10 59 27 22 5 4
shrinkage=0.1


Tree=3
num_leaves=8
num_cat=0
split_feature=2 2 4 0 0 2 2
split_gain=37.0934 12.5547 8.30516 4.52291 7.83051 10.2159 9.36719
threshold=0.42885000000000006 0.53255000000000019 0.15000000000000005 0.79500000000000004 0.75500000000000012 0.62655000000000005 0.54680000000000006
decision_type=2 2 2 2 2 2 2
left_child=-1 -2 -3 4 5 6 -4
right_child=1 2 3 -5 -6 -7 -8
leaf_value=0.034979752973850552 -0.031240757312007528 -0.040300577418146293 0.015990381984603168 -0.041474355423284093 0.036029233540796471 0.031804788001080435 -0.033497900505056778
leaf_count=6 31 8 5 4 2 1 12
internal_value=0 -0.123272 -0.0135594 0.0442364 0.0776628 -0.0154508 -0.148699
internal_count=69 63 32 24 20 18 17
shrinkage=0.1


Tree=4
num_leaves=8
num_cat=0
split_feature=2 2 2 2 0 3 0
split_gain=21.7252 9.41569 2.49823 3.15574 3.15867 6.12001 4.65791
threshold=0.42885000000000006 0.53255000000000019 0.54680000000000006 0.57195000000000007 0.75500000000000012 0.88195000000000012 0.68500000000000016
decision_type=2 2 2 2 2 2 2
left_child=-1 -2 -3 -4 6 -6 -5
right_child=1 2 3 4 5 -7 -8
leaf_value=0.031455981636365885 -0.029451192945203049 0.018815122420069153 -0.039423915784850674 0.0033820133123242343 0.04262177028612911 -0.032549115289143019 -0.038294701134640612
leaf_count=6 31 6 6 9 1 3 7
internal_value=0 -0.106013 0.0023975 -0.055802 -0.00596555 0.212605 -0.0945586
internal_count=69 63 32 26 20 4 16
shrinkage=0.1


Tree=5
num_leaves=8
num_cat=0
split_feature=3 1 1 1 0 0 3
split_gain=22.0523 12.4203 5.08151 4.14107 2.54369 1.24698 1.88866
threshold=0.68750000000000011 0.60420000000000007 0.56945000000000012 0.62860000000000016 0.63000000000000012 0.66500000000000015 0.88195000000000012
decision_type=2 2 2 2 2 2 2
left_child=1 -1 -2 4 -4 6 -5
right_child=2 -3 3 5 -6 -7 -8
leaf_value=0.034700961271721523 -0.029619159216058889 -0.042644955672092554 -0.031469376066864063 -0.041360296861576981 0.01646572890321292 -0.04288365401937351 0.0044848857719609536
leaf_count=5 32 5 3 4 11 6 3
internal_value=0 0.257768 -0.149129 -0.0402759 0.0944141 -0.215117 -0.104442
internal_count=69 10 59 27 14 13 7
shrinkage=0.1


Tree=6
num_leaves=8
num_cat=0
split_feature=2 1 2 1 1 3 3
split_gain=15.6923 3.66464 2.38985 2.86727 3.9001 2.76697 1.97691
threshold=0.42885000000000006 0.60420000000000007 0.53255000000000019 0.46705000000000002 0.73440000000000005 0.8660500000000001 0.88195000000000012
decision_type=2 2 2 2 2 2 2
left_child=1 6 -2 -4 5 -5 -1
right_child=2 -3 3 4 -6 -7 -8
leaf_value=0.035954323907541511 -0.024456074200184169 -0.042959657678629741 -0.035140711325929622 -0.032106303232136577 -0.04033662561350207 0.015516179057227995 -0.042814909472051924
leaf_count=3 31 2 9 4 6 13 1
internal_value=0 0.285095 -0.12228 -0.0395512 0.022493 0.0915155 0.330507
internal_count=69 6 63 32 23 17 4
shrinkage=0.1


Tree=7
num_leaves=8
num_cat=0
split_feature=2 1 2 1 1 0 0
split_gain=11.6527 5.17071 2.46589 1.77277 2.63555 2.0325 0.619116
threshold=0.45645000000000008 0.60420000000000007 0.53255000000000019 0.46705000000000002 0.73440000000000005 0.63000000000000012 0.79500000000000004
decision_type=2 2 2 2 2 2 2
left_child=1 -1 -2 -4 5 -5 -7
right_child=2 -3 3 4 -6 6 -8
leaf_value=0.032058560950539924 -0.027265805302280885 -0.039766219792501896 -0.03228061515570068 -0.021828325772918853 -0.038716870108611634 0.020818062336457319 -0.023780798915549021
leaf_count=5 28 4 9 6 6 8 3
internal_value=0 0.249949 -0.125315 -0.0378886 0.0197433 0.0833557 0.166125
internal_count=69 9 60 32 23 17 11
shrinkage=0.1


Tree=8
num_leaves=6
num_cat=0
split_feature=2 2 4 5 0
split_gain=8.90438 1.03617 0.759842 0.666332 0.466113
threshold=0.42885000000000006 0.53255000000000019 1.0000000180025095e-35 0.55000000000000016 0.75500000000000012
decision_type=2 2 2 2 2
left_child=2 3 -1 -2 -4
right_child=1 -3 4 -5 -6
leaf_value=-0.041104936724380203 -0.0098648674466585342 -0.0032451047380563009 0.031649096309222309 -0.035858394497358281 -0.038760151499180412
leaf_count=1 14 32 4 17 1
internal_value=0 -0.10787 0.267531 -0.218253 0.293829
internal_count=69 63 6 31 5
shrinkage=0.1


Tree=9
num_leaves=8
num_cat=0
split_feature=2 1 2 1 1 1 2
split_gain=6.92434 1.29186 0.825321 1.06474 1.73927 0.703299 0.179739
threshold=0.42885000000000006 0.60420000000000007 0.53255000000000019 0.46705000000000002 0.73440000000000005 0.29910000000000009 0.50550000000000017
decision_type=2 2 2 2 2 2 2
left_child=1 -1 5 -4 -5 6 -2
right_child=2 -3 3 4 -6 -7 -8
leaf_value=0.02997496791635846 0.0078697340371260555 -0.039407602316946316 -0.030323188990893413 0.0089317736928240712 -0.03713663167559459 -0.032108851061295761 -0.035701462121577543
leaf_count=4 5 2 9 17 6 23 3
internal_value=0 0.258688 -0.099565 -0.0268105 0.0284724 -0.212496 -0.0323009
internal_count=69 6 63 32 23 31 8
shrinkage=0.1


Tree=10
num_leaves=4
num_cat=0
split_feature=2 2 3
split_gain=5.6738 0.595792 0.365927
threshold=0.42885000000000006 0.53255000000000019 0.88195000000000012
decision_type=2 2 2
left_child=2 -2 -1
right_child=1 -3 -4
leaf_value=0.028165729105653094 -0.021575748553643925 -0.002786110221335787 -0.039515721157545078
leaf_count=5 31 32 1
internal_value=0 -0.0983714 0.253511
internal_count=69 63 6
shrinkage=0.1


Tree=11
num_leaves=8
num_cat=0
split_feature=2 1 1 1 3 2 3
split_gain=4.45925 2.03663 1.32945 0.58919 0.76647 0.329135 0.232079
threshold=0.45645000000000008 0.60420000000000007 0.56945000000000012 0.73440000000000005 0.8660500000000001 0.53255000000000019 0.88195000000000012
decision_type=2 2 2 2 2 2 2
left_child=1 6 -2 4 -4 -6 -1
right_child=2 -3 3 -5 5 -7 -8
leaf_value=0.031222420888559334 -0.024441045315407285 -0.036627327987821603 -0.027493191360649358 -0.035614027487340209 -0.030266795222784373 0.014317720338353906 -0.038289705970725535
leaf_count=4 32 4 6 6 4 12 1
internal_value=0 0.219332 -0.100149 -0.00551205 0.0384774 0.100044 0.28589
internal_count=69 9 60 28 22 16 5
shrinkage=0.1


Tree=12
num_leaves=3
num_cat=0
split_feature=2 2
split_gain=3.47732 0.194003
threshold=0.42885000000000006 0.53255000000000019
decision_type=2 2
left_child=-1 -2
right_child=1 -3
leaf_value=0.023773657789961964 -0.019985611828878754 -0.0021032831482919291
leaf_count=6 31 32
internal_value=0 -0.0855357
internal_count=69 63
shrinkage=0.1


Tree=13
num_leaves=3
num_cat=0
split_feature=2 2
split_gain=2.75414 0.0429266
threshold=0.42885000000000006 0.53255000000000019
decision_type=2 2
left_child=-1 -2
right_child=1 -3
leaf_value=0.022756113824703168 -0.018894573238253665 -0.001787556872326946
leaf_count=6 31 32
internal_value=0 -0.0788683
internal_count=69 63
shrinkage=0.1


Tree=14
num_leaves=6
num_cat=0
split_feature=2 1 2 1 1
split_gain=2.28786 1.2917 0.434803 0.555315 0.485725
threshold=0.45645000000000008 0.60420000000000007 0.53255000000000019 0.46705000000000002 0.73440000000000005
decision_type=2 2 2 2 2
left_child=1 -1 -2 -4 -5
right_child=2 -3 3 4 -6
leaf_value=0.026668913785414191 -0.023447201172728097 -0.036224298850087988 -0.031724648493773717 0.008430696073607807 -0.034586648865284224
leaf_count=5 28 4 9 17 6
internal_value=0 0.197588 -0.0832993 -0.0157563 0.0373582
internal_count=69 9 60 32 23
shrinkage=0.1


Tree=15
num_leaves=3
num_cat=0
split_feature=2 2
split_gain=1.71391 0.247496
threshold=0.45645000000000008 0.53255000000000019
decision_type=2 2
left_child=-1 -2
right_child=1 -3
leaf_value=0.019083339399928213 -0.022839069080959278 -0.0013606205550217953
leaf_count=9 28 32
internal_value=0 -0.0786118
internal_count=69 60
shrinkage=0.1


Tree=16
num_leaves=2
num_cat=0
split_feature=2
split_gain=1.34488
threshold=0.42885000000000006
decision_type=2
left_child=-1
right_child=-2
leaf_value=0.020403947518919625 -0.0066452338782178296
leaf_count=6 63
internal_value=0
internal_count=69
shrinkage=0.1


Tree=17
num_leaves=2
num_cat=0
split_feature=0
split_gain=0.236336
threshold=0.55500000000000016
decision_type=2
left_child=-1
right_child=-2
leaf_value=0.012174878882926465 -0.0060136879393571374
leaf_count=14 55
internal_value=0
internal_count=69
shrinkage=0.1


Tree=18
num_leaves=3
num_cat=0
split_feature=2 3
split_gain=0.650847 0.0657089
threshold=0.42885000000000006 0.88195000000000012
decision_type=2 2
left_child=1 -1
right_child=-2 -3
leaf_value=0.022367742270695268 -0.0055177723158453436 -0.041989627753175655
leaf_count=5 63 1
internal_value=0 0.178631
internal_count=69 6
shrinkage=0.1


Tree=19
num_leaves=3
num_cat=0
split_feature=3 3
split_gain=0.350536 0.0847335
threshold=0.68750000000000011 0.8660500000000001
decision_type=2 2
left_child=-1 -2
right_child=1 -3
leaf_value=0.014734118367202169 -0.02885076793493023 -0.0016632498287059189
leaf_count=10 13 46
internal_value=0 -0.0564548
internal_count=69 59
shrinkage=0.1


Tree=20
num_leaves=2
num_cat=0
split_feature=2
split_gain=0.232542
threshold=0.42885000000000006
decision_type=2
left_child=-1
right_child=-2
leaf_value=0.016397793284522087 -0.004769277751275656
leaf_count=6 63
internal_value=0
internal_count=69
shrinkage=0.1


end of trees

feature importances:
Column_2=34
Column_1=22
Column_0=15
Column_3=13
Column_5=4
Column_4=3

parameters:
[boosting: gbdt]
[objective: lambdarank]
[metric: none,lambdarank]
[tree_learner: serial]
[device_type: cpu]
[data: ]
[valid: ]
[num_iterations: 100]
[learning_rate: 0.1]
[num_leaves: 8]
[num_threads: -1]
[max_depth: -1]
[min_data_in_leaf: 1]
[min_sum_hessian_in_leaf: 0.001]
[bagging_fraction: 1]
[bagging_freq: 0]
[bagging_seed: 3]
[feature_fraction: 0.8]
[feature_fraction_seed: 2]
[early_stopping_round: 0]
[max_delta_step: 0]
[lambda_l1: 0]
[lambda_l2: 0]
[min_gain_to_split: 1]
[drop_rate: 0.1]
[max_drop: 50]
[skip_drop: 0.5]
[xgboost_dart_mode: 0]
[uniform_drop: 0]
[drop_seed: 4]
[top_rate: 0.2]
[other_rate: 0.1]
[min_data_per_group: 100]
[max_cat_threshold: 32]
[cat_l2: 10]
[cat_smooth: 10]
[max_cat_to_onehot: 4]
[top_k: 20]
[monotone_constraints: ]
[feature_contri: ]
[forcedsplits_filename: ]
[refit_decay_rate: 0.9]
[verbosity: -1]
[max_bin: 255]
[min_data_in_bin: 3]
[bin_construct_sample_cnt: 200000]
[histogram_pool_size: -1]
[data_random_seed: 1]
[output_model: LightGBM_model.txt]
[snapshot_freq: -1]
[input_model: ]
[output_result: LightGBM_predict_result.txt]
[initscore_filename: ]
[valid_data_initscores: ]
[pre_partition: 0]
[enable_bundle: 1]
[max_conflict_rate: 0]
[is_enable_sparse: 1]
[sparse_threshold: 0.8]
[use_missing: 1]
[zero_as_missing: 0]
[two_round: 0]
[save_binary: 0]
[enable_load_from_binary_file: 1]
[header: 0]
[label_column: ]
[weight_column: ]
[group_column: ]
[ignore_column: ]
[categorical_feature: ]
[predict_raw_score: 0]
[predict_leaf_index: 0]
[predict_contrib: 0]
[num_iteration_predict: -1]
[pred_early_stop: 0]
[pred_early_stop_freq: 10]
[pred_early_stop_margin: 10]
[convert_model_language: ]
[convert_model: gbdt_prediction.cpp]
[num_class: 1]
[is_unbalance: 0]
[scale_pos_weight: 1]
[sigmoid: 1]
[boost_from_average: 1]
[reg_sqrt: 0]
[alpha: 0.9]
[fair_c: 1]
[poisson_max_delta_step: 0.7]
[tweedie_variance_power: 1.5]
[max_position: 20]
[label_gain: ]
[metric_freq: 1]
[is_provide_training_metric: 0]
[eval_at: 1]
[num_machines: 1]
[local_listen_port: 12400]
[time_out: 120]
[machine_list_filename: ]
[machines: ]
[gpu_platform_id: -1]
[gpu_device_id: -1]
[gpu_use_dp: 0]

end of parameters

pandas_categorical:null
