tree
version=v2
num_class=1
num_tree_per_iteration=1
label_index=0
max_feature_idx=5
objective=lambdarank
feature_names=Column_0 Column_1 Column_2 Column_3 Column_4 Column_5
feature_infos=[0.41999999999999998:0.87] [0.00020000000000000001:1] [0.32029999999999997:0.67369999999999997] [0.125:1] [0:0.40000000000000002] [0.40000000000000002:0.90000000000000002]
tree_sizes=408 694 700 709 699 697 702 697 702 701 703 559 414 412 633 263 265 563 494 339 340

Tree=0
num_leaves=4
num_cat=0
split_feature=3 2 2
split_gain=1.97568 0.304112 1.90545
threshold=0.88195000000000012 0.59725000000000017 0.47875000000000006
decision_type=2 2 2
left_child=1 2 -1
right_child=-2 -3 -4
leaf_value=0.032608099239846186 -0.032799891292860615 0.037098442336722194 -0.03868058781850197
leaf_count=9 32 6 22
internal_value=0 0.15574 0.00234574
internal_count=69 37 31
shrinkage=0.1


Tree=1
num_leaves=8
num_cat=0
split_feature=3 0 4 0 0 0 0
split_gain=33.133 32.9967 56.295 49.05 19.4587 48.4857 14.8429
threshold=0.88195000000000012 0.75500000000000012 0.15000000000000005 0.78500000000000014 0.67500000000000016 0.58500000000000008 0.48000000000000004
decision_type=2 2 2 2 2 2 2
left_child=1 2 4 -3 5 6 -1
right_child=-2 3 -4 -5 -6 -7 -8
leaf_value=0.048398955332417837 -0.024885249518266164 0.04780521732338313 -0.034974244160545002 -0.047640985397457453 0.036923359045518855 -0.049541031452394996 0.0068523790407314274
leaf_count=1 32 1 19 3 1 5 7
internal_value=0 0.0676305 -0.0166675 0.320524 0.127157 0.0259832 0.18709
internal_count=69 37 33 4 14 13 8
shrinkage=0.1


Tree=2
num_leaves=8
num_cat=0
split_feature=3 0 5 3 0 0 5
split_gain=30.9341 15.7769 16.986 17.0296 17.4312 9.49409 18.3119
threshold=0.88195000000000012 0.48000000000000004 0.8500000000000002 0.77500000000000013 0.52500000000000013 0.58500000000000008 0.65000000000000002
decision_type=2 2 2 2 2 2 2
left_child=1 -1 3 4 -3 -6 -7
right_child=-2 2 -4 -5 5 6 -8
leaf_value=0.044215519275249124 -0.02431858527631571 -0.049703388420165286 0.036343003150299265 -0.030125806543926478 0.035132077709905118 -0.044938927921308269 0.028758650129670011
leaf_count=1 32 2 2 18 4 8 2
internal_value=0 0.111858 0.0486896 -0.0359705 0.0917977 0.178985 -0.0157429
internal_count=69 37 36 34 16 14 10
shrinkage=0.1


Tree=3
num_leaves=8
num_cat=0
split_feature=2 0 0 0 4 0 2
split_gain=16.2435 4.80853 12.2313 9.80688 9.35428 8.84675 12.2913
threshold=0.36975000000000008 0.78500000000000014 0.75500000000000012 0.69500000000000006 0.25000000000000006 0.67500000000000016 0.50495000000000012
decision_type=2 2 2 2 2 2 2
left_child=-1 2 3 4 5 6 -2
right_child=1 -3 -4 -5 -6 -7 -8
leaf_value=0.034437450985337764 0.012370646306777471 -0.034506415129144437 0.030089089202714706 -0.037956472710789946 -0.026293364093186607 0.03261679322247079 -0.039469463902951869
leaf_count=3 10 9 3 13 17 3 11
internal_value=0 -0.0586981 -0.0308673 -0.0909075 -0.0243463 0.0706023 -0.0472401
internal_count=69 66 57 54 41 24 21
shrinkage=0.1


Tree=4
num_leaves=8
num_cat=0
split_feature=3 0 2 2 2 0 0
split_gain=12.0374 5.98134 8.13356 10.7578 6.80168 5.00571 2.87334
threshold=0.88195000000000012 0.48000000000000004 0.59725000000000017 0.47875000000000006 0.45790000000000003 0.67500000000000016 0.69500000000000006
decision_type=2 2 2 2 2 2 2
left_child=1 -1 3 4 -3 -4 -2
right_child=6 2 5 -5 -6 -7 -8
leaf_value=0.039991875064325104 -0.0084884635387277377 -0.0084656065245708994 -0.04506112721236899 -0.030319430666561144 0.043526831656985988 0.031203390052311521 -0.036386580143707832
leaf_count=1 15 7 2 22 1 4 17
internal_value=0 0.0975727 0.0443361 -0.076494 0.147044 0.2493 -0.21049
internal_count=69 37 36 30 8 6 32
shrinkage=0.1


Tree=5
num_leaves=8
num_cat=0
split_feature=3 0 5 0 1 5 0
split_gain=8.47805 4.11543 4.64864 3.82598 3.21991 2.79271 2.48684
threshold=0.88195000000000012 0.48000000000000004 0.8500000000000002 0.58500000000000008 0.43670000000000003 0.65000000000000002 0.75500000000000012
decision_type=2 2 2 2 2 2 2
left_child=1 -1 3 4 -3 -5 -4
right_child=-2 2 6 5 -6 -7 -8
leaf_value=0.038374904008315253 -0.020396004635139416 0.022557362338983335 -0.04545709036976666 -0.02814692253776388 -0.037525291462520413 0.005922173476560183 0.038776425133555989
leaf_count=1 32 6 1 20 3 5 1
internal_value=0 0.0922037 0.0416518 -0.0286863 0.141715 -0.149237 0.313144
internal_count=69 37 36 34 9 25 2
shrinkage=0.1


Tree=6
num_leaves=8
num_cat=0
split_feature=2 1 1 2 1 3 2
split_gain=5.87919 7.098 4.48727 3.1237 3.49365 1.40564 0.000732175
threshold=0.47875000000000006 0.54875000000000007 0.60420000000000007 0.53140000000000021 0.83815000000000006 0.88195000000000012 0.49830000000000002
decision_type=2 2 2 2 2 2 2
left_child=2 6 5 -3 -5 -1 -2
right_child=1 3 -4 4 -6 -7 -8
leaf_value=0.029679763369608245 -0.010908060707361861 -0.036292687151856913 -0.041105885802756197 0.013952221372847615 -0.038839702887280766 -0.015374066570312093 -0.03658335017175187
leaf_count=6 4 7 4 17 5 3 23
internal_value=0 -0.0861199 0.183091 0.0316346 0.0847536 0.249264 -0.31789
internal_count=69 56 13 29 22 9 27
shrinkage=0.1


Tree=7
num_leaves=8
num_cat=0
split_feature=2 1 1 0 0 0 1
split_gain=6.26359 5.00647 3.58585 1.74847 2.42614 1.04763 0.665803
threshold=0.47875000000000006 0.45620000000000005 0.60420000000000007 0.75500000000000012 0.78500000000000014 0.6150000000000001 0.60420000000000007
decision_type=2 2 2 2 2 2 2
left_child=2 -2 5 -3 6 -1 -5
right_child=1 3 -4 4 -6 -7 -8
leaf_value=0.029750317073649991 -0.037170453575875444 -0.0081486849358316776 -0.039353572864227304 -0.04018070876451104 -0.025198607657373463 -0.013110417316911075 0.036656936730344064
leaf_count=6 19 31 4 1 4 3 1
internal_value=0 -0.091335 0.1936 -0.0145776 0.172891 0.252917 0.312805
internal_count=69 56 13 37 6 9 2
shrinkage=0.1


Tree=8
num_leaves=8
num_cat=0
split_feature=2 0 2 0 0 4 0
split_gain=5.12979 3.03222 2.30794 1.76838 0.775827 0.744835 1.61972
threshold=0.47875000000000006 0.58500000000000008 0.53140000000000021 0.53500000000000014 0.56500000000000006 0.25000000000000006 0.63500000000000012
decision_type=2 2 2 2 2 2 2
left_child=1 4 3 -2 -1 -4 -7
right_child=2 -3 5 -5 -6 6 -8
leaf_value=0.01342510981270246 0.026714587405595142 -0.022672749277896392 -0.011370522523281456 -0.035808238137484169 0.038617508513675639 -0.022712793048565567 0.02016243570018339
leaf_count=6 1 6 22 21 1 6 6
internal_value=0 0.169724 -0.0975153 -0.283945 0.244981 -0.0220809 0.0916376
internal_count=69 13 56 22 7 34 12
shrinkage=0.1


Tree=9
num_leaves=8
num_cat=0
split_feature=2 1 1 2 1 0 0
split_gain=3.4713 3.50438 2.11546 1.64293 1.97911 1.13607 0.792602
threshold=0.47875000000000006 0.54875000000000007 0.60420000000000007 0.53140000000000021 0.83815000000000006 0.48000000000000004 0.81000000000000016
decision_type=2 2 2 2 2 2 2
left_child=2 5 -1 -3 6 -2 -5
right_child=1 3 -4 4 -6 -7 -8
leaf_value=0.020700654675944855 0.023737236066209748 -0.035019193512402423 -0.036975394144282817 0.016686292467357668 -0.036083004470023404 -0.034323431646849582 -0.027836385357707952
leaf_count=9 1 7 4 14 5 26 3
internal_value=0 -0.0863479 0.15663 0.0186926 0.069861 -0.287564 0.126113
internal_count=69 56 13 29 22 27 17
shrinkage=0.1


Tree=10
num_leaves=8
num_cat=0
split_feature=2 0 2 0 0 3 0
split_gain=2.37629 1.64698 1.29247 0.522922 0.508362 1.97013 0.333491
threshold=0.47875000000000006 0.58500000000000008 0.53140000000000021 0.53500000000000014 0.56500000000000006 0.68750000000000011 0.63500000000000012
decision_type=2 2 2 2 2 2 2
left_child=1 4 3 -2 5 -1 -4
right_child=2 -3 6 -5 -6 -7 -8
leaf_value=0.020393560076880552 0.01985344538474574 -0.021249395576966257 -0.022916216617636636 -0.033225154474894228 0.036514482712425939 -0.044026281749698803 0.0031610357071495303
leaf_count=4 1 6 9 21 1 2 25
internal_value=0 0.139813 -0.0825558 -0.266218 0.208997 0.102579 -0.014688
internal_count=69 13 56 22 7 6 34
shrinkage=0.1


Tree=11
num_leaves=6
num_cat=0
split_feature=3 1 1 2 2
split_gain=2.01942 0.923338 1.23928 0.387557 2.67525
threshold=0.88195000000000012 0.39390000000000008 0.62860000000000016 0.59725000000000017 0.47875000000000006
decision_type=2 2 2 2 2
left_child=1 -1 3 4 -3
right_child=-2 2 -4 -5 -6
leaf_value=-0.013983722924868347 -0.015554465385499709 0.023318050446378039 -0.039978609463172998 0.031476705279447098 -0.016930592742290348
leaf_count=11 32 6 3 2 15
internal_value=0 0.0734594 0.123698 0.153144 0.0907223
internal_count=69 37 26 23 21
shrinkage=0.1


Tree=12
num_leaves=4
num_cat=0
split_feature=2 5 2
split_gain=1.49133 0.929317 0.692774
threshold=0.47875000000000006 0.55000000000000016 0.53140000000000021
decision_type=2 2 2
left_child=1 -1 -2
right_child=2 -3 -4
leaf_value=0.018547991389184868 -0.024767567957422736 -0.034261065640307169 -0.0012076961167888838
leaf_count=9 22 4 34
internal_value=0 0.138067 -0.0750861
internal_count=69 13 56
shrinkage=0.1


Tree=13
num_leaves=4
num_cat=0
split_feature=0 2 2
split_gain=1.16058 1.26991 0.998934
threshold=0.58500000000000008 0.53140000000000021 0.50495000000000012
decision_type=2 2 2
left_child=2 -2 -1
right_child=1 -3 -4
leaf_value=0.018785859597763993 -0.02830252196218136 0.00018551846046320608 -0.021510341444218779
leaf_count=9 23 30 7
internal_value=0 -0.0782447 0.121294
internal_count=69 53 16
shrinkage=0.1


Tree=14
num_leaves=7
num_cat=0
split_feature=0 1 1 2 2 0
split_gain=0.748554 1.77252 1.14822 1.41832 0.535743 0.0927877
threshold=0.58500000000000008 0.54875000000000007 0.62860000000000016 0.53140000000000021 0.50495000000000012 0.81000000000000016
decision_type=2 2 2 2 2 2
left_child=4 -2 3 -3 -1 -5
right_child=1 2 -4 5 -6 -7
leaf_value=0.017153315333641356 -0.028797456589533733 -0.031460522202015166 -0.035111624720960542 0.02040905276775045 -0.019592235049121543 -0.02272964095281672
leaf_count=9 24 9 7 10 7 3
internal_value=0 -0.0712265 0.0245592 0.0863024 0.112605 0.162139
internal_count=69 53 29 22 16 13
shrinkage=0.1


Tree=15
num_leaves=2
num_cat=0
split_feature=0
split_gain=0.463153
threshold=0.48000000000000004
decision_type=2
left_child=-1
right_child=-2
leaf_value=0.022209500709290037 -0.003190854785526942
leaf_count=3 66
internal_value=0
internal_count=69
shrinkage=0.1


Tree=16
num_leaves=2
num_cat=0
split_feature=3
split_gain=0.435223
threshold=0.88195000000000012
decision_type=2
left_child=-1
right_child=-2
leaf_value=0.0060462929078613182 -0.011664829686428894
leaf_count=37 32
internal_value=0
internal_count=69
shrinkage=0.1


Tree=17
num_leaves=6
num_cat=0
split_feature=1 1 5 0 1
split_gain=0.525885 0.661967 0.176166 0.928016 0.254155
threshold=0.62860000000000016 0.39390000000000008 0.8500000000000002 0.69500000000000006 0.43670000000000003
decision_type=2 2 2 2 2
left_child=1 -1 3 4 -3
right_child=-2 2 -4 -5 -6
leaf_value=-0.016255745510471525 -0.029098045090322412 0.029336628219971152 0.028618905116605989 -0.024361781651207101 0.0031494012803289098
leaf_count=18 8 2 2 13 26
internal_value=0 0.0263532 0.0745694 0.0363341 0.0922727
internal_count=69 61 43 41 28
shrinkage=0.1


Tree=18
num_leaves=5
num_cat=0
split_feature=5 2 0 0
split_gain=0.248212 0.70054 0.0437726 0.0851473
threshold=0.55000000000000016 0.53140000000000021 0.67500000000000016 0.78500000000000014
decision_type=2 2 2 2
left_child=-1 -2 -3 -4
right_child=1 2 3 -5
leaf_value=0.010093869101836021 -0.031401194582910734 -0.018199239393824541 0.011323225210604332 -0.025603021538616846
leaf_count=17 19 13 14 6
internal_value=0 -0.0666146 -0.00514988 0.0607407
internal_count=69 52 33 20
shrinkage=0.1


Tree=19
num_leaves=3
num_cat=0
split_feature=0 3
split_gain=0.132787 0.246642
threshold=0.58500000000000008 0.77500000000000013
decision_type=2 2
left_child=1 -1
right_child=-2 -3
leaf_value=0.018433849900456722 -0.0064676009195747952 -0.011337494504613554
leaf_count=7 53 9
internal_value=0 0.0996974
internal_count=69 16
shrinkage=0.1


Tree=20
num_leaves=3
num_cat=0
split_feature=1 1
split_gain=0.154037 0.176828
threshold=0.39390000000000008 0.62860000000000016
decision_type=2 2
left_child=-1 -2
right_child=1 -3
leaf_value=-0.016728952520321774 0.0068818495707079156 -0.025596605723687701
leaf_count=18 43 8
internal_value=0 0.0401423
internal_count=69 51
shrinkage=0.1


end of trees

feature importances:
Column_0=39
Column_2=26
Column_1=19
Column_3=11
Column_5=7
Column_4=3

parameters:
[boosting: gbdt]
[objective: lambdarank]
[metric: none,lambdarank]
[tree_learner: serial]
[device_type: cpu]
[data: ]
[valid: ]
[num_iterations: 100]
[learning_rate: 0.1]
[num_leaves: 8]
[num_threads: -1]
[max_depth: -1]
[min_data_in_leaf: 1]
[min_sum_hessian_in_leaf: 0.001]
[bagging_fraction: 1]
[bagging_freq: 0]
[bagging_seed: 3]
[feature_fraction: 0.8]
[feature_fraction_seed: 2]
[early_stopping_round: 0]
[max_delta_step: 0]
[lambda_l1: 0]
[lambda_l2: 0]
[min_gain_to_split: 1]
[drop_rate: 0.1]
[max_drop: 50]
[skip_drop: 0.5]
[xgboost_dart_mode: 0]
[uniform_drop: 0]
[drop_seed: 4]
[top_rate: 0.2]
[other_rate: 0.1]
[min_data_per_group: 100]
[max_cat_threshold: 32]
[cat_l2: 10]
[cat_smooth: 10]
[max_cat_to_onehot: 4]
[top_k: 20]
[monotone_constraints: ]
[feature_contri: ]
[forcedsplits_filename: ]
[refit_decay_rate: 0.9]
[verbosity: -1]
[max_bin: 255]
[min_data_in_bin: 3]
[bin_construct_sample_cnt: 200000]
[histogram_pool_size: -1]
[data_random_seed: 1]
[output_model: LightGBM_model.txt]
[snapshot_freq: -1]
[input_model: ]
[output_result: LightGBM_predict_result.txt]
[initscore_filename: ]
[valid_data_initscores: ]
[pre_partition: 0]
[enable_bundle: 1]
[max_conflict_rate: 0]
[is_enable_sparse: 1]
[sparse_threshold: 0.8]
[use_missing: 1]
[zero_as_missing: 0]
[two_round: 0]
[save_binary: 0]
[enable_load_from_binary_file: 1]
[header: 0]
[label_column: ]
[weight_column: ]
[group_column: ]
[ignore_column: ]
[categorical_feature: ]
[predict_raw_score: 0]
[predict_leaf_index: 0]
[predict_contrib: 0]
[num_iteration_predict: -1]
[pred_early_stop: 0]
[pred_early_stop_freq: 10]
[pred_early_stop_margin: 10]
[convert_model_language: ]
[convert_model: gbdt_prediction.cpp]
[num_class: 1]
[is_unbalance: 0]
[scale_pos_weight: 1]
[sigmoid: 1]
[boost_from_average: 1]
[reg_sqrt: 0]
[alpha: 0.9]
[fair_c: 1]
[poisson_max_delta_step: 0.7]
[tweedie_variance_power: 1.5]
[max_position: 20]
[label_gain: ]
[metric_freq: 1]
[is_provide_training_metric: 0]
[eval_at: 1]
[num_machines: 1]
[local_listen_port: 12400]
[time_out: 120]
[machine_list_filename: ]
[machines: ]
[gpu_platform_id: -1]
[gpu_device_id: -1]
[gpu_use_dp: 0]

end of parameters

pandas_categorical:null
