tree
version=v2
num_class=1
num_tree_per_iteration=1
label_index=0
max_feature_idx=9
objective=lambdarank
feature_names=Column_0 Column_1 Column_2 Column_3 Column_4 Column_5 Column_6 Column_7 Column_8 Column_9
feature_infos=[0.079100000000000004:46.055300000000003] [0.00020000000000000001:0.035799999999999998] [0:7.8625999999999996] [0.012500000000000001:0.2626] [0.41999999999999998:0.87] [0.00020000000000000001:1] [0.34810000000000002:0.65059999999999996] [0.125:1] [0:0.5] [0.40000000000000002:0.90000000000000002]
tree_sizes=557 704 698 697 705 706 707 706 713 630 558 557 486 412 337 341 414 411 264 414 341

Tree=0
num_leaves=6
num_cat=0
split_feature=0 3 0 2 2
split_gain=2.29523 1.87284 1.89285 0.871824 0.0955473
threshold=6.8858500000000005 0.099400000000000016 0.92160000000000009 0.14090000000000003 0.0053500000000000006
decision_type=2 2 2 2 2
left_child=1 2 -1 -4 -2
right_child=4 -3 3 -5 -6
leaf_value=-0.04216439964770155 0.041593764640903495 -0.038502297405336942 -0.019211980078004724 0.045048417405188126 -0.045832123334814984
leaf_count=9 1 15 8 7 29
internal_value=0 0.13133 0.244217 0.351638 -0.377764
internal_count=69 39 24 15 30
shrinkage=0.1


Tree=1
num_leaves=8
num_cat=0
split_feature=0 0 3 0 2 2 3
split_gain=81.0758 44.0552 33.3191 72.6402 22.448 11.4328 8.19197
threshold=6.8858500000000005 0.92160000000000009 0.042100000000000005 4.0732500000000007 0.14090000000000003 0.0053500000000000006 0.017500000000000005
decision_type=2 2 2 2 2 2 2
left_child=1 -1 4 -4 6 -2 -3
right_child=5 2 3 -5 -6 -7 -8
leaf_value=-0.042035361681645733 0.0072337142310992175 -0.048133974522913292 -0.047499517897122701 0.027907605218607308 0.042524967509795696 -0.042069581185291603 0.011278360071417174
leaf_count=12 1 2 11 7 3 29 4
internal_value=0 0.122905 0.182855 -0.00286002 0.331174 -0.359814 -0.0286446
internal_count=69 39 27 18 9 30 6
shrinkage=0.1


Tree=2
num_leaves=8
num_cat=0
split_feature=0 3 0 2 2 7 0
split_gain=30.1142 23.5668 19.4515 14.275 13.8178 6.68346 12.1297
threshold=6.8858500000000005 0.099400000000000016 0.92160000000000009 0.019650000000000004 0.0053500000000000006 0.53570000000000018 1.2933500000000002
decision_type=2 2 2 2 2 2 2
left_child=1 2 -1 -4 -2 -5 -7
right_child=4 -3 3 5 -6 6 -8
leaf_value=-0.033003301275864171 0.031819202875126504 -0.030471388114278811 -0.037346259470747059 0.044371525628281408 -0.036860863992492471 0.04440723223029186 0.0045232800004135132
leaf_count=9 1 15 4 2 29 1 8
internal_value=0 0.103687 0.181047 0.242257 -0.282221 0.284749 0.196248
internal_count=69 39 24 15 30 11 9
shrinkage=0.1


Tree=3
num_leaves=8
num_cat=0
split_feature=7 3 5 7 5 0 1
split_gain=22.8734 14.7279 13.2477 10.5063 3.45563 3.66656 2.3436
threshold=0.68750000000000011 0.015150000000000002 0.60420000000000007 0.88195000000000012 0.56945000000000012 4.0732500000000007 0.014200000000000003
decision_type=2 2 2 2 2 2 2
left_child=2 3 6 -2 -3 -6 -1
right_child=1 4 -4 -5 5 -7 -8
leaf_value=0.037660017909729865 0.041125420493754013 -0.03140431027212133 -0.041705049073889916 -0.04137723940463784 -0.03740397258964652 -0.0017009392769598373 -0.022593094945243964
leaf_count=4 1 31 5 4 8 15 1
internal_value=0 -0.123301 0.260817 0.232583 -0.210977 -0.104083 0.34902
internal_count=69 59 10 5 54 23 5
shrinkage=0.1


Tree=4
num_leaves=8
num_cat=0
split_feature=6 3 7 2 1 4 2
split_gain=18.2868 8.80353 7.42016 4.14657 3.60194 2.04208 3.81499
threshold=0.42885000000000006 0.015150000000000002 0.88195000000000012 1.0000000180025095e-35 0.010700000000000001 0.66500000000000015 0.29250000000000004
decision_type=2 2 2 2 2 2 2
left_child=4 2 -2 -3 -1 6 -5
right_child=1 3 -4 5 -6 -7 -8
leaf_value=0.034519401335790643 0.03933983009619918 0.023619772486761538 -0.039478522048382127 -0.0039481635359823498 -0.040104228552605072 -0.032939007130562747 -0.04051147285711526
leaf_count=4 1 2 4 19 2 27 10
internal_value=0 -0.109105 0.213924 -0.179838 0.302895 -0.214983 -0.133059
internal_count=69 63 5 58 6 56 29
shrinkage=0.1


Tree=5
num_leaves=8
num_cat=0
split_feature=6 3 7 3 2 4 2
split_gain=12.4076 6.30715 5.15795 2.6531 2.44358 1.98674 1.13943
threshold=0.42885000000000006 0.015150000000000002 0.88195000000000012 0.16895000000000002 0.29250000000000004 0.68500000000000016 1.0000000180025095e-35
decision_type=2 2 2 2 2 2 2
left_child=3 2 -2 -1 5 6 -3
right_child=1 4 -4 -5 -6 -7 -8
leaf_value=0.032528427134332891 0.037988364275098517 0.029602649637986402 -0.037846634610862628 -0.038937494609062685 -0.033808673865814001 -0.033156849571518474 -0.007500276054649352
leaf_count=4 1 1 4 2 21 11 25
internal_value=0 -0.100069 0.211489 0.281633 -0.166885 -0.0972933 -0.0352544
internal_count=69 63 5 6 58 37 26
shrinkage=0.1


Tree=6
num_leaves=8
num_cat=0
split_feature=0 0 1 2 2 0 1
split_gain=7.04429 8.18447 7.33481 4.43446 3.08403 1.64425 0.386098
threshold=6.8858500000000005 0.92160000000000009 0.0074500000000000009 0.019650000000000004 0.0053500000000000006 4.0732500000000007 0.00065000000000000008
decision_type=2 2 2 2 2 2 2
left_child=1 -1 3 -3 -2 -4 -5
right_child=4 2 5 6 -6 -7 -8
leaf_value=-0.035898014504241148 0.026527404632979618 -0.029530155765932865 -0.037925791106321056 -0.037909127490450702 -0.030540711051127867 0.0056722724277395529 0.03122327101628319
leaf_count=12 1 4 9 1 29 4 9
internal_value=0 0.0858258 0.15555 0.251326 -0.230671 -0.184371 0.301101
internal_count=69 39 27 14 30 13 10
shrinkage=0.1


Tree=7
num_leaves=8
num_cat=0
split_feature=6 6 5 0 5 1 1
split_gain=6.70836 2.43885 1.92327 2.51349 1.26814 1.2395 1.08113
threshold=0.42885000000000006 0.53255000000000019 0.46705000000000002 0.92160000000000009 0.60420000000000007 0.00065000000000000008 0.0014500000000000001
decision_type=2 2 2 2 2 2 2
left_child=4 -2 -3 -4 -1 -5 -7
right_child=1 2 3 5 -6 6 -8
leaf_value=0.029442277991703281 -0.023400030749894583 -0.032211030967478814 -0.037005930538876193 -0.033526754924974769 -0.037696255490252434 0.032129515434294674 0.0037398217682790141
leaf_count=4 31 9 6 4 2 3 10
internal_value=0 -0.089075 0.00494678 0.0633399 0.253823 0.125758 0.168546
internal_count=69 63 32 23 6 17 13
shrinkage=0.1


Tree=8
num_leaves=8
num_cat=0
split_feature=6 3 3 2 2 4 2
split_gain=5.06269 2.92231 1.13147 0.95234 0.712983 0.472053 0.0111859
threshold=0.42885000000000006 0.015150000000000002 0.013450000000000002 0.14090000000000003 0.29250000000000004 0.71500000000000008 1.0000000180025095e-35
decision_type=2 2 2 2 2 2 2
left_child=3 2 -2 -1 5 6 -3
right_child=1 4 -4 -5 -6 -7 -8
leaf_value=-0.03723057246956462 -0.034092759592811196 0.025001862534437643 0.031213516534629743 0.028317991360126506 -0.030006828067496102 -0.031159604054663687 -0.0068012720248171125
leaf_count=2 3 1 2 4 21 10 26
internal_value=0 -0.0843731 0.209352 0.241818 -0.144993 -0.0844995 -0.0351536
internal_count=69 63 5 6 58 37 27
shrinkage=0.1


Tree=9
num_leaves=7
num_cat=0
split_feature=0 0 1 2 2 0
split_gain=3.3618 3.81308 3.25348 1.47446 1.22491 0.834323
threshold=6.8858500000000005 0.92160000000000009 0.0074500000000000009 0.019650000000000004 0.0053500000000000006 4.0732500000000007
decision_type=2 2 2 2 2 2
left_child=1 -1 3 -3 -2 -4
right_child=4 2 5 -5 -6 -7
leaf_value=-0.032614879403969003 0.022914089495323298 -0.024090356490561186 -0.03560713217884335 0.026665670397255384 -0.028385091923692825 0.0071399093807148692
leaf_count=12 1 4 9 10 29 4
internal_value=0 0.0769128 0.1379 0.225844 -0.212725 -0.146493
internal_count=69 39 27 14 30 13
shrinkage=0.1


Tree=10
num_leaves=6
num_cat=0
split_feature=6 3 7 7 2
split_gain=2.983 1.88599 1.22386 0.545496 0.232125
threshold=0.42885000000000006 0.015150000000000002 0.88195000000000012 0.53570000000000018 0.29250000000000004
decision_type=2 2 2 2 2
left_child=3 2 -2 -1 -3
right_child=1 4 -4 -5 -6
leaf_value=0.030507354074669146 0.034575199609876817 -0.0078558688773164333 -0.033139505448961909 -0.0091533474618180673 -0.028621967007673374
leaf_count=3 1 37 4 3 21
internal_value=0 -0.0768595 0.206712 0.222697 -0.135689
internal_count=69 63 5 6 58
shrinkage=0.1


Tree=11
num_leaves=6
num_cat=0
split_feature=0 0 3 2 2
split_gain=1.96907 2.58993 2.164 0.763135 0.755929
threshold=6.8858500000000005 0.92160000000000009 0.23175000000000004 0.08815000000000002 0.0053500000000000006
decision_type=2 2 2 2 2
left_child=1 -1 3 -3 -2
right_child=4 2 -4 -5 -6
leaf_value=-0.031831458476216892 0.023356423584402399 -0.0060290157366930967 -0.033646221608493614 0.024266303628974344 -0.026578947812138778
leaf_count=12 1 9 7 11 29
internal_value=0 0.072296 0.13194 0.182471 -0.194226
internal_count=69 39 27 20 30
shrinkage=0.1


Tree=12
num_leaves=5
num_cat=0
split_feature=6 3 1 1
split_gain=2.0314 0.846144 0.18047 0.175226
threshold=0.42885000000000006 0.015150000000000002 0.00090000000000000008 0.010700000000000001
decision_type=2 2 2 2
left_child=3 2 -2 -1
right_child=1 -3 -4 -5
leaf_value=0.026239431701941991 -0.032347034964987302 -0.012319975335358753 0.029146749288664654 -0.034743532261427304
leaf_count=4 3 58 2 2
internal_value=0 -0.0734459 0.189154 0.218654
internal_count=69 63 5 6
shrinkage=0.1


Tree=13
num_leaves=4
num_cat=0
split_feature=0 0 1
split_gain=1.10173 1.64959 1.4516
threshold=6.8858500000000005 0.92160000000000009 0.0074500000000000009
decision_type=2 2 2
left_child=1 -1 -3
right_child=-2 2 -4
leaf_value=-0.030477259712679186 -0.017648749074693239 0.020634953828186933 -0.014114482495263448
leaf_count=12 30 14 13
internal_value=0 0.0673483 0.122983
internal_count=69 39 27
shrinkage=0.1


Tree=14
num_leaves=3
num_cat=0
split_feature=6 3
split_gain=1.10321 0.473022
threshold=0.42885000000000006 0.015150000000000002
decision_type=2 2
left_child=-1 -2
right_child=1 -3
leaf_value=0.020105059764259803 0.019225338119116791 -0.010953080629973855
leaf_count=6 5 58
internal_value=0 -0.063516
internal_count=69 63
shrinkage=0.1


Tree=15
num_leaves=3
num_cat=0
split_feature=6 6
split_gain=0.774963 0.0963133
threshold=0.42885000000000006 0.53255000000000019
decision_type=2 2
left_child=-1 -2
right_child=1 -3
leaf_value=0.019190882608842278 -0.017460387408361529 0.0019144187029401514
leaf_count=6 31 32
internal_value=0 -0.0582817
internal_count=69 63
shrinkage=0.1


Tree=16
num_leaves=4
num_cat=0
split_feature=6 3 7
split_gain=0.375659 0.289149 0.0296385
threshold=0.42885000000000006 0.015150000000000002 0.53570000000000018
decision_type=2 2 2
left_child=2 -2 -1
right_child=1 -3 -4
leaf_value=0.027044078020949248 0.019244211029634251 -0.0094980094918350622 -0.012558012690584068
leaf_count=3 5 58 3
internal_value=0 -0.0509831 0.173183
internal_count=69 63 6
shrinkage=0.1


Tree=17
num_leaves=4
num_cat=0
split_feature=0 0 3
split_gain=0.361468 1.01365 0.794817
threshold=6.8858500000000005 0.92160000000000009 0.23175000000000004
decision_type=2 2 2
left_child=1 -1 -3
right_child=-2 2 -4
leaf_value=-0.02971178317488159 -0.015303061090984003 0.015664838472716564 -0.031928065649306121
leaf_count=12 30 20 7
internal_value=0 0.0596271 0.112198
internal_count=69 39 27
shrinkage=0.1


Tree=18
num_leaves=2
num_cat=0
split_feature=6
split_gain=0.178596
threshold=0.42885000000000006
decision_type=2
left_child=-1
right_child=-2
leaf_value=0.017425164271350557 -0.0048275782841078656
leaf_count=6 63
internal_value=0
internal_count=69
shrinkage=0.1


Tree=19
num_leaves=4
num_cat=0
split_feature=0 0 1
split_gain=0.112797 0.555153 0.134713
threshold=0.92160000000000009 6.8858500000000005 0.014200000000000003
decision_type=2 2 2
left_child=-1 2 -2
right_child=1 -3 -4
leaf_value=-0.029220178783616175 0.014711555583369468 -0.013720512652524256 -0.018582689631383664
leaf_count=12 19 30 8
internal_value=0 0.0274568 0.101947
internal_count=69 57 27
shrinkage=0.1


Tree=20
num_leaves=3
num_cat=0
split_feature=0 0
split_gain=0.0024407 0.240871
threshold=0.92160000000000009 6.8858500000000005
decision_type=2 2
left_child=-1 -2
right_child=1 -3
leaf_value=-0.029026253757623771 0.0092689994320124171 -0.012389058375591415
leaf_count=12 27 30
internal_value=0 0.0256395
internal_count=69 57
shrinkage=0.1


end of trees

feature importances:
Column_0=26
Column_2=20
Column_3=16
Column_6=12
Column_1=11
Column_7=8
Column_5=4
Column_4=3

parameters:
[boosting: gbdt]
[objective: lambdarank]
[metric: none,lambdarank]
[tree_learner: serial]
[device_type: cpu]
[data: ]
[valid: ]
[num_iterations: 100]
[learning_rate: 0.1]
[num_leaves: 8]
[num_threads: -1]
[max_depth: -1]
[min_data_in_leaf: 1]
[min_sum_hessian_in_leaf: 0.001]
[bagging_fraction: 1]
[bagging_freq: 0]
[bagging_seed: 3]
[feature_fraction: 0.8]
[feature_fraction_seed: 2]
[early_stopping_round: 0]
[max_delta_step: 0]
[lambda_l1: 0]
[lambda_l2: 0]
[min_gain_to_split: 1]
[drop_rate: 0.1]
[max_drop: 50]
[skip_drop: 0.5]
[xgboost_dart_mode: 0]
[uniform_drop: 0]
[drop_seed: 4]
[top_rate: 0.2]
[other_rate: 0.1]
[min_data_per_group: 100]
[max_cat_threshold: 32]
[cat_l2: 10]
[cat_smooth: 10]
[max_cat_to_onehot: 4]
[top_k: 20]
[monotone_constraints: ]
[feature_contri: ]
[forcedsplits_filename: ]
[refit_decay_rate: 0.9]
[verbosity: -1]
[max_bin: 255]
[min_data_in_bin: 3]
[bin_construct_sample_cnt: 200000]
[histogram_pool_size: -1]
[data_random_seed: 1]
[output_model: LightGBM_model.txt]
[snapshot_freq: -1]
[input_model: ]
[output_result: LightGBM_predict_result.txt]
[initscore_filename: ]
[valid_data_initscores: ]
[pre_partition: 0]
[enable_bundle: 1]
[max_conflict_rate: 0]
[is_enable_sparse: 1]
[sparse_threshold: 0.8]
[use_missing: 1]
[zero_as_missing: 0]
[two_round: 0]
[save_binary: 0]
[enable_load_from_binary_file: 1]
[header: 0]
[label_column: ]
[weight_column: ]
[group_column: ]
[ignore_column: ]
[categorical_feature: ]
[predict_raw_score: 0]
[predict_leaf_index: 0]
[predict_contrib: 0]
[num_iteration_predict: -1]
[pred_early_stop: 0]
[pred_early_stop_freq: 10]
[pred_early_stop_margin: 10]
[convert_model_language: ]
[convert_model: gbdt_prediction.cpp]
[num_class: 1]
[is_unbalance: 0]
[scale_pos_weight: 1]
[sigmoid: 1]
[boost_from_average: 1]
[reg_sqrt: 0]
[alpha: 0.9]
[fair_c: 1]
[poisson_max_delta_step: 0.7]
[tweedie_variance_power: 1.5]
[max_position: 20]
[label_gain: ]
[metric_freq: 1]
[is_provide_training_metric: 0]
[eval_at: 1]
[num_machines: 1]
[local_listen_port: 12400]
[time_out: 120]
[machine_list_filename: ]
[machines: ]
[gpu_platform_id: -1]
[gpu_device_id: -1]
[gpu_use_dp: 0]

end of parameters

pandas_categorical:null
