tree
version=v2
num_class=1
num_tree_per_iteration=1
label_index=0
max_feature_idx=9
objective=lambdarank
feature_names=Column_0 Column_1 Column_2 Column_3 Column_4 Column_5 Column_6 Column_7 Column_8 Column_9
feature_infos=[0.15529999999999999:46.055300000000003] [0.00020000000000000001:0.030800000000000001] [0:7.8625999999999996] [0.012500000000000001:0.2626] [0.41999999999999998:0.87] [0.00020000000000000001:1] [0.32029999999999997:0.67369999999999997] [0.125:1] [0:0.40000000000000002] [0.40000000000000002:0.90000000000000002]
tree_sizes=334 698 703 707 706 698 706 704 710 562 558 490 567 487 419 420 337 339 341

Tree=0
num_leaves=3
num_cat=0
split_feature=0 7
split_gain=2.88652 1.16499
threshold=4.0677500000000011 0.88195000000000012
decision_type=2 2
left_child=1 -1
right_child=-2 -3
leaf_value=0.03594013339667073 -0.027012084819936479 -0.038598071873360791
leaf_count=13 45 11
internal_value=0 0.246996
internal_count=69 24
shrinkage=0.1


Tree=1
num_leaves=8
num_cat=0
split_feature=2 9 5 5 2 9 0
split_gain=102.246 96.3801 61.5119 24.371 19.0858 21.7032 24.4973
threshold=0.67620000000000013 0.45000000000000007 0.60420000000000007 0.83815000000000006 1.0000000180025095e-35 0.55000000000000016 9.6933000000000025
decision_type=2 2 2 2 2 2 2
left_child=1 -1 -2 -4 -3 6 -6
right_child=2 4 3 -5 5 -7 -8
leaf_value=0.037167629800680384 -0.03685515599491819 0.018644929651078508 0.047156717016860326 -0.042896297529128109 -0.025423570870814868 -0.040618484846983133 0.033043161166522429
leaf_count=3 4 3 2 3 11 41 2
internal_value=0 -0.14789 0.302368 0.425229 -0.268771 -0.303849 -0.113886
internal_count=69 60 9 5 57 54 13
shrinkage=0.1


Tree=2
num_leaves=8
num_cat=0
split_feature=3 0 7 2 2 2 4
split_gain=45.261 44.8767 31.1159 14.6478 5.74792 4.85649 2.33671
threshold=0.04710000000000001 11.661900000000001 0.88195000000000012 1.0000000180025095e-35 0.026950000000000005 2.7287000000000003 0.48000000000000004
decision_type=2 2 2 2 2 2 2
left_child=1 2 4 -2 -1 -6 -5
right_child=3 -3 -4 6 5 -7 -8
leaf_value=-0.047802544298458136 0.034535188837913365 -0.036696455163997117 -0.029394570061880378 -0.0032489292484668172 0.033720963229663968 -0.030268617132391346 -0.044998652797123811
leaf_count=1 1 16 11 2 11 1 26
internal_value=0 0.114582 0.2221 -0.341059 0.308018 0.321843 -0.417637
internal_count=69 40 24 29 13 12 28
shrinkage=0.1


Tree=3
num_leaves=8
num_cat=0
split_feature=3 1 7 0 1 1 8
split_gain=24.0242 22.6697 14.4668 4.51373 3.97255 3.83418 2.90003
threshold=0.04710000000000001 0.00065000000000000008 0.88195000000000012 29.835450000000005 0.0027500000000000003 0.00090000000000000008 0.35000000000000003
decision_type=2 2 2 2 2 2 2
left_child=1 -1 6 -2 -5 -4 -3
right_child=3 2 5 4 -6 -7 -8
leaf_value=-0.041392851386286525 -0.03809209117905183 0.02665947517890507 0.017670612583334723 0.031467700486144209 -0.043224123475738591 -0.034110903464337185 -0.045666497410174527
leaf_count=12 26 14 2 1 2 11 1
internal_value=0 0.101606 0.176898 -0.302275 0.0397558 -0.199304 0.254166
internal_count=69 40 28 29 3 13 15
shrinkage=0.1


Tree=4
num_leaves=8
num_cat=0
split_feature=3 1 7 2 2 1 5
split_gain=13.23 14.3035 10.0997 4.8988 4.41767 3.97469 4.31429
threshold=0.04710000000000001 0.00065000000000000008 0.88195000000000012 1.0000000180025095e-35 0.16335000000000002 0.00090000000000000008 0.54875000000000007
decision_type=2 2 2 2 2 2 2
left_child=1 -1 4 -2 -3 -6 -7
right_child=3 2 -4 -5 5 6 -8
leaf_value=-0.039346869855366021 0.025137980588300964 -0.0075501911577261762 -0.023360621316168291 -0.035158024060432495 -0.036830820302494398 0.011307637612280961 0.039280469917048415
leaf_count=12 1 5 13 28 2 5 3
internal_value=0 0.0821249 0.14834 -0.274436 0.216468 0.267727 0.293127
internal_count=69 40 28 29 15 10 8
shrinkage=0.1


Tree=5
num_leaves=8
num_cat=0
split_feature=0 3 2 7 2 5 2
split_gain=8.00821 11.0478 6.12286 5.97591 2.26209 1.62025 8.68564
threshold=11.661900000000001 0.04710000000000001 0.0087000000000000011 0.88195000000000012 0.16335000000000002 0.54875000000000007 0.35715000000000008
decision_type=2 2 2 2 2 2 2
left_child=1 3 -2 4 -1 6 -6
right_child=2 -3 -4 -5 5 -7 -8
leaf_value=-0.006312089554742311 0.031106471280650957 -0.03121135912152323 -0.033647558566656563 -0.020804938461179475 0.035688998229653164 0.03461587449987915 -0.036659406422499978
leaf_count=4 1 18 26 11 2 4 3
internal_value=0 0.0776309 -0.231927 0.160095 0.221341 0.264572 0.125098
internal_count=69 42 27 24 13 9 5
shrinkage=0.1


Tree=6
num_leaves=8
num_cat=0
split_feature=3 0 2 2 2 4 1
split_gain=6.89737 8.32781 4.31194 3.43856 2.48227 1.21929 0.782062
threshold=0.04710000000000001 11.661900000000001 0.16335000000000002 1.0000000180025095e-35 2.7287000000000003 0.48000000000000004 0.00090000000000000008
decision_type=2 2 2 2 2 2 2
left_child=1 2 -1 -2 6 -5 -4
right_child=3 -3 4 5 -6 -7 -8
leaf_value=-0.010541060220199154 0.026501265703237277 -0.029467817893532644 -0.041148844793078745 0.011087577599008002 -0.03119340571974831 -0.037017025034358414 0.028818807532730691
leaf_count=11 1 16 1 2 3 26 9
internal_value=0 0.0822597 0.163197 -0.231744 0.241766 -0.314074 0.274061
internal_count=69 40 24 29 13 28 10
shrinkage=0.1


Tree=7
num_leaves=8
num_cat=0
split_feature=0 7 9 4 1 1 4
split_gain=4.5039 4.92291 1.39074 2.13314 5.79295 1.84315 0.504061
threshold=11.661900000000001 0.88195000000000012 0.8500000000000002 0.48000000000000004 0.0034000000000000007 0.0029500000000000004 0.65500000000000014
decision_type=2 2 2 2 2 2 2
left_child=1 2 3 -1 5 6 -5
right_child=-2 -3 -4 4 -6 -7 -8
leaf_value=0.036121730366241528 -0.021704522371946089 -0.020434669230837796 0.037133593534869801 0.0061292343402176343 -0.034293184148437066 0.032070446470489386 -0.043023847274684723
leaf_count=1 27 19 1 4 12 3 2
internal_value=0 0.0710206 0.150973 0.0989364 0.0281105 0.165968 -0.0237958
internal_count=69 42 23 22 21 9 6
shrinkage=0.1


Tree=8
num_leaves=8
num_cat=0
split_feature=3 1 2 2 4 3 6
split_gain=3.7407 4.87126 2.27759 1.71359 1.01244 2.85278 1.37059
threshold=0.04710000000000001 0.00065000000000000008 1.0000000180025095e-35 0.0087000000000000011 0.58500000000000008 0.019250000000000003 0.63810000000000011
decision_type=2 2 2 2 2 2 2
left_child=1 -1 -2 -3 -5 -6 -7
right_child=2 3 -4 4 5 6 -8
leaf_value=-0.034521565271231631 0.027877607397515283 -0.030173932169078217 -0.028710502915851178 0.029375864351129932 0.028953823467203627 -0.027927302639376483 0.012338054787328327
leaf_count=12 1 4 28 5 4 11 4
internal_value=0 0.0752245 -0.205005 0.13732 0.168861 0.0807249 -0.0914201
internal_count=69 40 29 28 24 19 15
shrinkage=0.1


Tree=9
num_leaves=6
num_cat=0
split_feature=3 1 7 2 2
split_gain=2.7789 3.50224 2.542 1.51516 0.422253
threshold=0.04710000000000001 0.00065000000000000008 0.88195000000000012 1.0000000180025095e-35 0.16335000000000002
decision_type=2 2 2 2 2
left_child=1 -1 4 -2 -3
right_child=3 2 -4 -5 -6
leaf_value=-0.033145768753435854 0.025613967565467011 -0.0043625183531107127 -0.016111968957496305 -0.027742026616379031 0.024570448028765637
leaf_count=12 1 5 13 28 10
internal_value=0 0.0725446 0.130553 -0.198602 0.202841
internal_count=69 40 28 29 15
shrinkage=0.1


Tree=10
num_leaves=6
num_cat=0
split_feature=3 0 7 2 2
split_gain=2.20197 2.60669 2.11555 0.9381 0.0258053
threshold=0.04710000000000001 11.661900000000001 0.88195000000000012 1.0000000180025095e-35 0.16335000000000002
decision_type=2 2 2 2 2
left_child=1 2 4 -2 -1
right_child=3 -3 -4 -5 -6
leaf_value=-0.0031748631767115048 0.023111175999972287 -0.023961314781586779 -0.01865979699890296 -0.026905879761217562 0.024272248933158609
leaf_count=4 1 16 11 28 9
internal_value=0 0.0700668 0.13773 -0.19543 0.205733
internal_count=69 40 24 29 13
shrinkage=0.1


Tree=11
num_leaves=5
num_cat=0
split_feature=3 1 7 2
split_gain=1.7292 2.04452 1.19473 0.528855
threshold=0.04710000000000001 0.00065000000000000008 0.88195000000000012 1.0000000180025095e-35
decision_type=2 2 2 2
left_child=1 -1 -3 -2
right_child=3 2 -4 -5
leaf_value=-0.031435916638178983 0.021004838560958486 0.018064275435410265 -0.013619304239821018 -0.026066862033117078
leaf_count=12 1 15 13 28
internal_value=0 0.0673103 0.11823 -0.191518
internal_count=69 40 28 29
shrinkage=0.1


Tree=12
num_leaves=6
num_cat=0
split_feature=3 7 1 2 2
split_gain=1.26286 1.54633 0.885503 0.570064 0.230521
threshold=0.04710000000000001 0.88195000000000012 0.00090000000000000008 0.045400000000000003 1.0000000180025095e-35
decision_type=2 2 2 2 2
left_child=1 2 -1 -4 -2
right_child=4 -3 3 -5 -6
leaf_value=-0.016110590913759402 0.019070329863686484 -0.01927753912028779 -0.040019669091096242 0.021770629668941281 -0.025090922144532391
leaf_count=10 1 18 2 10 28
internal_value=0 0.0635647 0.132798 0.189588 -0.184553
internal_count=69 40 22 12 29
shrinkage=0.1


Tree=13
num_leaves=5
num_cat=0
split_feature=3 0 7 1
split_gain=0.864305 1.30244 0.775135 0.137187
threshold=0.04710000000000001 11.661900000000001 0.88195000000000012 0.0034000000000000007
decision_type=2 2 2 2
left_child=1 2 -1 -2
right_child=3 -3 -4 -5
leaf_value=0.017668235784443431 -0.001103236751071907 -0.0229939441648759 -0.01661055761586783 -0.032957691282950737
leaf_count=13 10 16 11 19
internal_value=0 0.0598208 0.119965 -0.17607
internal_count=69 40 24 29
shrinkage=0.1


Tree=14
num_leaves=4
num_cat=0
split_feature=4 1 1
split_gain=0.953464 1.68969 0.630413
threshold=0.48000000000000004 0.0034000000000000007 0.00065000000000000008
decision_type=2 2 2
left_child=-1 2 -2
right_child=1 -3 -4
leaf_value=0.028570850207904328 -0.029603212479165933 -0.031520803894735744 0.0070850060238125626
leaf_count=3 12 23 31
internal_value=0 -0.041571 0.0268879
internal_count=69 66 43
shrinkage=0.1


Tree=15
num_leaves=4
num_cat=0
split_feature=4 1 1
split_gain=0.607898 1.12232 0.364246
threshold=0.48000000000000004 0.0034000000000000007 0.00065000000000000008
decision_type=2 2 2
left_child=-1 2 -2
right_child=1 -3 -4
leaf_value=0.026794268635704412 -0.028970463752412856 -0.029996307965533282 0.0061175304449422596
leaf_count=3 12 23 31
internal_value=0 -0.0387486 0.0213015
internal_count=69 66 43
shrinkage=0.1


Tree=16
num_leaves=3
num_cat=0
split_feature=4 7
split_gain=0.587794 0.116498
threshold=0.48000000000000004 0.88195000000000012
decision_type=2 2
left_child=-1 -2
right_child=1 -3
leaf_value=0.027016619182286195 0.002363387889205113 -0.01761699778040525
leaf_count=3 36 30
internal_value=0 -0.039659
internal_count=69 66
shrinkage=0.1


Tree=17
num_leaves=3
num_cat=0
split_feature=4 3
split_gain=0.136836 0.397902
threshold=0.48000000000000004 0.061100000000000008
decision_type=2 2
left_child=-1 -2
right_child=1 -3
leaf_value=0.023765484379644063 0.00063094626824210275 -0.031413428190003
leaf_count=3 48 18
internal_value=0 -0.0335165
internal_count=69 66
shrinkage=0.1


Tree=18
num_leaves=3
num_cat=0
split_feature=0 3
split_gain=0.0366237 0.273073
threshold=11.661900000000001 0.04710000000000001
decision_type=2 2
left_child=1 -1
right_child=-2 -3
leaf_value=0.0096960652233904088 -0.015784122256726204 -0.019633041771032207
leaf_count=24 27 18
internal_value=0 0.0476614
internal_count=69 42
shrinkage=0.1


end of trees

feature importances:
Column_2=22
Column_1=17
Column_3=14
Column_7=12
Column_0=10
Column_4=9
Column_5=4
Column_9=3
Column_6=1
Column_8=1

parameters:
[boosting: gbdt]
[objective: lambdarank]
[metric: none,lambdarank]
[tree_learner: serial]
[device_type: cpu]
[data: ]
[valid: ]
[num_iterations: 100]
[learning_rate: 0.1]
[num_leaves: 8]
[num_threads: -1]
[max_depth: -1]
[min_data_in_leaf: 1]
[min_sum_hessian_in_leaf: 0.001]
[bagging_fraction: 1]
[bagging_freq: 0]
[bagging_seed: 3]
[feature_fraction: 0.8]
[feature_fraction_seed: 2]
[early_stopping_round: 0]
[max_delta_step: 0]
[lambda_l1: 0]
[lambda_l2: 0]
[min_gain_to_split: 1]
[drop_rate: 0.1]
[max_drop: 50]
[skip_drop: 0.5]
[xgboost_dart_mode: 0]
[uniform_drop: 0]
[drop_seed: 4]
[top_rate: 0.2]
[other_rate: 0.1]
[min_data_per_group: 100]
[max_cat_threshold: 32]
[cat_l2: 10]
[cat_smooth: 10]
[max_cat_to_onehot: 4]
[top_k: 20]
[monotone_constraints: ]
[feature_contri: ]
[forcedsplits_filename: ]
[refit_decay_rate: 0.9]
[verbosity: -1]
[max_bin: 255]
[min_data_in_bin: 3]
[bin_construct_sample_cnt: 200000]
[histogram_pool_size: -1]
[data_random_seed: 1]
[output_model: LightGBM_model.txt]
[snapshot_freq: -1]
[input_model: ]
[output_result: LightGBM_predict_result.txt]
[initscore_filename: ]
[valid_data_initscores: ]
[pre_partition: 0]
[enable_bundle: 1]
[max_conflict_rate: 0]
[is_enable_sparse: 1]
[sparse_threshold: 0.8]
[use_missing: 1]
[zero_as_missing: 0]
[two_round: 0]
[save_binary: 0]
[enable_load_from_binary_file: 1]
[header: 0]
[label_column: ]
[weight_column: ]
[group_column: ]
[ignore_column: ]
[categorical_feature: ]
[predict_raw_score: 0]
[predict_leaf_index: 0]
[predict_contrib: 0]
[num_iteration_predict: -1]
[pred_early_stop: 0]
[pred_early_stop_freq: 10]
[pred_early_stop_margin: 10]
[convert_model_language: ]
[convert_model: gbdt_prediction.cpp]
[num_class: 1]
[is_unbalance: 0]
[scale_pos_weight: 1]
[sigmoid: 1]
[boost_from_average: 1]
[reg_sqrt: 0]
[alpha: 0.9]
[fair_c: 1]
[poisson_max_delta_step: 0.7]
[tweedie_variance_power: 1.5]
[max_position: 20]
[label_gain: ]
[metric_freq: 1]
[is_provide_training_metric: 0]
[eval_at: 1]
[num_machines: 1]
[local_listen_port: 12400]
[time_out: 120]
[machine_list_filename: ]
[machines: ]
[gpu_platform_id: -1]
[gpu_device_id: -1]
[gpu_use_dp: 0]

end of parameters

pandas_categorical:null
