tree
version=v2
num_class=1
num_tree_per_iteration=1
label_index=0
max_feature_idx=3
objective=lambdarank
feature_names=Column_0 Column_1 Column_2 Column_3
feature_infos=[0.079100000000000004:46.055300000000003] [0.00020000000000000001:0.035799999999999998] [0:7.8625999999999996] [0.012500000000000001:0.2626]
tree_sizes=557 715 694 698 715 701 703 718 714 718 719 413 559 411 415 489 417

Tree=0
num_leaves=6
num_cat=0
split_feature=0 3 0 2 2
split_gain=2.29523 1.87284 1.89285 0.871824 0.0955473
threshold=6.8858500000000005 0.099400000000000016 0.92160000000000009 0.14090000000000003 0.0053500000000000006
decision_type=2 2 2 2 2
left_child=1 2 -1 -4 -2
right_child=4 -3 3 -5 -6
leaf_value=-0.04216439964770155 0.041593764640903495 -0.038502297405336942 -0.019211980078004724 0.045048417405188126 -0.045832123334814984
leaf_count=9 1 15 8 7 29
internal_value=0 0.13133 0.244217 0.351638 -0.377764
internal_count=69 39 24 15 30
shrinkage=0.1


Tree=1
num_leaves=8
num_cat=0
split_feature=1 3 3 1 1 3 2
split_gain=38.0173 54.2971 27.7532 48.9043 20.0736 24.9434 12.1888
threshold=0.00065000000000000008 0.034300000000000004 0.074600000000000014 0.0074500000000000009 0.0046500000000000005 0.017500000000000005 1.0000000180025095e-35
decision_type=2 2 2 2 2 2 2
left_child=-1 4 6 -4 5 -2 -3
right_child=1 2 3 -5 -6 -7 -8
leaf_value=-0.045540749954172559 0.03104817123727829 0.0072337142310992175 0.031210319470732491 -0.030235012622286419 0.047088501671199073 -0.01218843031390532 -0.045083024290169617
leaf_count=12 4 1 3 17 1 13 18
internal_value=0 0.0461625 -0.130394 0.0147124 0.232021 0.124554 -0.359686
internal_count=69 57 39 20 18 17 19
shrinkage=0.1


Tree=2
num_leaves=8
num_cat=0
split_feature=0 0 1 2 2 0 0
split_gain=32.923 27.889 21.1884 16.7036 16.6043 12.0846 5.56751
threshold=6.8858500000000005 0.92160000000000009 0.0074500000000000009 0.0053500000000000006 0.14090000000000003 4.0732500000000007 3.2918500000000006
decision_type=2 2 2 2 2 2 2
left_child=1 -1 4 -2 -3 -4 -6
right_child=3 2 5 -5 6 -7 -8
leaf_value=-0.041702018473639066 0.033725801832426502 -0.01221008899442546 -0.044572746343748824 -0.040023425200821298 0.044263786489339964 0.015719984053375741 0.020998670772705924
leaf_count=12 1 8 9 29 2 4 4
internal_value=0 0.101395 0.168442 -0.30114 0.254851 -0.18047 0.334023
internal_count=69 39 27 30 14 13 6
shrinkage=0.1


Tree=3
num_leaves=8
num_cat=0
split_feature=0 0 1 1 0 0 0
split_gain=20.5768 16.9483 15.0836 5.82284 5.90863 5.47089 3.40156
threshold=6.8858500000000005 0.92160000000000009 0.0074500000000000009 0.0046500000000000005 1.9101500000000005 3.5990000000000006 4.0732500000000007
decision_type=2 2 2 2 2 2 2
left_child=1 -1 3 4 -3 -6 -4
right_child=-2 2 6 -5 5 -7 -8
leaf_value=-0.039097523092686264 -0.028728257466868957 0.034639428661710207 -0.04187250725541606 0.042746200128677303 -0.043386657557936789 0.011116680485030873 0.0025496104927408155
leaf_count=12 30 3 9 2 4 5 4
internal_value=0 0.0994928 0.164757 0.24977 0.154924 0.0182238 -0.217554
internal_count=69 39 27 14 12 9 13
shrinkage=0.1


Tree=4
num_leaves=8
num_cat=0
split_feature=1 1 2 1 3 2 3
split_gain=8.08702 10.8278 6.6311 5.39031 9.92865 3.18064 3.01047
threshold=0.0074500000000000009 0.00065000000000000008 0.14090000000000003 0.0046500000000000005 0.019250000000000003 1.0000000180025095e-35 0.028450000000000003
decision_type=2 2 2 2 2 2 2
left_child=1 -1 5 4 -4 -3 -7
right_child=-2 2 3 -5 -6 6 -8
leaf_value=-0.038608495145420335 -0.025378176426625973 0.023178364843746746 0.03189848402871711 0.036769323626781258 -0.017100707747324785 0.0058698270498641243 -0.035498181374040337
leaf_count=12 19 2 3 3 14 4 12
internal_value=0 0.0589254 0.112821 0.197513 0.0768534 -0.0920187 -0.192361
internal_count=69 50 38 20 17 18 16
shrinkage=0.1


Tree=5
num_leaves=8
num_cat=0
split_feature=0 0 3 2 2 3 2
split_gain=8.31447 9.83443 8.6464 5.88085 5.83902 1.07849 0.585593
threshold=6.8858500000000005 0.92160000000000009 0.23175000000000004 0.0053500000000000006 0.08815000000000002 0.099400000000000016 0.019650000000000004
decision_type=2 2 2 2 2 2 2
left_child=1 -1 4 -2 6 -6 -3
right_child=3 2 -4 -5 5 -7 -8
leaf_value=-0.035899549961029488 0.033448425032181865 -0.032981593764472149 -0.03830034184105946 -0.032549011016463979 0.031857131629493461 0.0059438401467635689 0.0019407696402851207
leaf_count=12 1 4 7 29 7 4 5
internal_value=0 0.0806557 0.147221 -0.231286 0.203804 0.278179 -0.1127
internal_count=69 39 27 30 20 11 9
shrinkage=0.1


Tree=6
num_leaves=8
num_cat=0
split_feature=0 0 3 2 2 3 0
split_gain=6.16136 6.60578 4.99524 3.72582 3.43605 0.686089 0.409532
threshold=6.8858500000000005 0.92160000000000009 0.23175000000000004 0.0053500000000000006 0.019650000000000004 0.099400000000000016 4.2855500000000015
decision_type=2 2 2 2 2 2 2
left_child=1 -1 4 -2 -3 -6 -7
right_child=3 2 -4 -5 5 6 -8
leaf_value=-0.033664566081496268 0.030106762004291045 -0.030329902683614469 -0.035636916292252199 -0.030822610543127123 0.025401874412905336 -0.015563007658297887 0.02891386623305113
leaf_count=12 1 4 7 29 11 4 1
internal_value=0 0.0775387 0.137404 -0.223557 0.182708 0.21989 0.0032381
internal_count=69 39 27 30 20 16 5
shrinkage=0.1


Tree=7
num_leaves=8
num_cat=0
split_feature=1 1 2 1 3 3 1
split_gain=3.4275 4.2669 2.58887 2.03082 3.47871 1.15949 0.554834
threshold=0.0074500000000000009 0.00065000000000000008 0.14090000000000003 0.0046500000000000005 0.019250000000000003 0.074600000000000014 0.0019500000000000001
decision_type=2 2 2 2 2 2 2
left_child=1 -1 6 4 -4 -6 -3
right_child=-2 2 3 -5 5 -7 -8
leaf_value=-0.034220558328574575 -0.024076211800819227 -0.00010070715613069051 0.026638413366944419 0.033184239337889242 -0.024957129508549235 0.021560504486369189 -0.033060470243762075
leaf_count=12 19 11 3 3 13 1 7
internal_value=0 0.0523571 0.0986271 0.173755 0.0693564 -0.136169 -0.0863755
internal_count=69 50 38 20 17 14 18
shrinkage=0.1


Tree=8
num_leaves=8
num_cat=0
split_feature=1 1 2 1 3 2 2
split_gain=2.37783 3.12205 1.86705 1.43686 2.54095 0.617769 0.440728
threshold=0.0074500000000000009 0.00065000000000000008 0.14090000000000003 0.0046500000000000005 0.015150000000000002 1.7915000000000003 0.33310000000000006
decision_type=2 2 2 2 2 2 2
left_child=1 -1 -3 4 5 -4 -6
right_child=-2 2 3 -5 6 -7 -8
leaf_value=-0.033000318666044824 -0.022054721504197829 -0.0080952975031773986 0.036521351308383368 0.032017376930309496 0.0029462660170027064 -0.038874985824263367 -0.029629665872605716
leaf_count=12 19 18 1 3 7 1 8
internal_value=0 0.0495433 0.0925666 0.165441 0.0668086 0.304132 -0.0862002
internal_count=69 50 38 20 17 2 15
shrinkage=0.1


Tree=9
num_leaves=8
num_cat=0
split_feature=1 1 2 2 1 1 1
split_gain=1.70873 2.32586 1.33579 0.899367 0.307031 0.191833 0.847015
threshold=0.0074500000000000009 0.00065000000000000008 0.14090000000000003 1.7915000000000003 0.0019500000000000001 0.0046500000000000005 0.0011500000000000002
decision_type=2 2 2 2 2 2 2
left_child=1 -1 4 5 -3 6 -4
right_child=-2 2 3 -5 -6 -7 -8
leaf_value=-0.031979457897294443 -0.020435440798211069 0.0013201861219551689 0.026540049966953375 -0.026484598731135362 -0.031857271917721502 0.030675550395764608 -0.0051161332511060267
leaf_count=12 19 11 4 4 7 3 9
internal_value=0 0.0482501 0.088911 0.161721 -0.0713857 0.194076 0.111389
internal_count=69 50 38 20 18 16 13
shrinkage=0.1


Tree=10
num_leaves=8
num_cat=0
split_feature=1 1 2 2 2 1 1
split_gain=1.11675 1.76575 0.777 0.59589 0.0598183 0.00739817 0.316949
threshold=0.0074500000000000009 0.00065000000000000008 0.14090000000000003 1.7915000000000003 1.0000000180025095e-35 0.0046500000000000005 0.0016500000000000002
decision_type=2 2 2 2 2 2 2
left_child=1 -1 4 5 -3 6 -4
right_child=-2 2 3 -5 -6 -7 -8
leaf_value=-0.03113616099797813 -0.018637579984400569 0.018438603060617422 0.020363687296303584 -0.026905550514737087 -0.013574500686932577 0.029398852864210491 -0.0094996145118079953
leaf_count=12 19 2 6 4 16 3 7
internal_value=0 0.0456924 0.0844956 0.152559 -0.0605048 0.183449 0.103627
internal_count=69 50 38 20 18 16 13
shrinkage=0.1


Tree=11
num_leaves=4
num_cat=0
split_feature=0 0 1
split_gain=1.93456 2.81377 1.89235
threshold=6.8858500000000005 0.92160000000000009 0.0074500000000000009
decision_type=2 2 2
left_child=1 -1 -3
right_child=-2 2 -4
leaf_value=-0.032058252045961078 -0.018772388308859224 0.020550392579455019 -0.012151443608887048
leaf_count=12 30 14 13
internal_value=0 0.0679278 0.126018
internal_count=69 39 27
shrinkage=0.1


Tree=12
num_leaves=6
num_cat=0
split_feature=0 0 2 3 2
split_gain=1.29331 2.21307 1.67226 1.42658 1.08169
threshold=6.8858500000000005 0.92160000000000009 0.0053500000000000006 0.23175000000000004 0.019650000000000004
decision_type=2 2 2 2 2
left_child=1 -1 -2 4 -3
right_child=2 3 -4 -5 -6
leaf_value=-0.031070681132398865 0.030814668056949109 -0.029857934000816617 -0.026760982237687494 -0.031645169684130052 0.019491301657069172
leaf_count=12 1 4 29 7 16
internal_value=0 0.0626753 -0.170682 0.117556 0.158455
internal_count=69 39 30 27 20
shrinkage=0.1


Tree=13
num_leaves=4
num_cat=0
split_feature=0 0 1
split_gain=0.943237 1.55053 1.14836
threshold=6.8858500000000005 0.92160000000000009 0.0074500000000000009
decision_type=2 2 2
left_child=1 -1 -3
right_child=-2 2 -4
leaf_value=-0.029712958521011242 -0.016794096600130853 0.0185893409188903 -0.01220317187323567
leaf_count=12 30 14 13
internal_value=0 0.0604582 0.111142
internal_count=69 39 27
shrinkage=0.1


Tree=14
num_leaves=4
num_cat=0
split_feature=0 0 1
split_gain=0.527816 1.16704 0.783713
threshold=6.8858500000000005 0.92160000000000009 0.0074500000000000009
decision_type=2 2 2
left_child=1 -1 -3
right_child=-2 2 -4
leaf_value=-0.029711224853563256 -0.015363167913791132 0.017242001353899469 -0.011506145022198697
leaf_count=12 30 14 13
internal_value=0 0.0553685 0.101934
internal_count=69 39 27
shrinkage=0.1


Tree=15
num_leaves=5
num_cat=0
split_feature=0 0 2 2
split_gain=0.321309 0.687631 1.32124 0.360515
threshold=0.92160000000000009 6.8858500000000005 0.0053500000000000006 0.08815000000000002
decision_type=2 2 2 2
left_child=-1 3 -3 -2
right_child=1 2 -4 -5
leaf_value=-0.029557452661479446 -0.012178827838553754 0.031942678007035721 -0.024762924379618377 0.014939338073691067
leaf_count=12 9 1 29 18
internal_value=0 0.0261397 -0.135881 0.0924335
internal_count=69 57 30 27
shrinkage=0.1


Tree=16
num_leaves=4
num_cat=0
split_feature=0 0 1
split_gain=0.115298 0.549234 0.495838
threshold=0.92160000000000009 6.8858500000000005 0.0074500000000000009
decision_type=2 2 2
left_child=-1 2 -2
right_child=1 -3 -4
leaf_value=-0.028763587634329048 0.015722617673848405 -0.014099939103197127 -0.011685456565121148
leaf_count=12 14 30 13
internal_value=0 0.0243801 0.0882735
internal_count=69 57 27
shrinkage=0.1


end of trees

feature importances:
Column_1=29
Column_0=28
Column_2=25
Column_3=14

parameters:
[boosting: gbdt]
[objective: lambdarank]
[metric: none,lambdarank]
[tree_learner: serial]
[device_type: cpu]
[data: ]
[valid: ]
[num_iterations: 100]
[learning_rate: 0.1]
[num_leaves: 8]
[num_threads: -1]
[max_depth: -1]
[min_data_in_leaf: 1]
[min_sum_hessian_in_leaf: 0.001]
[bagging_fraction: 1]
[bagging_freq: 0]
[bagging_seed: 3]
[feature_fraction: 0.8]
[feature_fraction_seed: 2]
[early_stopping_round: 0]
[max_delta_step: 0]
[lambda_l1: 0]
[lambda_l2: 0]
[min_gain_to_split: 1]
[drop_rate: 0.1]
[max_drop: 50]
[skip_drop: 0.5]
[xgboost_dart_mode: 0]
[uniform_drop: 0]
[drop_seed: 4]
[top_rate: 0.2]
[other_rate: 0.1]
[min_data_per_group: 100]
[max_cat_threshold: 32]
[cat_l2: 10]
[cat_smooth: 10]
[max_cat_to_onehot: 4]
[top_k: 20]
[monotone_constraints: ]
[feature_contri: ]
[forcedsplits_filename: ]
[refit_decay_rate: 0.9]
[verbosity: -1]
[max_bin: 255]
[min_data_in_bin: 3]
[bin_construct_sample_cnt: 200000]
[histogram_pool_size: -1]
[data_random_seed: 1]
[output_model: LightGBM_model.txt]
[snapshot_freq: -1]
[input_model: ]
[output_result: LightGBM_predict_result.txt]
[initscore_filename: ]
[valid_data_initscores: ]
[pre_partition: 0]
[enable_bundle: 1]
[max_conflict_rate: 0]
[is_enable_sparse: 1]
[sparse_threshold: 0.8]
[use_missing: 1]
[zero_as_missing: 0]
[two_round: 0]
[save_binary: 0]
[enable_load_from_binary_file: 1]
[header: 0]
[label_column: ]
[weight_column: ]
[group_column: ]
[ignore_column: ]
[categorical_feature: ]
[predict_raw_score: 0]
[predict_leaf_index: 0]
[predict_contrib: 0]
[num_iteration_predict: -1]
[pred_early_stop: 0]
[pred_early_stop_freq: 10]
[pred_early_stop_margin: 10]
[convert_model_language: ]
[convert_model: gbdt_prediction.cpp]
[num_class: 1]
[is_unbalance: 0]
[scale_pos_weight: 1]
[sigmoid: 1]
[boost_from_average: 1]
[reg_sqrt: 0]
[alpha: 0.9]
[fair_c: 1]
[poisson_max_delta_step: 0.7]
[tweedie_variance_power: 1.5]
[max_position: 20]
[label_gain: ]
[metric_freq: 1]
[is_provide_training_metric: 0]
[eval_at: 1]
[num_machines: 1]
[local_listen_port: 12400]
[time_out: 120]
[machine_list_filename: ]
[machines: ]
[gpu_platform_id: -1]
[gpu_device_id: -1]
[gpu_use_dp: 0]

end of parameters

pandas_categorical:null
