tree
version=v2
num_class=1
num_tree_per_iteration=1
label_index=0
max_feature_idx=3
objective=lambdarank
feature_names=Column_0 Column_1 Column_2 Column_3
feature_infos=[0.079100000000000004:46.055300000000003] [0.00020000000000000001:0.035799999999999998] [0:3.5306999999999999] [0.012500000000000001:0.2576]
tree_sizes=410 711 699 700 700 695 696 705 709 708 563 481 702 702 561 563 649 566 341 265

Tree=0
num_leaves=4
num_cat=0
split_feature=2 0 3
split_gain=2.69468 0.883197 0.759567
threshold=0.23425000000000004 10.581450000000002 0.088750000000000009
decision_type=2 2 2
left_child=-1 2 -2
right_child=1 -3 -4
leaf_value=-0.035920283819969208 0.027655052572712897 -0.049690498315763464 -0.041617244310136643
leaf_count=35 20 7 7
internal_value=0 0.151555 0.212399
internal_count=69 34 27
shrinkage=0.1


Tree=1
num_leaves=8
num_cat=0
split_feature=1 1 1 3 2 3 2
split_gain=48.36 49.1997 70.4466 104.922 43.6691 24.7605 26.6358
threshold=0.00065000000000000008 0.0039500000000000013 0.0029000000000000002 0.019250000000000003 2.9785000000000004 0.082250000000000018 0.42730000000000007
decision_type=2 2 2 2 2 2 2
left_child=-1 2 3 4 -2 -3 -7
right_child=1 5 -4 -5 -6 6 -8
leaf_value=-0.046124689293231678 0.032306003797823182 -0.048498227922944351 0.035539669046783594 -0.045701524148628152 -0.050087714604191327 0.014312304058595611 -0.042070963178111709
leaf_count=12 6 10 7 15 1 11 7
internal_value=0 0.0418969 0.127707 -0.0523302 0.216586 -0.207942 -0.0526115
internal_count=69 57 29 22 7 28 18
shrinkage=0.1


Tree=2
num_leaves=8
num_cat=0
split_feature=2 0 1 0 0 1 2
split_gain=41.2727 18.2079 21.1036 21.1362 12.0228 11.7566 6.17542
threshold=0.23425000000000004 10.581450000000002 0.0081500000000000027 0.90425000000000011 0.23955000000000001 0.0029000000000000002 0.31220000000000009
decision_type=2 2 2 2 2 2 2
left_child=-1 2 3 4 5 -2 -5
right_child=1 -3 -4 6 -6 -7 -8
leaf_value=-0.028107270647444622 -0.04432803358895155 -0.043437880579537333 -0.038642391056619693 0.013019263142901484 -0.043092840527924725 0.022892088394839246 0.037234581743134515
leaf_count=35 3 7 8 5 3 1 7
internal_value=0 0.112627 0.14946 0.195639 -0.0618657 0.0867428 0.300174
internal_count=69 34 27 19 7 4 12
shrinkage=0.1


Tree=3
num_leaves=8
num_cat=0
split_feature=0 1 0 0 0 1 3
split_gain=14.9183 19.1634 11.3294 5.65282 19.8644 9.99671 6.15843
threshold=10.581450000000002 0.0081500000000000027 0.90425000000000011 9.084950000000001 5.4118000000000013 0.0029000000000000002 0.082250000000000018
decision_type=2 2 2 2 2 2 2
left_child=1 2 -1 4 6 -5 -4
right_child=-2 -3 3 5 -6 -7 -8
leaf_value=-0.018029865645550626 -0.039263802468717857 -0.029117175497596993 0.0096419368798029721 -0.042909600283227566 -0.037163118220999498 0.044349894337694068 0.036862052698036961
leaf_count=12 15 16 13 2 8 1 2
internal_value=0 0.0398034 0.105678 0.161576 0.1062 0.347785 0.194005
internal_count=69 54 38 26 23 3 15
shrinkage=0.1


Tree=4
num_leaves=8
num_cat=0
split_feature=2 2 3 3 3 2 2
split_gain=24.1972 14.8626 17.6038 3.86003 5.83902 2.85106 2.59744
threshold=0.31220000000000009 0.36505000000000004 0.015150000000000002 0.034300000000000004 0.026450000000000005 2.9785000000000004 0.037050000000000007
decision_type=2 2 2 2 2 2 2
left_child=6 -2 5 4 -4 -3 -1
right_child=1 2 3 -5 -6 -7 -8
leaf_value=-0.037213433472692153 0.0386155089675565 0.04168066898446969 -0.040734944293633502 -0.039763780129301977 0.019218661306408237 -0.042755667190367427 -0.013889044884372884
leaf_count=14 3 1 6 11 3 1 30
internal_value=0 0.16408 -0.0036115 -0.213447 -0.0422766 0.3617 -0.196441
internal_count=69 25 22 20 9 2 44
shrinkage=0.1


Tree=5
num_leaves=8
num_cat=0
split_feature=2 2 0 0 0 0 3
split_gain=15.0746 7.69246 12.8251 8.98376 4.51588 8.19972 4.365
threshold=0.27655000000000002 0.36505000000000004 1.7182000000000002 3.8032500000000002 4.097500000000001 5.4118000000000013 0.028400000000000005
decision_type=2 2 2 2 2 2 2
left_child=4 3 6 -2 -1 -6 -3
right_child=1 2 -4 -5 5 -7 -8
leaf_value=-0.038655452742653355 -0.043959744384886833 0.02967527919130529 -0.037285102088016886 0.038479266777342119 0.017955209399354084 -0.031187584980694162 -0.030860089594885162
leaf_count=18 3 4 15 3 6 17 3
internal_value=0 0.139502 -0.0139605 0.304003 -0.195144 -0.0780727 0.202283
internal_count=69 28 22 6 41 23 7
shrinkage=0.1


Tree=6
num_leaves=8
num_cat=0
split_feature=2 2 0 0 0 0 0
split_gain=9.73005 4.68054 8.91216 6.18033 2.83103 2.35346 4.56889
threshold=0.27655000000000002 0.36505000000000004 1.7182000000000002 3.8032500000000002 0.90425000000000011 4.097500000000001 5.4118000000000013
decision_type=2 2 2 2 2 2 2
left_child=5 3 4 -2 -3 -1 -7
right_child=1 2 -4 -5 -6 6 -8
leaf_value=-0.035487248892704278 -0.04171909487181065 -0.0032146353823061437 -0.035363246268629744 0.035981515625585679 0.038089792235388852 0.014374044966724253 -0.028239730722144321
leaf_count=18 3 6 15 3 1 6 17
internal_value=0 0.127869 -0.00923567 0.280023 0.1917 -0.180297 -0.0808297
internal_count=69 28 22 6 7 41 23
shrinkage=0.1


Tree=7
num_leaves=8
num_cat=0
split_feature=2 2 3 2 2 1 2
split_gain=6.41753 3.37442 6.15179 0.873384 0.795441 0.906334 0.789178
threshold=0.27655000000000002 0.36505000000000004 0.015150000000000002 0.31220000000000009 0.64210000000000012 0.0029000000000000002 2.9785000000000004
decision_type=2 2 2 2 2 2 2
left_child=-1 3 6 -2 -4 -6 -3
right_child=1 2 4 -5 5 -7 -8
leaf_value=-0.016339067148841768 -0.00016805607027621267 0.03690866383974508 -0.03484582645975897 0.033462623717762228 -0.035284370956502352 0.011560899801897971 -0.040061849689703402
leaf_count=41 3 1 12 3 4 4 1
internal_value=0 0.117488 -0.0119912 0.267794 -0.19507 -0.0432764 0.311515
internal_count=69 28 22 6 20 8 2
shrinkage=0.1


Tree=8
num_leaves=8
num_cat=0
split_feature=2 1 1 2 1 2 1
split_gain=4.56306 2.49002 1.77 0.500877 2.63027 0.408421 0.395273
threshold=0.23425000000000004 0.0081500000000000027 0.00090000000000000008 0.36505000000000004 0.0011500000000000002 2.9785000000000004 0.0039500000000000013
decision_type=2 2 2 2 2 2 2
left_child=-1 2 -2 -4 5 -5 -6
right_child=1 -3 3 4 6 -7 -8
leaf_value=-0.017196448358072196 -0.034740618105041442 -0.028986103537705366 0.023877611972196906 0.035512676122405246 -0.0016056127443287362 -0.039222551602660263 -0.040167752437577954
leaf_count=35 5 8 8 1 7 1 4
internal_value=0 0.0933824 0.133944 0.162289 0.0599447 0.298329 -0.125761
internal_count=69 34 26 21 13 2 11
shrinkage=0.1


Tree=9
num_leaves=8
num_cat=0
split_feature=2 1 2 2 1 1 1
split_gain=3.92705 1.51193 0.892511 1.5982 0.301674 0.610468 0.253876
threshold=0.27655000000000002 0.0081500000000000027 0.36505000000000004 0.64210000000000012 0.0013500000000000003 0.0029000000000000002 0.0039500000000000013
decision_type=2 2 2 2 2 2 2
left_child=-1 2 -2 -4 -5 -6 -7
right_child=1 -3 3 4 5 6 -8
leaf_value=-0.014411509165865697 0.026060534975033897 -0.026730431830141895 -0.027565270372899454 0.028762367287450376 -0.031218084893446931 0.031572363327653223 -0.039930135816404921
leaf_count=41 5 7 8 2 4 1 1
internal_value=0 0.112186 0.150815 0.0399802 0.146341 -0.0128174 0.184807
internal_count=69 28 21 16 8 6 2
shrinkage=0.1


Tree=10
num_leaves=6
num_cat=0
split_feature=2 1 1 2 2
split_gain=3.09913 1.40794 0.950939 0.0146636 0.643509
threshold=0.23425000000000004 0.0081500000000000027 0.00090000000000000008 0.36505000000000004 0.64210000000000012
decision_type=2 2 2 2 2
left_child=-1 2 -2 -4 -5
right_child=1 -3 3 4 -6
leaf_value=-0.016370531005682122 -0.033384959067740659 -0.026771008628599064 0.022658845814263022 -0.02723661447268776 0.013870095746213904
leaf_count=35 5 8 8 5 8
internal_value=0 0.0917541 0.130058 0.156668 0.0595786
internal_count=69 34 26 21 13
shrinkage=0.1


Tree=11
num_leaves=5
num_cat=0
split_feature=0 0 3 0
split_gain=1.89304 1.86597 5.112 0.218656
threshold=10.581450000000002 3.8032500000000002 0.028400000000000005 1.0646000000000002
decision_type=2 2 2 2
left_child=1 2 3 -1
right_child=-2 -3 -4 -5
leaf_value=0.021128410417643673 -0.030842618683498708 0.013591565290791431 -0.035267353293744676 -0.024965253112180792
leaf_count=6 15 24 21 3
internal_value=0 0.0373444 -0.0924275 0.150399
internal_count=69 54 30 9
shrinkage=0.1


Tree=12
num_leaves=8
num_cat=0
split_feature=2 2 0 0 0 0 0
split_gain=2.08801 1.55342 2.02186 0.993956 1.46144 0.470992 0.346781
threshold=0.31220000000000009 0.36505000000000004 1.7182000000000002 3.8032500000000002 5.4118000000000013 4.7648500000000009 0.90425000000000011
decision_type=2 2 2 2 2 2 2
left_child=3 5 6 -1 -5 -2 -3
right_child=1 2 -4 4 -6 -7 -8
leaf_value=-0.03001794374390972 -0.043717596891837886 -0.0022572397993898732 -0.028698561834314341 0.014358722047810147 -0.021692088512999544 0.033151037436821226 0.033207324262976561
leaf_count=20 1 6 15 7 17 2 1
internal_value=0 0.114867 -0.0104777 -0.116073 -0.0220577 0.289864 0.150647
internal_count=69 25 22 44 24 3 7
shrinkage=0.1


Tree=13
num_leaves=8
num_cat=0
split_feature=2 2 0 0 0 0 0
split_gain=1.11912 0.895219 1.64448 0.878878 1.1374 0.846101 0.101914
threshold=0.31220000000000009 0.36505000000000004 1.7182000000000002 3.8032500000000002 5.4118000000000013 4.7648500000000009 0.90425000000000011
decision_type=2 2 2 2 2 2 2
left_child=3 5 6 -1 -5 -2 -3
right_child=1 2 -4 4 -6 -7 -8
leaf_value=-0.028904484412582712 -0.043120815543092744 -0.0012794281893912475 -0.028320609333146313 0.01442755053290864 -0.0200372900243516 0.032377970202574567 0.032591436208341429
leaf_count=20 1 6 15 7 17 2 1
internal_value=0 0.101669 -0.0116162 -0.0981975 -0.00701791 0.262089 0.147686
internal_count=69 25 22 44 24 3 7
shrinkage=0.1


Tree=14
num_leaves=6
num_cat=0
split_feature=0 3 0 0 0
split_gain=0.653878 0.679053 0.110146 0.275235 0.187374
threshold=10.581450000000002 0.21890000000000001 3.8032500000000002 1.7182000000000002 0.90425000000000011
decision_type=2 2 2 2 2
left_child=1 2 3 4 -1
right_child=-2 -3 -4 -5 -6
leaf_value=-0.010084353948264402 -0.027950229740082096 -0.028499889784538129 0.013267653867428383 -0.037328640460821592 0.020653496473948398
leaf_count=14 15 9 21 6 4
internal_value=0 0.0314282 0.0627806 -0.040362 0.0212188
internal_count=69 54 45 24 18
shrinkage=0.1


Tree=15
num_leaves=6
num_cat=0
split_feature=2 2 2 0 0
split_gain=0.924553 0.571839 0.510155 0.43591 0.500623
threshold=0.31220000000000009 0.36505000000000004 0.64210000000000012 3.8032500000000002 9.084950000000001
decision_type=2 2 2 2 2
left_child=3 -2 -3 -1 -5
right_child=1 2 -4 4 -6
leaf_value=-0.028132784511118603 0.027042523101139665 -0.026508137199835059 0.010561903035211845 0.0077114837087428464 -0.027792239667123731
leaf_count=20 3 12 10 12 12
internal_value=0 0.105656 -0.00264124 -0.10113 -0.0145437
internal_count=69 25 22 44 24
shrinkage=0.1


Tree=16
num_leaves=7
num_cat=0
split_feature=0 1 1 1 1 1
split_gain=0.24602 0.298563 0.607514 0.299662 0.279341 0.0593927
threshold=22.531400000000001 0.0039500000000000013 0.0059500000000000013 0.0029000000000000002 0.0019500000000000001 0.0081500000000000027
decision_type=2 2 2 2 2 2
left_child=1 3 -3 4 -1 -4
right_child=-2 2 5 -5 -6 -7
leaf_value=0.0063980572727245048 -0.030512158696802807 -0.03637268912449073 0.019875865205210671 0.022000147523616984 -0.033274538576904655 -0.011860456373256932
leaf_count=16 12 9 3 7 6 16
internal_value=0 0.023987 -0.0918678 0.0950002 -0.0112493 0.00671394
internal_count=69 57 28 29 22 19
shrinkage=0.1


Tree=17
num_leaves=6
num_cat=0
split_feature=2 2 2 0 0
split_gain=0.469181 0.225688 0.186856 0.131781 0.470547
threshold=0.31220000000000009 0.36505000000000004 0.64210000000000012 3.8032500000000002 9.084950000000001
decision_type=2 2 2 2 2
left_child=3 -2 -3 -1 -5
right_child=1 2 -4 4 -6
leaf_value=-0.026726159790357348 0.026131557435112564 -0.02421218558467346 0.010361218824679094 0.0075204527181627111 -0.029777031314833464
leaf_count=20 3 12 10 12 12
internal_value=0 0.0998876 0.000899682 -0.0918665 -0.0144967
internal_count=69 25 22 44 24
shrinkage=0.1


Tree=18
num_leaves=3
num_cat=0
split_feature=2 2
split_gain=0.183797 0.0250979
threshold=0.31220000000000009 0.36505000000000004
decision_type=2 2
left_child=-1 -2
right_child=1 -3
leaf_value=-0.0083217326158859795 0.02475073396413829 3.1099193912267565e-05
leaf_count=44 3 22
internal_value=0 0.0937522
internal_count=69 25
shrinkage=0.1


Tree=19
num_leaves=2
num_cat=0
split_feature=0
split_gain=0.0168475
threshold=10.581450000000002
decision_type=2
left_child=-1
right_child=-2
leaf_value=0.0025772204306036563 -0.026960221386809986
leaf_count=54 15
internal_value=0
internal_count=69
shrinkage=0.1


end of trees

feature importances:
Column_0=40
Column_2=39
Column_1=23
Column_3=11

parameters:
[boosting: gbdt]
[objective: lambdarank]
[metric: none,lambdarank]
[tree_learner: serial]
[device_type: cpu]
[data: ]
[valid: ]
[num_iterations: 100]
[learning_rate: 0.1]
[num_leaves: 8]
[num_threads: -1]
[max_depth: -1]
[min_data_in_leaf: 1]
[min_sum_hessian_in_leaf: 0.001]
[bagging_fraction: 1]
[bagging_freq: 0]
[bagging_seed: 3]
[feature_fraction: 0.8]
[feature_fraction_seed: 2]
[early_stopping_round: 0]
[max_delta_step: 0]
[lambda_l1: 0]
[lambda_l2: 0]
[min_gain_to_split: 1]
[drop_rate: 0.1]
[max_drop: 50]
[skip_drop: 0.5]
[xgboost_dart_mode: 0]
[uniform_drop: 0]
[drop_seed: 4]
[top_rate: 0.2]
[other_rate: 0.1]
[min_data_per_group: 100]
[max_cat_threshold: 32]
[cat_l2: 10]
[cat_smooth: 10]
[max_cat_to_onehot: 4]
[top_k: 20]
[monotone_constraints: ]
[feature_contri: ]
[forcedsplits_filename: ]
[refit_decay_rate: 0.9]
[verbosity: -1]
[max_bin: 255]
[min_data_in_bin: 3]
[bin_construct_sample_cnt: 200000]
[histogram_pool_size: -1]
[data_random_seed: 1]
[output_model: LightGBM_model.txt]
[snapshot_freq: -1]
[input_model: ]
[output_result: LightGBM_predict_result.txt]
[initscore_filename: ]
[valid_data_initscores: ]
[pre_partition: 0]
[enable_bundle: 1]
[max_conflict_rate: 0]
[is_enable_sparse: 1]
[sparse_threshold: 0.8]
[use_missing: 1]
[zero_as_missing: 0]
[two_round: 0]
[save_binary: 0]
[enable_load_from_binary_file: 1]
[header: 0]
[label_column: ]
[weight_column: ]
[group_column: ]
[ignore_column: ]
[categorical_feature: ]
[predict_raw_score: 0]
[predict_leaf_index: 0]
[predict_contrib: 0]
[num_iteration_predict: -1]
[pred_early_stop: 0]
[pred_early_stop_freq: 10]
[pred_early_stop_margin: 10]
[convert_model_language: ]
[convert_model: gbdt_prediction.cpp]
[num_class: 1]
[is_unbalance: 0]
[scale_pos_weight: 1]
[sigmoid: 1]
[boost_from_average: 1]
[reg_sqrt: 0]
[alpha: 0.9]
[fair_c: 1]
[poisson_max_delta_step: 0.7]
[tweedie_variance_power: 1.5]
[max_position: 20]
[label_gain: ]
[metric_freq: 1]
[is_provide_training_metric: 0]
[eval_at: 1]
[num_machines: 1]
[local_listen_port: 12400]
[time_out: 120]
[machine_list_filename: ]
[machines: ]
[gpu_platform_id: -1]
[gpu_device_id: -1]
[gpu_use_dp: 0]

end of parameters

pandas_categorical:null
