tree
version=v2
num_class=1
num_tree_per_iteration=1
label_index=0
max_feature_idx=5
objective=lambdarank
feature_names=Column_0 Column_1 Column_2 Column_3 Column_4 Column_5
feature_infos=[0.41999999999999998:0.85999999999999999] [0.00020000000000000001:1] [0.32029999999999997:0.67369999999999997] [0.125:1] [0:0.5] [0.40000000000000002:0.90000000000000002]
tree_sizes=412 700 703 698 702 701 702 701 481 626 636 487 410 412 563 341 412 265 417 265 337 266

Tree=0
num_leaves=4
num_cat=0
split_feature=0 2 2
split_gain=1.50109 0.073783 1.08267
threshold=0.69500000000000006 0.62655000000000005 0.47610000000000008
decision_type=2 2 2
left_child=1 2 -1
right_child=-2 -3 -4
leaf_value=0.027361284957345629 -0.040809766622709159 0.030995460453246877 -0.026064229201109363
leaf_count=11 21 6 31
internal_value=0 0.106165 -0.00885431
internal_count=69 48 42
shrinkage=0.1


Tree=1
num_leaves=8
num_cat=0
split_feature=2 3 2 0 0 0 0
split_gain=60.2982 62.1694 60.1216 74.3681 12.0194 10.4123 28.0648
threshold=0.41515000000000007 0.53570000000000018 0.62655000000000005 0.63500000000000012 0.69500000000000006 0.58500000000000008 0.56500000000000006
decision_type=2 2 2 2 2 2 2
left_child=1 -1 5 -4 -5 6 -2
right_child=2 -3 3 4 -6 -7 -8
leaf_value=0.046315516637544692 -0.028201706649753501 -0.049581432875026442 -0.050223722498536405 0.030602588822368184 -0.029385862725277934 -0.033026170469832666 0.021176981505748971
leaf_count=3 14 3 3 3 4 34 5
internal_value=0 0.309053 -0.0803881 0.126525 0.271706 -0.231254 -0.129462
internal_count=69 6 63 10 7 53 19
shrinkage=0.1


Tree=2
num_leaves=8
num_cat=0
split_feature=3 1 0 0 0 3 5
split_gain=43.5569 32.447 14.697 30.8088 9.91945 12.5275 5.43009
threshold=0.53570000000000018 0.62860000000000016 0.69500000000000006 0.67500000000000016 0.58500000000000008 0.77500000000000013 0.65000000000000002
decision_type=2 2 2 2 2 2 2
left_child=1 -1 3 4 5 -2 -6
right_child=2 -3 -4 -5 6 -7 -8
leaf_value=0.04240630160830184 0.018178762131104784 -0.046926748276537332 -0.038553835113383089 0.032853458341530133 -0.042161008866975068 -0.023937495845325844 -0.0099927791669951142
leaf_count=3 6 4 20 3 18 12 3
internal_value=0 0.301536 -0.115714 -0.0526758 -0.164216 -0.0342013 -0.309334
internal_count=69 7 62 42 39 18 21
shrinkage=0.1


Tree=3
num_leaves=8
num_cat=0
split_feature=2 0 2 0 0 0 2
split_gain=27.1394 19.7394 12.0888 10.9202 12.4923 5.80912 13.277
threshold=0.47610000000000008 0.58500000000000008 0.54535000000000011 0.69500000000000006 0.63500000000000012 0.54500000000000015 0.37390000000000007
decision_type=2 2 2 2 2 2 2
left_child=1 5 -2 4 -4 6 -1
right_child=2 -3 3 -5 -6 -7 -8
leaf_value=0.041512514488829311 -0.033958506872552793 -0.043087271274356888 -0.028458032264690764 -0.035447757316509676 0.025546594225806768 0.043733421598162139 -0.021906574748688075
leaf_count=1 29 7 8 11 5 2 6
internal_value=0 0.214081 -0.149756 -0.0162465 0.0999884 0.30309 0.143315
internal_count=69 16 53 24 13 9 7
shrinkage=0.1


Tree=4
num_leaves=8
num_cat=0
split_feature=2 3 0 0 2 0 3
split_gain=15.8206 6.83884 6.65651 8.39943 6.69377 7.29825 4.6092
threshold=0.41515000000000007 0.53570000000000018 0.69500000000000006 0.67500000000000016 0.47610000000000008 0.56500000000000006 0.88195000000000012
decision_type=2 2 2 2 2 2 2
left_child=1 -1 3 4 5 -2 -6
right_child=2 -3 -4 -5 6 -7 -8
leaf_value=0.036644898423674112 -0.023153690595761483 -0.043044433219565054 -0.033631032033067713 0.024861972555378246 -0.035440855538443568 0.036939521385441258 -0.0031047825821251098
leaf_count=3 5 3 19 3 22 2 12
internal_value=0 0.294313 -0.0868645 -0.0264443 -0.110003 0.12679 -0.213589
internal_count=69 6 63 44 41 7 34
shrinkage=0.1


Tree=5
num_leaves=8
num_cat=0
split_feature=0 3 1 1 3 0 0
split_gain=18.2334 9.87219 6.19844 2.03632 4.21758 4.3056 1.41435
threshold=0.58500000000000008 0.77500000000000013 0.62860000000000016 0.58120000000000005 0.88195000000000012 0.69500000000000006 0.63500000000000012
decision_type=2 2 2 2 2 2 2
left_child=1 2 -1 -2 -5 6 -6
right_child=3 -3 -4 4 5 -7 -8
leaf_value=0.032210501218507999 -0.034216619032419342 -0.018494568383796789 -0.042269464438689605 -0.028364348753336235 -0.043068424359221841 -0.028848913482022832 0.030035115591758716
leaf_count=8 21 12 3 14 1 7 3
internal_value=0 0.175795 0.277589 -0.193737 -0.117593 0.0593678 0.236807
internal_count=69 23 11 46 25 11 4
shrinkage=0.1


Tree=6
num_leaves=8
num_cat=0
split_feature=2 1 3 2 1 1 2
split_gain=10.9388 7.88444 5.70487 2.24266 1.9071 2.01738 0.410636
threshold=0.47610000000000008 0.60420000000000007 0.88195000000000012 0.54535000000000011 0.73440000000000005 0.58120000000000005 0.55820000000000014
decision_type=2 2 2 2 2 2 2
left_child=1 2 -1 -2 5 -5 -7
right_child=3 -3 -4 4 -6 6 -8
leaf_value=0.032350897437221714 -0.027170484709416812 -0.040007357228158597 -0.03963977452750473 -0.030129722526535715 -0.037643117761728906 0.035052056305808606 0.0040968061915529859
leaf_count=6 29 6 4 6 6 1 11
internal_value=0 0.185937 0.264153 -0.145318 -0.0418698 0.0218426 0.103348
internal_count=69 16 10 53 24 18 12
shrinkage=0.1


Tree=7
num_leaves=8
num_cat=0
split_feature=2 0 1 2 0 0 0
split_gain=7.49962 6.23261 1.87389 1.27906 1.5649 2.45806 1.06512
threshold=0.47610000000000008 0.58500000000000008 0.62860000000000016 0.54535000000000011 0.69500000000000006 0.63500000000000012 0.56500000000000006
decision_type=2 2 2 2 2 2 2
left_child=1 2 -1 6 5 -5 -2
right_child=3 -3 -4 4 -6 -7 -8
leaf_value=0.028480021610423845 -0.0015532778694125659 -0.03798994249453308 -0.039697156647159441 -0.02236058551921595 -0.027150274871290569 0.020431453299353534 -0.033834491737219606
leaf_count=7 6 7 2 8 11 5 23
internal_value=0 0.172717 0.253531 -0.131146 -0.0372736 0.0564073 -0.244975
internal_count=69 16 9 53 24 13 29
shrinkage=0.1


Tree=8
num_leaves=5
num_cat=0
split_feature=2 0 0 2
split_gain=5.59239 4.68507 1.41049 0.639373
threshold=0.47610000000000008 0.58500000000000008 0.54500000000000015 0.54535000000000011
decision_type=2 2 2 2
left_child=1 2 -1 -2
right_child=3 -3 -4 -5
leaf_value=0.0075767738361381641 -0.02263626105720189 -0.036891202594078888 0.035941483740160679 -0.0037920688841290937
leaf_count=7 29 7 2 24
internal_value=0 0.16366 0.239708 -0.123309
internal_count=69 16 9 53
shrinkage=0.1


Tree=9
num_leaves=7
num_cat=0
split_feature=2 0 0 1 1 2
split_gain=4.21297 3.40294 1.03916 1.50354 1.27848 0.524719
threshold=0.47610000000000008 0.58500000000000008 0.54500000000000015 0.58120000000000005 0.62860000000000016 0.54535000000000011
decision_type=2 2 2 2 2 2
left_child=1 2 3 -1 -5 -2
right_child=5 -3 -4 4 -6 -7
leaf_value=-0.025124556142439577 -0.021564007508265537 -0.035663734919768438 0.03487422881237208 0.034372498689156726 -0.038289877287362384 -0.0027587851399961351
leaf_count=4 29 7 2 1 2 24
internal_value=0 0.156698 0.225823 0.0741217 0.231322 -0.111413
internal_count=69 16 9 7 3 53
shrinkage=0.1


Tree=10
num_leaves=7
num_cat=0
split_feature=0 2 2 0 0 4
split_gain=3.22883 2.77738 1.92713 1.18925 0.991474 0.824884
threshold=0.58500000000000008 0.50200000000000011 0.54535000000000011 0.69500000000000006 0.63500000000000012 1.0000000180025095e-35
decision_type=2 2 2 2 2 2
left_child=1 5 -2 4 -4 -1
right_child=2 -3 3 -5 -6 -7
leaf_value=-0.024261593358250837 -0.031343245462073926 -0.023660125592443737 -0.028422189290128887 -0.023769275768580907 0.021038939304930844 0.023398377032059388
leaf_count=3 26 9 4 11 5 11
internal_value=0 0.121666 -0.129105 -0.00752817 0.113323 0.197736
internal_count=69 23 46 20 9 14
shrinkage=0.1


Tree=11
num_leaves=5
num_cat=0
split_feature=2 1 3 2
split_gain=2.33411 2.16713 2.04892 0.0324056
threshold=0.47610000000000008 0.60420000000000007 0.88195000000000012 0.54535000000000011
decision_type=2 2 2 2
left_child=1 2 -1 -2
right_child=3 -3 -4 -5
leaf_value=0.026794364920420689 -0.019169953689248162 -0.035895191218593504 -0.038837349926625825 -0.0021529214724343433
leaf_count=6 29 6 4 24
internal_value=0 0.143477 0.208465 -0.0960971
internal_count=69 16 10 53
shrinkage=0.1


Tree=12
num_leaves=4
num_cat=0
split_feature=2 3 5
split_gain=1.58341 1.18096 0.356711
threshold=0.47610000000000008 0.88195000000000012 0.55000000000000016
decision_type=2 2 2
left_child=1 2 -1
right_child=-2 -3 -4
leaf_value=0.021592179164230334 -0.0085247994497090109 -0.036391040778753971 -0.034245227433419755
leaf_count=8 53 5 3
internal_value=0 0.133922 0.183696
internal_count=69 16 11
shrinkage=0.1


Tree=13
num_leaves=4
num_cat=0
split_feature=0 2 2
split_gain=1.43064 1.14568 1.11202
threshold=0.58500000000000008 0.50200000000000011 0.54535000000000011
decision_type=2 2 2
left_child=1 -1 -2
right_child=2 -3 -4
leaf_value=0.016420889693079945 -0.029456186990179569 -0.020352585842065025 2.4174566394799933e-05
leaf_count=14 26 9 20
internal_value=0 0.101752 -0.110519
internal_count=69 23 46
shrinkage=0.1


Tree=14
num_leaves=6
num_cat=0
split_feature=0 2 2 1 1
split_gain=1.19282 0.787509 0.777679 0.356197 0.302013
threshold=0.58500000000000008 0.54535000000000011 0.50200000000000011 0.73440000000000005 0.58120000000000005
decision_type=2 2 2 2 2
left_child=2 -2 -1 4 -3
right_child=1 3 -4 -5 -6
leaf_value=0.01574679933315349 -0.028961651917765587 -0.023351593039786653 -0.018382206165587386 -0.034971490422401316 0.014411066241527352
leaf_count=14 26 6 9 5 9
internal_value=0 -0.109308 0.0986145 -0.00655789 0.0577464
internal_count=69 46 23 20 15
shrinkage=0.1


Tree=15
num_leaves=3
num_cat=0
split_feature=0 2
split_gain=0.827579 0.301042
threshold=0.69500000000000006 0.41515000000000007
decision_type=2 2
left_child=1 -1
right_child=-2 -3
leaf_value=0.020944201027246021 -0.022772641381401712 -0.00066934735482513806
leaf_count=4 21 44
internal_value=0 0.0428473
internal_count=69 48
shrinkage=0.1


Tree=16
num_leaves=4
num_cat=0
split_feature=3 2 2
split_gain=0.489678 0.733995 0.346952
threshold=0.53570000000000018 0.41515000000000007 0.43675000000000003
decision_type=2 2 2
left_child=1 -1 -2
right_child=2 -3 -4
leaf_value=0.028737592519060398 -0.040340538430148148 -0.023514103083973212 -0.0020229932378018393
leaf_count=3 5 4 57
internal_value=0 0.176299 -0.046404
internal_count=69 7 62
shrinkage=0.1


Tree=17
num_leaves=2
num_cat=0
split_feature=0
split_gain=0.525676
threshold=0.69500000000000006
decision_type=2
left_child=-1
right_child=-2
leaf_value=0.0040088891964613843 -0.022088320909333561
leaf_count=48 21
internal_value=0
internal_count=69
shrinkage=0.1


Tree=18
num_leaves=4
num_cat=0
split_feature=0 2 2
split_gain=0.351198 0.544981 0.387791
threshold=0.58500000000000008 0.54535000000000011 0.50200000000000011
decision_type=2 2 2
left_child=2 -2 -1
right_child=1 -3 -4
leaf_value=0.014144597095651046 -0.028265132808252665 0.00084082707205404583 -0.018745424493040914
leaf_count=14 26 20 9
internal_value=0 -0.0946519 0.0843731
internal_count=69 46 23
shrinkage=0.1


Tree=19
num_leaves=2
num_cat=0
split_feature=0
split_gain=0.282048
threshold=0.69500000000000006
decision_type=2
left_child=-1
right_child=-2
leaf_value=0.0036655743652660687 -0.021605341661418934
leaf_count=48 21
internal_value=0
internal_count=69
shrinkage=0.1


Tree=20
num_leaves=3
num_cat=0
split_feature=3 2
split_gain=0.110551 0.477535
threshold=0.53570000000000018 0.41515000000000007
decision_type=2 2
left_child=1 -1
right_child=-2 -3
leaf_value=0.028212839748871746 -0.0042187978961912356 -0.022471441702512897
leaf_count=3 62 4
internal_value=0 0.165213
internal_count=69 7
shrinkage=0.1


Tree=21
num_leaves=2
num_cat=0
split_feature=0
split_gain=0.0204927
threshold=0.69500000000000006
decision_type=2
left_child=-1
right_child=-2
leaf_value=0.0033044753156872514 -0.019993531989536753
leaf_count=48 21
internal_value=0
internal_count=69
shrinkage=0.1


end of trees

feature importances:
Column_0=36
Column_2=33
Column_1=12
Column_3=12
Column_5=2
Column_4=1

parameters:
[boosting: gbdt]
[objective: lambdarank]
[metric: none,lambdarank]
[tree_learner: serial]
[device_type: cpu]
[data: ]
[valid: ]
[num_iterations: 100]
[learning_rate: 0.1]
[num_leaves: 8]
[num_threads: -1]
[max_depth: -1]
[min_data_in_leaf: 1]
[min_sum_hessian_in_leaf: 0.001]
[bagging_fraction: 1]
[bagging_freq: 0]
[bagging_seed: 3]
[feature_fraction: 0.8]
[feature_fraction_seed: 2]
[early_stopping_round: 0]
[max_delta_step: 0]
[lambda_l1: 0]
[lambda_l2: 0]
[min_gain_to_split: 1]
[drop_rate: 0.1]
[max_drop: 50]
[skip_drop: 0.5]
[xgboost_dart_mode: 0]
[uniform_drop: 0]
[drop_seed: 4]
[top_rate: 0.2]
[other_rate: 0.1]
[min_data_per_group: 100]
[max_cat_threshold: 32]
[cat_l2: 10]
[cat_smooth: 10]
[max_cat_to_onehot: 4]
[top_k: 20]
[monotone_constraints: ]
[feature_contri: ]
[forcedsplits_filename: ]
[refit_decay_rate: 0.9]
[verbosity: -1]
[max_bin: 255]
[min_data_in_bin: 3]
[bin_construct_sample_cnt: 200000]
[histogram_pool_size: -1]
[data_random_seed: 1]
[output_model: LightGBM_model.txt]
[snapshot_freq: -1]
[input_model: ]
[output_result: LightGBM_predict_result.txt]
[initscore_filename: ]
[valid_data_initscores: ]
[pre_partition: 0]
[enable_bundle: 1]
[max_conflict_rate: 0]
[is_enable_sparse: 1]
[sparse_threshold: 0.8]
[use_missing: 1]
[zero_as_missing: 0]
[two_round: 0]
[save_binary: 0]
[enable_load_from_binary_file: 1]
[header: 0]
[label_column: ]
[weight_column: ]
[group_column: ]
[ignore_column: ]
[categorical_feature: ]
[predict_raw_score: 0]
[predict_leaf_index: 0]
[predict_contrib: 0]
[num_iteration_predict: -1]
[pred_early_stop: 0]
[pred_early_stop_freq: 10]
[pred_early_stop_margin: 10]
[convert_model_language: ]
[convert_model: gbdt_prediction.cpp]
[num_class: 1]
[is_unbalance: 0]
[scale_pos_weight: 1]
[sigmoid: 1]
[boost_from_average: 1]
[reg_sqrt: 0]
[alpha: 0.9]
[fair_c: 1]
[poisson_max_delta_step: 0.7]
[tweedie_variance_power: 1.5]
[max_position: 20]
[label_gain: ]
[metric_freq: 1]
[is_provide_training_metric: 0]
[eval_at: 1]
[num_machines: 1]
[local_listen_port: 12400]
[time_out: 120]
[machine_list_filename: ]
[machines: ]
[gpu_platform_id: -1]
[gpu_device_id: -1]
[gpu_use_dp: 0]

end of parameters

pandas_categorical:null
