tree
version=v2
num_class=1
num_tree_per_iteration=1
label_index=0
max_feature_idx=9
objective=lambdarank
feature_names=Column_0 Column_1 Column_2 Column_3 Column_4 Column_5 Column_6 Column_7 Column_8 Column_9
feature_infos=[0.079100000000000004:35.822499999999998] [0.00080000000000000004:0.035799999999999998] [0:7.8625999999999996] [0.0207:0.2626] [0.41999999999999998:0.85999999999999999] [0.00020000000000000001:1] [0.32029999999999997:0.67369999999999997] [0.125:1] [0:0.5] [0.40000000000000002:0.90000000000000002]
tree_sizes=339 706 699 705 697 702 700 696 695 705 701 697 484 560 412 408 491 487 342 338 343 267 263 265

Tree=0
num_leaves=3
num_cat=0
split_feature=3 8
split_gain=1.31502 0.674986
threshold=0.088750000000000009 0.25000000000000006
decision_type=2 2
left_child=1 -1
right_child=-2 -3
leaf_value=0.016890503270964856 -0.040894802198609526 -0.040972168027705327
leaf_count=37 18 14
internal_value=0 0.0980622
internal_count=69 51
shrinkage=0.1


Tree=1
num_leaves=8
num_cat=0
split_feature=7 3 6 3 6 3 2
split_gain=146.477 158.293 68.5121 65.1646 56.6077 50.8048 44.5485
threshold=0.77500000000000013 0.033200000000000007 0.41515000000000007 0.071350000000000011 0.49325000000000008 0.027200000000000005 1.0000000180025095e-35
decision_type=2 2 2 2 2 2 2
left_child=1 5 -3 6 -5 -1 -2
right_child=3 2 -4 4 -6 -7 -8
leaf_value=-0.019207567510822181 0.026192785474738373 0.027333372985425521 -0.047858074716576264 -0.049239995761640051 0.024248584896325802 0.047542119846694958 -0.039925346500188731
leaf_count=3 2 3 16 7 9 3 26
internal_value=0 0.203067 -0.237038 -0.201822 0.0708724 0.404854 -0.336263
internal_count=69 25 19 44 16 6 28
shrinkage=0.1


Tree=2
num_leaves=8
num_cat=0
split_feature=6 4 6 3 2 2 4
split_gain=79.2414 41.7166 19.1177 18.3554 15.4398 14.6606 7.98834
threshold=0.47610000000000008 0.58500000000000008 0.66215000000000013 0.20950000000000002 1.0000000180025095e-35 0.44670000000000004 0.44500000000000006
decision_type=2 2 2 2 2 2 2
left_child=1 3 4 5 -2 6 -1
right_child=2 -3 -4 -5 -6 -7 -8
leaf_value=-0.045951912219328074 0.020903877030664385 -0.045729810050029213 0.011431720158284243 -0.044494440875334003 -0.031690003638827798 -0.049334741701583168 0.044948021972634672
leaf_count=1 2 7 5 3 46 1 4
internal_value=0 0.266371 -0.195802 0.356934 -0.268962 0.398601 0.430485
internal_count=69 16 53 9 48 6 5
shrinkage=0.1


Tree=3
num_leaves=8
num_cat=0
split_feature=4 3 7 1 1 0 1
split_gain=39.7848 15.3344 15.6598 9.3332 12.7108 8.96974 4.91839
threshold=0.58500000000000008 0.22625000000000003 0.77500000000000013 0.0039500000000000013 0.0029500000000000004 29.125300000000003 0.012200000000000001
decision_type=2 2 2 2 2 2 2
left_child=1 2 -1 4 5 -2 -4
right_child=3 -3 6 -5 -6 -7 -8
leaf_value=0.035253181185235884 -0.04043474664626432 -0.042975063472849767 -0.019040160223336017 -0.036917939051570169 0.021663200666601538 0.011494134535036334 0.033099205429718247
leaf_count=7 13 5 10 26 4 3 1
internal_value=0 0.194115 0.244029 -0.206423 -0.0777163 -0.24682 -0.0720972
internal_count=69 23 18 46 20 16 11
shrinkage=0.1


Tree=4
num_leaves=8
num_cat=0
split_feature=6 4 2 2 6 1 2
split_gain=25.3411 15.7252 7.87343 4.55946 2.5895 6.95974 5.14463
threshold=0.47610000000000008 0.58500000000000008 0.14490000000000003 0.44670000000000004 0.62655000000000005 0.0029500000000000004 0.23245000000000002
decision_type=2 2 2 2 2 2 2
left_child=1 2 -1 -4 -2 -6 -7
right_child=4 -3 3 -5 5 6 -8
leaf_value=-0.017381952233428137 -0.022961951151216943 -0.040978199117501037 0.039348083094895736 -0.046753851307538695 -0.035669443685590781 -0.043624164958828204 0.03289444594553214
leaf_count=4 43 7 4 1 6 2 2
internal_value=0 0.215097 0.299327 0.366301 -0.170284 -0.0195712 0.18866
internal_count=69 16 9 5 53 10 4
shrinkage=0.1


Tree=5
num_leaves=8
num_cat=0
split_feature=4 6 2 2 6 2 0
split_gain=17.2617 12.4174 5.92321 4.69276 4.24055 2.52059 2.21164
threshold=0.58500000000000008 0.50200000000000011 0.37450000000000006 0.10395000000000001 0.53085000000000016 1.0000000180025095e-35 3.0288000000000004
decision_type=2 2 2 2 2 2 2
left_child=1 2 3 -1 -2 -6 -5
right_child=4 -3 -4 6 5 -7 -8
leaf_value=-0.012320422113871882 -0.038287481635510295 -0.033873695401828004 -0.041616919783697713 -0.041764483246809474 0.032738093430208344 -0.013672642469978064 0.036806085629372147
leaf_count=4 21 9 3 1 1 24 6
internal_value=0 0.16724 0.253893 0.293438 -0.189578 -0.0891521 0.348819
internal_count=69 23 14 11 46 25 7
shrinkage=0.1


Tree=6
num_leaves=8
num_cat=0
split_feature=4 2 2 2 9 4 3
split_gain=9.49231 6.38978 6.74235 3.94925 3.0367 2.87706 2.46008
threshold=0.58500000000000008 0.33320000000000011 0.10395000000000001 1.0000000180025095e-35 0.65000000000000002 0.69500000000000006 0.22625000000000003
decision_type=2 2 2 2 2 2 2
left_child=1 2 -1 -2 -5 -6 -4
right_child=3 -3 6 4 5 -7 -8
leaf_value=-0.023751131117882462 0.033728026408623095 -0.03852541083023632 0.031342728098151675 -0.031604909993205706 0.014550520540676879 -0.026870767641349172 -0.038686892213370697
leaf_count=7 1 6 8 31 5 9 2
internal_value=0 0.146438 0.20434 -0.15206 -0.195814 -0.0375897 0.285289
internal_count=69 23 17 46 45 14 10
shrinkage=0.1


Tree=7
num_leaves=8
num_cat=0
split_feature=6 4 1 1 1 1 1
split_gain=9.15382 5.63593 3.1395 2.2521 2.41578 1.60074 0.971384
threshold=0.47610000000000008 0.58500000000000008 0.0097500000000000017 0.0039500000000000013 0.0029500000000000004 0.00175 0.0015500000000000004
decision_type=2 2 2 2 2 2 2
left_child=1 2 -1 4 5 6 -2
right_child=3 -3 -4 -5 -6 -7 -8
leaf_value=0.031277630817983612 -0.0175622839248845 -0.036107399131390487 -0.037697654018625772 -0.027516111279994523 0.016132052478669025 -0.036153185534094204 0.023529051280515207
leaf_count=6 7 7 3 27 6 11 2
internal_value=0 0.193253 0.267564 -0.132901 -0.0353114 -0.160342 -0.00814151
internal_count=69 16 9 53 26 20 9
shrinkage=0.1


Tree=8
num_leaves=8
num_cat=0
split_feature=6 4 1 1 1 1 2
split_gain=6.8236 4.12792 2.25188 1.32665 1.45281 1.06114 0.713589
threshold=0.47610000000000008 0.58500000000000008 0.0097500000000000017 0.0039500000000000013 0.0029500000000000004 0.00175 0.44670000000000004
decision_type=2 2 2 2 2 2 2
left_child=1 2 6 4 5 -2 -1
right_child=3 -3 -4 -5 -6 -7 -8
leaf_value=0.031832401929061109 -0.00084388327637081807 -0.034983337527481555 -0.036704716303214202 -0.025470012412633983 0.014144091601990825 -0.03502895214475437 -0.040147137089338911
leaf_count=5 9 7 3 27 6 11 1
internal_value=0 0.183877 0.253703 -0.125341 -0.0362399 -0.15173 0.296756
internal_count=69 16 9 53 26 20 6
shrinkage=0.1


Tree=9
num_leaves=8
num_cat=0
split_feature=3 0 0 3 2 7 3
split_gain=4.6259 3.90968 3.80025 2.76773 2.31501 0.549987 0.439012
threshold=0.033200000000000007 3.8032500000000002 5.4118000000000013 0.027200000000000005 0.0081000000000000013 0.77500000000000013 0.23830000000000004
decision_type=2 2 2 2 2 2 2
left_child=3 -2 6 -1 -4 -5 -3
right_child=1 2 4 5 -6 -7 -8
leaf_value=-0.012753331710971611 -0.03564853750507984 0.023467298563839074 0.028940251020097809 0.033824746143976424 -0.029700350706317886 -0.0081671030784386169 -0.034158138561277161
leaf_count=9 24 7 1 3 20 3 2
internal_value=0 -0.107041 -0.000758131 0.176767 -0.191631 0.287178 0.192905
internal_count=69 54 30 15 21 6 9
shrinkage=0.1


Tree=10
num_leaves=8
num_cat=0
split_feature=6 1 2 2 1 1 1
split_gain=4.04368 2.31305 0.722969 0.959348 0.286205 0.653123 0.256609
threshold=0.47610000000000008 0.0068000000000000014 0.14490000000000003 0.44670000000000004 0.0039500000000000013 0.0029500000000000004 0.00175
decision_type=2 2 2 2 2 2 2
left_child=1 2 -1 -4 5 6 -2
right_child=4 -3 3 -5 -6 -7 -8
leaf_value=-0.013516752406204202 -0.0022759903841811611 -0.0344477443730552 0.032293635190492026 -0.036084932789906592 -0.022204318094315952 0.012705517062625321 -0.032904994933333057
leaf_count=4 9 6 4 2 27 6 11
internal_value=0 0.172088 0.234492 0.285322 -0.113085 -0.0376078 -0.146265
internal_count=69 16 10 6 53 26 20
shrinkage=0.1


Tree=11
num_leaves=8
num_cat=0
split_feature=4 2 2 1 1 3 1
split_gain=3.12182 1.50102 1.71551 0.671936 0.345254 0.165898 0.0940968
threshold=0.58500000000000008 0.33320000000000011 0.10395000000000001 0.0039500000000000013 0.0029500000000000004 0.22625000000000003 0.00175
decision_type=2 2 2 2 2 2 2
left_child=1 2 -1 4 6 -4 -2
right_child=3 -3 5 -5 -6 -7 -8
leaf_value=-0.019242235282695669 0.00077552441573008717 -0.032698895914273683 0.026916213250712459 -0.027770984019090485 0.015148031854725161 -0.033851064382348778 -0.03304585335140111
leaf_count=7 6 6 8 26 4 2 10
internal_value=0 0.13114 0.17781 -0.13756 -0.0305812 0.246901 -0.14742
internal_count=69 23 17 46 20 10 16
shrinkage=0.1


Tree=12
num_leaves=5
num_cat=0
split_feature=6 1 5 2
split_gain=2.76281 1.37485 0.208891 0.230378
threshold=0.47610000000000008 0.0068000000000000014 0.60420000000000007 0.44670000000000004
decision_type=2 2 2 2
left_child=1 2 3 -1
right_child=-2 -3 -4 -5
leaf_value=0.028963619685503844 -0.010967686624555705 -0.033189683067706012 -0.031231688724813744 -0.033944117940924438
leaf_count=5 53 6 3 2
internal_value=0 0.168778 0.228022 0.259272
internal_count=69 16 10 7
shrinkage=0.1


Tree=13
num_leaves=6
num_cat=0
split_feature=3 0 0 2 3
split_gain=1.84391 1.4752 1.19261 1.05022 0.947158
threshold=0.033200000000000007 3.8032500000000002 5.4118000000000013 0.0081000000000000013 0.027200000000000005
decision_type=2 2 2 2 2
left_child=4 -2 -3 -4 -1
right_child=1 2 3 -5 -6
leaf_value=-0.010984604050056766 -0.032611268522064099 0.016221523575860691 0.028611371962830614 -0.026379184310808421 0.02609545651208511
leaf_count=9 24 9 1 20 6
internal_value=0 -0.0949089 -0.00437703 -0.159258 0.158484
internal_count=69 54 30 21 15
shrinkage=0.1


Tree=14
num_leaves=4
num_cat=0
split_feature=6 4 1
split_gain=1.68012 0.933905 0.163928
threshold=0.47610000000000008 0.58500000000000008 0.0097500000000000017
decision_type=2 2 2
left_child=1 2 -1
right_child=-2 -3 -4
leaf_value=0.026030222359401757 -0.0096199000385996606 -0.031256041013594325 -0.032576610232857899
leaf_count=6 53 7 3
internal_value=0 0.160525 0.223382
internal_count=69 16 9
shrinkage=0.1


Tree=15
num_leaves=4
num_cat=0
split_feature=6 4 2
split_gain=1.15766 0.642619 0.138548
threshold=0.47610000000000008 0.58500000000000008 0.14490000000000003
decision_type=2 2 2
left_child=1 2 -1
right_child=-2 -3 -4
leaf_value=-0.013777183937705009 -0.0086558133257449831 -0.03088143287057515 0.027354997167239811
leaf_count=4 53 7 5
internal_value=0 0.151904 0.21176
internal_count=69 16 9
shrinkage=0.1


Tree=16
num_leaves=5
num_cat=0
split_feature=3 3 6 2
split_gain=0.890614 0.310729 0.128266 0.371532
threshold=0.033200000000000007 0.027200000000000005 0.41515000000000007 1.0000000180025095e-35
decision_type=2 2 2 2
left_child=1 -1 -2 -4
right_child=2 -3 3 -5
leaf_value=-0.0088879777711120527 0.016216665219533608 0.024429218977860444 0.02875040340133735 -0.016854317511746302
leaf_count=9 4 6 1 49
internal_value=0 0.145762 -0.0830192 -0.129248
internal_count=69 15 54 50
shrinkage=0.1


Tree=17
num_leaves=5
num_cat=0
split_feature=3 0 0 7
split_gain=0.638448 1.10892 0.474738 0.163783
threshold=0.033200000000000007 3.8032500000000002 5.4118000000000013 0.77500000000000013
decision_type=2 2 2 2
left_child=3 -2 -3 -1
right_child=1 2 -4 -5
leaf_value=0.023909913802067057 -0.032084142336005164 0.016326662857337918 -0.013029902506737467 -0.0086151986885184759
leaf_count=6 24 9 21 9
internal_value=0 -0.0786507 0.0134706 0.141737
internal_count=69 54 30 15
shrinkage=0.1


Tree=18
num_leaves=3
num_cat=0
split_feature=3 3
split_gain=0.332747 0.0708818
threshold=0.033200000000000007 0.027200000000000005
decision_type=2 2
left_child=1 -1
right_child=-2 -3
leaf_value=-0.0087611610771384987 -0.0074780934186121049 0.023103195608559699
leaf_count=9 54 6
internal_value=0 0.131532
internal_count=69 15
shrinkage=0.1


Tree=19
num_leaves=3
num_cat=0
split_feature=4 6
split_gain=0.368452 0.253706
threshold=0.58500000000000008 0.50200000000000011
decision_type=2 2
left_child=1 -1
right_child=-2 -3
leaf_value=0.016976458611167304 -0.010014745017694865 -0.018794633827971571
leaf_count=14 46 9
internal_value=0 0.103505
internal_count=69 23
shrinkage=0.1


Tree=20
num_leaves=3
num_cat=0
split_feature=1 6
split_gain=0.135878 0.133594
threshold=0.0068000000000000014 0.48070000000000007
decision_type=2 2
left_child=1 -1
right_child=-2 -3
leaf_value=0.018417233772399077 -0.018714726817579141 -0.0034753219276323546
leaf_count=10 22 37
internal_value=0 0.0480189
internal_count=69 47
shrinkage=0.1


Tree=21
num_leaves=2
num_cat=0
split_feature=1
split_gain=0.130377
threshold=0.0068000000000000014
decision_type=2
left_child=-1
right_child=-2
leaf_value=0.0047938606342175288 -0.019392751358910134
leaf_count=47 22
internal_value=0
internal_count=69
shrinkage=0.1


Tree=22
num_leaves=2
num_cat=0
split_feature=4
split_gain=0.00469059
threshold=0.69500000000000006
decision_type=2
left_child=-1
right_child=-2
leaf_value=0.00417824177464778 -0.0200967511636157
leaf_count=48 21
internal_value=0
internal_count=69
shrinkage=0.1


Tree=23
num_leaves=2
num_cat=0
split_feature=4
split_gain=0.045269
threshold=0.69500000000000006
decision_type=2
left_child=-1
right_child=-2
leaf_value=0.0042047456924354763 -0.021167742114892682
leaf_count=48 21
internal_value=0
internal_count=69
shrinkage=0.1


end of trees

feature importances:
Column_1=24
Column_2=22
Column_3=18
Column_6=17
Column_4=15
Column_0=8
Column_7=4
Column_5=1
Column_8=1
Column_9=1

parameters:
[boosting: gbdt]
[objective: lambdarank]
[metric: none,lambdarank]
[tree_learner: serial]
[device_type: cpu]
[data: ]
[valid: ]
[num_iterations: 100]
[learning_rate: 0.1]
[num_leaves: 8]
[num_threads: -1]
[max_depth: -1]
[min_data_in_leaf: 1]
[min_sum_hessian_in_leaf: 0.001]
[bagging_fraction: 1]
[bagging_freq: 0]
[bagging_seed: 3]
[feature_fraction: 0.8]
[feature_fraction_seed: 2]
[early_stopping_round: 0]
[max_delta_step: 0]
[lambda_l1: 0]
[lambda_l2: 0]
[min_gain_to_split: 1]
[drop_rate: 0.1]
[max_drop: 50]
[skip_drop: 0.5]
[xgboost_dart_mode: 0]
[uniform_drop: 0]
[drop_seed: 4]
[top_rate: 0.2]
[other_rate: 0.1]
[min_data_per_group: 100]
[max_cat_threshold: 32]
[cat_l2: 10]
[cat_smooth: 10]
[max_cat_to_onehot: 4]
[top_k: 20]
[monotone_constraints: ]
[feature_contri: ]
[forcedsplits_filename: ]
[refit_decay_rate: 0.9]
[verbosity: -1]
[max_bin: 255]
[min_data_in_bin: 3]
[bin_construct_sample_cnt: 200000]
[histogram_pool_size: -1]
[data_random_seed: 1]
[output_model: LightGBM_model.txt]
[snapshot_freq: -1]
[input_model: ]
[output_result: LightGBM_predict_result.txt]
[initscore_filename: ]
[valid_data_initscores: ]
[pre_partition: 0]
[enable_bundle: 1]
[max_conflict_rate: 0]
[is_enable_sparse: 1]
[sparse_threshold: 0.8]
[use_missing: 1]
[zero_as_missing: 0]
[two_round: 0]
[save_binary: 0]
[enable_load_from_binary_file: 1]
[header: 0]
[label_column: ]
[weight_column: ]
[group_column: ]
[ignore_column: ]
[categorical_feature: ]
[predict_raw_score: 0]
[predict_leaf_index: 0]
[predict_contrib: 0]
[num_iteration_predict: -1]
[pred_early_stop: 0]
[pred_early_stop_freq: 10]
[pred_early_stop_margin: 10]
[convert_model_language: ]
[convert_model: gbdt_prediction.cpp]
[num_class: 1]
[is_unbalance: 0]
[scale_pos_weight: 1]
[sigmoid: 1]
[boost_from_average: 1]
[reg_sqrt: 0]
[alpha: 0.9]
[fair_c: 1]
[poisson_max_delta_step: 0.7]
[tweedie_variance_power: 1.5]
[max_position: 20]
[label_gain: ]
[metric_freq: 1]
[is_provide_training_metric: 0]
[eval_at: 1]
[num_machines: 1]
[local_listen_port: 12400]
[time_out: 120]
[machine_list_filename: ]
[machines: ]
[gpu_platform_id: -1]
[gpu_device_id: -1]
[gpu_use_dp: 0]

end of parameters

pandas_categorical:null
