tree
version=v2
num_class=1
num_tree_per_iteration=1
label_index=0
max_feature_idx=5
objective=lambdarank
feature_names=Column_0 Column_1 Column_2 Column_3 Column_4 Column_5
feature_infos=[0.41999999999999998:0.87] [0.21629999999999999:1] [0.32029999999999997:0.67369999999999997] [0.5:1] [0:0.5] [0.40000000000000002:0.90000000000000002]
tree_sizes=628 696 698 695 692 706 692 697 698 700 700 492 411 559 559 262 264

Tree=0
num_leaves=7
num_cat=0
split_feature=5 2 0 0 0 0
split_gain=2.16326 0.60694 0.278556 0.435684 0.0531891 0.30205
threshold=0.75000000000000011 0.47245000000000009 0.64500000000000013 0.76500000000000012 0.6150000000000001 0.52500000000000013
decision_type=2 2 2 2 2 2
left_child=1 4 -2 -4 5 -1
right_child=2 -3 3 -5 -6 -7
leaf_value=-0.050000000000000003 -0.049999999999999926 -0.037020279864767892 0.034987837890795008 -0.046975990222341106 -0.041924699390617721 0.038990956487483436
leaf_count=4 3 39 8 3 7 5
internal_value=0 -0.202369 0.230315 0.285468 0.0626647 0.21869
internal_count=69 55 14 11 16 9
shrinkage=0.1


Tree=1
num_leaves=8
num_cat=0
split_feature=2 2 2 0 0 2 0
split_gain=80.3534 41.4375 80.1301 29.922 33.649 18.7768 14.4341
threshold=0.47245000000000009 0.45790000000000003 0.39740000000000003 0.74500000000000011 0.76500000000000012 0.53255000000000019 0.52500000000000013
decision_type=2 2 2 2 2 2 2
left_child=1 2 6 -2 5 -5 -1
right_child=3 -3 -4 4 -6 -7 -8
leaf_value=-0.046200439313069962 -0.027135535675947245 0.044369083529512521 -0.048863622938879581 -0.045858359128909551 -0.037895764340069367 0.044631089121627825 0.036409157784109136
leaf_count=2 41 3 7 2 8 2 4
internal_value=0 0.210892 0.0282625 -0.175579 0.0937147 0.326774 0.308866
internal_count=69 16 13 53 12 4 6
shrinkage=0.1


Tree=2
num_leaves=8
num_cat=0
split_feature=0 5 3 1 1 0 0
split_gain=17.3749 20.1972 16.6726 29.6494 20.1569 10.1879 8.19716
threshold=0.76500000000000012 0.8500000000000002 0.8035500000000001 0.62860000000000016 0.62860000000000016 0.64500000000000013 0.74500000000000011
decision_type=2 2 2 2 2 2 2
left_child=1 2 3 -1 -4 -6 -3
right_child=-2 6 4 -5 5 -7 -8
leaf_value=0.019586756186049173 -0.040694433230277799 -0.047916301525686114 -0.026589355678909622 -0.045393876222735226 -0.044228061905324488 0.043702374339689862 0.044756186901791055
leaf_count=16 11 1 30 7 2 1 1
internal_value=0 0.034547 -0.0165712 0.100369 -0.160643 0.267082 0.378746
internal_count=69 58 56 23 33 3 2
shrinkage=0.1


Tree=3
num_leaves=8
num_cat=0
split_feature=2 5 5 0 4 0 0
split_gain=12.7965 26.1079 19.7026 12.7677 6.51296 7.61525 6.45834
threshold=0.47245000000000009 0.75000000000000011 0.55000000000000016 0.52500000000000013 0.25000000000000006 0.70000000000000007 0.6150000000000001
decision_type=2 2 2 2 2 2 2
left_child=2 -2 3 -1 5 -3 -5
right_child=1 4 -4 6 -6 -7 -8
leaf_value=-0.043003686934241746 -0.029511005690836402 0.01648392409196886 -0.044479895254400013 0.037559617431387582 0.037064821821086384 -0.034303924637324658 -0.022011065955428698
leaf_count=4 39 6 6 4 2 6 2
internal_value=0 -0.096455 0.157483 0.25712 0.145805 0.0141397 0.324804
internal_count=69 53 16 10 14 12 6
shrinkage=0.1


Tree=4
num_leaves=8
num_cat=0
split_feature=2 5 5 0 3 0 2
split_gain=7.64421 14.3815 10.8728 9.37119 5.04222 9.69587 3.80036
threshold=0.47245000000000009 0.75000000000000011 0.55000000000000016 0.54500000000000015 0.93750000000000011 0.67500000000000016 0.37390000000000007
decision_type=2 2 2 2 2 2 2
left_child=2 -2 3 -1 5 -3 -5
right_child=1 4 -4 6 -6 -7 -8
leaf_value=-0.016601342495997307 -0.02531033406580236 -0.044066185704448396 -0.04191718306121521 -0.0463565252447748 -0.010211191009975683 0.03950987296831359 0.03902740967304523
leaf_count=6 39 3 6 1 9 2 3
internal_value=0 -0.0855954 0.149228 0.233905 0.127921 0.266849 0.354696
internal_count=69 53 16 10 14 5 4
shrinkage=0.1


Tree=5
num_leaves=8
num_cat=0
split_feature=0 5 5 1 3 0 1
split_gain=4.29972 4.43853 4.64411 5.66542 4.25489 3.97674 3.70212
threshold=0.76500000000000012 0.8500000000000002 0.55000000000000016 0.45620000000000005 0.8035500000000001 0.63500000000000012 0.48255000000000009
decision_type=2 2 2 2 2 2 2
left_child=1 2 3 4 -1 -4 -7
right_child=-2 -3 5 -5 -6 6 -8
leaf_value=0.025688253131132505 -0.033258164184785333 0.032113539860180194 -0.041124784668747555 -0.024392298860972418 -0.014147104846565412 -0.039917261831513846 0.0042332753175369836
leaf_count=8 11 2 10 9 7 7 15
internal_value=0 0.0289658 -0.00781693 0.0935228 0.173409 -0.131728 -0.0436813
internal_count=69 58 56 24 15 32 22
shrinkage=0.1


Tree=6
num_leaves=8
num_cat=0
split_feature=2 1 5 1 3 3 3
split_gain=4.00861 11.0746 7.77139 4.55415 2.69698 1.1471 0.870508
threshold=0.47245000000000009 0.45620000000000005 0.75000000000000011 0.7400500000000001 0.93750000000000011 0.93750000000000011 0.56250000000000011
decision_type=2 2 2 2 2 2 2
left_child=1 4 -2 5 -1 6 -4
right_child=2 -3 3 -5 -6 -7 -8
leaf_value=0.03341607025596751 -0.022243762003768749 -0.039880845334802961 -0.03876837897567062 -0.038424711053879734 -0.021095229094250489 0.0038157052944955434 0.035794199103185202
leaf_count=4 39 9 1 5 3 6 2
internal_value=0 0.140646 -0.0755391 0.119146 0.276525 0.202796 0.3181
internal_count=69 16 53 14 7 9 3
shrinkage=0.1


Tree=7
num_leaves=8
num_cat=0
split_feature=2 1 5 1 0 0 0
split_gain=2.41541 8.48215 4.63789 3.06339 2.20842 1.57248 0.999053
threshold=0.47245000000000009 0.45620000000000005 0.75000000000000011 0.7400500000000001 0.52500000000000013 0.64500000000000013 0.72000000000000008
decision_type=2 2 2 2 2 2 2
left_child=1 4 -2 5 -1 -4 -6
right_child=2 -3 3 -5 6 -7 -8
leaf_value=-0.040352534960607644 -0.018710544035069904 -0.038680711218665037 -0.039687746859615958 -0.036756081879109885 0.033162425000433836 0.023171235695314665 -0.040583508356085825
leaf_count=2 39 9 2 5 4 7 1
internal_value=0 0.127457 -0.0658822 0.107569 0.260492 0.185101 0.304373
internal_count=69 16 53 14 7 9 5
shrinkage=0.1


Tree=8
num_leaves=8
num_cat=0
split_feature=2 5 5 0 0 0 0
split_gain=1.71819 3.00557 2.81195 2.82672 1.15246 0.995314 0.603642
threshold=0.47245000000000009 0.75000000000000011 0.55000000000000016 0.52500000000000013 0.64500000000000013 0.76500000000000012 0.74500000000000011
decision_type=2 2 2 2 2 2 2
left_child=2 -2 3 -1 -3 6 -6
right_child=1 4 -4 -5 5 -7 -8
leaf_value=-0.037851191399155208 -0.01702147509742085 -0.03836827522120026 -0.035936005893010256 0.025855785035891289 0.0069194698997893395 -0.034133094317271011 0.03562451331470174
leaf_count=4 39 3 6 6 7 3 1
internal_value=0 -0.0617017 0.125171 0.192872 0.0948822 0.141492 0.18849
internal_count=69 53 16 10 14 11 8
shrinkage=0.1


Tree=9
num_leaves=8
num_cat=0
split_feature=2 1 5 1 0 0 0
split_gain=1.30633 4.96938 2.48941 1.56023 0.972325 0.458562 0.306478
threshold=0.47245000000000009 0.45620000000000005 0.75000000000000011 0.7400500000000001 0.52500000000000013 0.64500000000000013 0.66500000000000015
decision_type=2 2 2 2 2 2 2
left_child=1 4 -2 5 -1 -4 -6
right_child=2 -3 3 -5 6 -7 -8
leaf_value=-0.037418855665652277 -0.016596609228840094 -0.037000405898393568 -0.036896544010576363 -0.035224746466476269 0.032156863506004066 0.020037738794744533 -0.013258684813472317
leaf_count=2 39 9 2 5 3 7 2
internal_value=0 0.123335 -0.0598271 0.0963757 0.241853 0.163395 0.280747
internal_count=69 16 53 14 7 9 5
shrinkage=0.1


Tree=10
num_leaves=8
num_cat=0
split_feature=0 0 2 0 0 2 2
split_gain=0.85201 2.17635 2.25783 1.54894 1.56723 0.765655 0.390299
threshold=0.76500000000000012 0.74500000000000011 0.47245000000000009 0.54500000000000015 0.6150000000000001 0.53255000000000019 0.62445000000000006
decision_type=2 2 2 2 2 2 2
left_child=1 2 3 -1 -5 -3 -4
right_child=-2 5 6 4 -6 -7 -8
leaf_value=-0.016601190090024975 -0.028371227294746754 -0.034094579458839168 -0.018473397787629808 0.0315699820178292 -0.023632389457437689 0.034557926742899224 0.0037299511749058511
leaf_count=6 11 2 33 3 4 2 8
internal_value=0 0.022871 -0.0244972 0.128345 0.229339 0.276752 -0.120255
internal_count=69 58 54 13 7 4 41
shrinkage=0.1


Tree=11
num_leaves=5
num_cat=0
split_feature=1 1 1 2
split_gain=0.541614 0.255904 0.481138 0.0907185
threshold=0.29910000000000009 0.42930000000000007 0.62860000000000016 0.39740000000000003
decision_type=2 2 2 2
left_child=3 -2 -3 -1
right_child=1 2 -4 -5
leaf_value=0.032808365020908163 -0.020099273292053382 0.005069463591921299 -0.017279376317902193 -0.00058193515323355031
leaf_count=1 14 34 15 5
internal_value=0 -0.0341103 0.00167302 0.180784
internal_count=69 63 49 6
shrinkage=0.1


Tree=12
num_leaves=4
num_cat=0
split_feature=2 5 5
split_gain=0.502993 1.1501 1.09327
threshold=0.47245000000000009 0.55000000000000016 0.75000000000000011
decision_type=2 2 2
left_child=1 -1 -2
right_child=2 -3 -4
leaf_value=0.017987534300126225 -0.014743149384189523 -0.033506828362268676 0.0082166113199475792
leaf_count=10 39 6 14
internal_value=0 0.116828 -0.053647
internal_count=69 16 53
shrinkage=0.1


Tree=13
num_leaves=6
num_cat=0
split_feature=2 0 0 2 0
split_gain=0.161793 0.758029 1.28098 0.531859 0.400524
threshold=0.47245000000000009 0.6150000000000001 0.52500000000000013 0.58320000000000005 0.64500000000000013
decision_type=2 2 2 2 2
left_child=1 2 -1 -2 -5
right_child=3 -3 -4 4 -6
leaf_value=-0.036238825890973943 -0.013780083225966825 -0.024733001470277599 0.024741080828043029 -0.036037016341350141 0.010751829969036869
leaf_count=4 36 7 5 4 13
internal_value=0 0.106052 0.176025 -0.0480311 0.0606711
internal_count=69 16 9 53 17
shrinkage=0.1


Tree=14
num_leaves=6
num_cat=0
split_feature=0 0 1 1 0
split_gain=0.230758 0.59891 0.125809 0.104144 0.476298
threshold=0.76500000000000012 0.74500000000000011 0.48255000000000009 0.29910000000000009 0.57500000000000007
decision_type=2 2 2 2 2
left_child=1 3 -3 4 -1
right_child=-2 2 -4 -5 -6
leaf_value=0.024719611975825524 -0.026277599792178814 -0.032415208756542864 0.031295849904009999 -0.0053015316215499174 -0.039760024545870548
leaf_count=4 11 2 2 48 2
internal_value=0 0.0221069 0.242455 -0.015024 0.158755
internal_count=69 58 4 54 6
shrinkage=0.1


Tree=15
num_leaves=2
num_cat=0
split_feature=1
split_gain=0.10298
threshold=0.7400500000000001
decision_type=2
left_child=-1
right_child=-2
leaf_value=0.0016128405855552631 -0.034087661874115854
leaf_count=63 6
internal_value=0
internal_count=69
shrinkage=0.1


Tree=16
num_leaves=2
num_cat=0
split_feature=1
split_gain=0.0095088
threshold=0.7400500000000001
decision_type=2
left_child=-1
right_child=-2
leaf_value=0.0015047596020304093 -0.033629819962998748
leaf_count=63 6
internal_value=0
internal_count=69
shrinkage=0.1


end of trees

feature importances:
Column_0=37
Column_2=19
Column_1=17
Column_5=15
Column_3=6
Column_4=1

parameters:
[boosting: gbdt]
[objective: lambdarank]
[metric: none,lambdarank]
[tree_learner: serial]
[device_type: cpu]
[data: ]
[valid: ]
[num_iterations: 100]
[learning_rate: 0.1]
[num_leaves: 8]
[num_threads: -1]
[max_depth: -1]
[min_data_in_leaf: 1]
[min_sum_hessian_in_leaf: 0.001]
[bagging_fraction: 1]
[bagging_freq: 0]
[bagging_seed: 3]
[feature_fraction: 0.8]
[feature_fraction_seed: 2]
[early_stopping_round: 0]
[max_delta_step: 0]
[lambda_l1: 0]
[lambda_l2: 0]
[min_gain_to_split: 1]
[drop_rate: 0.1]
[max_drop: 50]
[skip_drop: 0.5]
[xgboost_dart_mode: 0]
[uniform_drop: 0]
[drop_seed: 4]
[top_rate: 0.2]
[other_rate: 0.1]
[min_data_per_group: 100]
[max_cat_threshold: 32]
[cat_l2: 10]
[cat_smooth: 10]
[max_cat_to_onehot: 4]
[top_k: 20]
[monotone_constraints: ]
[feature_contri: ]
[forcedsplits_filename: ]
[refit_decay_rate: 0.9]
[verbosity: -1]
[max_bin: 255]
[min_data_in_bin: 3]
[bin_construct_sample_cnt: 200000]
[histogram_pool_size: -1]
[data_random_seed: 1]
[output_model: LightGBM_model.txt]
[snapshot_freq: -1]
[input_model: ]
[output_result: LightGBM_predict_result.txt]
[initscore_filename: ]
[valid_data_initscores: ]
[pre_partition: 0]
[enable_bundle: 1]
[max_conflict_rate: 0]
[is_enable_sparse: 1]
[sparse_threshold: 0.8]
[use_missing: 1]
[zero_as_missing: 0]
[two_round: 0]
[save_binary: 0]
[enable_load_from_binary_file: 1]
[header: 0]
[label_column: ]
[weight_column: ]
[group_column: ]
[ignore_column: ]
[categorical_feature: ]
[predict_raw_score: 0]
[predict_leaf_index: 0]
[predict_contrib: 0]
[num_iteration_predict: -1]
[pred_early_stop: 0]
[pred_early_stop_freq: 10]
[pred_early_stop_margin: 10]
[convert_model_language: ]
[convert_model: gbdt_prediction.cpp]
[num_class: 1]
[is_unbalance: 0]
[scale_pos_weight: 1]
[sigmoid: 1]
[boost_from_average: 1]
[reg_sqrt: 0]
[alpha: 0.9]
[fair_c: 1]
[poisson_max_delta_step: 0.7]
[tweedie_variance_power: 1.5]
[max_position: 20]
[label_gain: ]
[metric_freq: 1]
[is_provide_training_metric: 0]
[eval_at: 1]
[num_machines: 1]
[local_listen_port: 12400]
[time_out: 120]
[machine_list_filename: ]
[machines: ]
[gpu_platform_id: -1]
[gpu_device_id: -1]
[gpu_use_dp: 0]

end of parameters

pandas_categorical:null
