tree
version=v2
num_class=1
num_tree_per_iteration=1
label_index=0
max_feature_idx=5
objective=lambdarank
feature_names=Column_0 Column_1 Column_2 Column_3 Column_4 Column_5
feature_infos=[0.41999999999999998:0.87] [0.00020000000000000001:1] [0.32029999999999997:0.67369999999999997] [0.125:1] [0:0.5] [0.40000000000000002:0.90000000000000002]
tree_sizes=411 704 698 699 702 701 701 700 707 704 554 634 413 486 561 565 411 418 337 336 414 413 265

Tree=0
num_leaves=4
num_cat=0
split_feature=5 2 0
split_gain=0.747607 2.49323 0.0644396
threshold=0.75000000000000011 0.38665000000000005 0.64500000000000013
decision_type=2 2 2
left_child=1 -1 -2
right_child=2 -3 -4
leaf_value=0.037149110491269156 -0.050000000000000003 -0.027058165506943378 0.021396015478778306
leaf_count=6 3 67 16
internal_value=0 -0.124026 0.168907
internal_count=92 73 19
shrinkage=0.1


Tree=1
num_leaves=8
num_cat=0
split_feature=0 2 2 4 0 2 2
split_gain=121.935 65.3263 41.7547 16.3044 43.131 26.6339 9.90574
threshold=0.58500000000000008 0.47245000000000009 0.53255000000000019 0.25000000000000006 0.69500000000000006 0.59725000000000017 0.50075000000000014
decision_type=2 2 2 2 2 2 2
left_child=1 -1 -2 4 -4 -5 -3
right_child=2 6 3 5 -6 -7 -8
leaf_value=0.038238593735234638 -0.04396965691295647 0.0034384702115151998 0.012332991763267789 -0.018696118321837207 -0.040926582432684107 0.042263353181316077 -0.038133428849848675
leaf_count=10 30 6 11 9 14 2 10
internal_value=0 0.248598 -0.196812 -0.0712902 -0.165577 0.127214 -0.197932
internal_count=92 26 66 36 25 11 16
shrinkage=0.1


Tree=2
num_leaves=8
num_cat=0
split_feature=3 1 1 1 5 1 3
split_gain=55.6517 38.7982 25.7911 16.916 26.5363 15.5711 14.1071
threshold=0.68750000000000011 0.60420000000000007 0.42930000000000007 0.73440000000000005 0.75000000000000011 0.45620000000000005 0.84520000000000006
decision_type=2 2 2 2 2 2 2
left_child=1 -1 -2 4 5 6 -4
right_child=2 -3 3 -5 -6 -7 -8
leaf_value=0.038905282261168961 -0.039835075223411662 -0.046879851113329235 0.042433331880923769 -0.046260851268703045 0.026880682492757581 -0.022200923169294853 -0.046238565618389182
leaf_count=5 25 5 2 7 8 37 3
internal_value=0 0.28205 -0.123429 -0.0373385 0.0115337 -0.1269 0.219706
internal_count=92 10 82 57 50 42 5
shrinkage=0.1


Tree=3
num_leaves=8
num_cat=0
split_feature=2 0 5 4 0 0 2
split_gain=33.7186 22.8825 15.9551 7.18151 15.6506 6.86917 18.9713
threshold=0.47245000000000009 0.58500000000000008 0.75000000000000011 0.25000000000000006 0.69500000000000006 0.54500000000000015 0.36245000000000005
decision_type=2 2 2 2 2 2 2
left_child=1 5 -2 4 -4 6 -1
right_child=2 -3 3 -5 -6 -7 -8
leaf_value=0.037675823706417838 -0.025981149432963216 -0.038350634771245479 0.015220891544890064 0.035805764099067945 -0.037050137284346682 0.044437461849681531 -0.02806959355729239
leaf_count=2 55 8 6 2 11 2 6
internal_value=0 0.214774 -0.130994 0.0407183 -0.0377509 0.300159 0.166788
internal_count=92 18 74 19 17 10 8
shrinkage=0.1


Tree=4
num_leaves=8
num_cat=0
split_feature=2 0 2 0 0 3 0
split_gain=31.6625 16.6874 8.32541 4.05128 3.94181 8.70735 3.64539
threshold=0.47245000000000009 0.58500000000000008 0.53255000000000019 0.62500000000000011 0.54500000000000015 0.68750000000000011 0.78500000000000014
decision_type=2 2 2 2 2 2 2
left_child=1 4 -2 -4 5 -1 -5
right_child=2 -3 3 6 -6 -7 -8
leaf_value=0.0275978432904476 -0.032623960075124629 -0.035496037485435353 -0.029416028988459731 0.0040792803835280013 0.042103885288407389 -0.045517803935057527 -0.03544885821865168
leaf_count=5 33 8 11 24 2 3 6
internal_value=0 0.227739 -0.149714 -0.0583161 0.307625 0.177228 -0.00207503
internal_count=92 18 74 41 10 8 30
shrinkage=0.1


Tree=5
num_leaves=8
num_cat=0
split_feature=0 3 1 1 1 0 0
split_gain=15.5926 10.0258 8.08696 8.04985 5.54677 3.43552 2.63088
threshold=0.58500000000000008 0.77500000000000013 0.60420000000000007 0.56030000000000013 0.73440000000000005 0.6150000000000001 0.78500000000000014
decision_type=2 2 2 2 2 2 2
left_child=1 2 -1 -2 5 -5 -7
right_child=3 -3 -4 4 -6 6 -8
leaf_value=0.030532630405835249 -0.034500886357339944 -0.01881956441561547 -0.043189147994551258 -0.039547425924290502 -0.042108733733539086 0.010555266755905825 -0.033759615309142114
leaf_count=9 29 13 4 5 7 20 5
internal_value=0 0.16471 0.256473 -0.131166 -0.0321823 0.025416 0.0668144
internal_count=92 26 13 66 37 30 25
shrinkage=0.1


Tree=6
num_leaves=8
num_cat=0
split_feature=2 1 1 1 2 3 3
split_gain=14.4183 10.2667 5.26265 4.26682 5.41288 3.5734 0.475854
threshold=0.47245000000000009 0.60420000000000007 0.56030000000000013 0.73440000000000005 0.53255000000000019 0.88195000000000012 0.8660500000000001
decision_type=2 2 2 2 2 2 2
left_child=1 5 -2 4 -4 -1 -6
right_child=2 -3 3 -5 6 -7 -8
leaf_value=0.031615772661456383 -0.027952045293153829 -0.040292118205302055 -0.03826645516288369 -0.039845680524056792 -0.0047230627679171527 -0.026479970746704336 0.015265437955920525
leaf_count=7 37 7 8 8 7 4 14
internal_value=0 0.199767 -0.118589 -0.0233012 0.0314289 0.276876 0.10061
internal_count=92 18 74 37 29 11 21
shrinkage=0.1


Tree=7
num_leaves=8
num_cat=0
split_feature=2 1 1 1 2 0 0
split_gain=11.2287 6.8769 4.18252 2.94512 3.57131 2.67843 1.95373
threshold=0.47245000000000009 0.60420000000000007 0.56030000000000013 0.73440000000000005 0.53255000000000019 0.62500000000000011 0.62500000000000011
decision_type=2 2 2 2 2 2 2
left_child=1 5 -2 4 -4 -1 -6
right_child=2 -3 3 -5 6 -7 -8
leaf_value=0.030162131278632653 -0.027659030544361165 -0.038226663403549785 -0.036410222100816347 -0.038118365532071027 -0.018927116998538038 -0.024956178792536744 0.0155463091166727
leaf_count=7 37 7 8 8 7 4 14
internal_value=0 0.194617 -0.115443 -0.021308 0.0295243 0.261995 0.0909808
internal_count=92 18 74 37 29 11 21
shrinkage=0.1


Tree=8
num_leaves=8
num_cat=0
split_feature=2 0 2 0 0 0 0
split_gain=8.61654 4.30494 2.64735 1.01656 0.652533 0.614671 0.8594
threshold=0.47245000000000009 0.58500000000000008 0.53255000000000019 0.54500000000000015 0.62500000000000011 0.78500000000000014 0.75500000000000012
decision_type=2 2 2 2 2 2 2
left_child=1 3 -2 -1 -4 6 -6
right_child=2 -3 4 -5 5 -7 -8
leaf_value=0.013573346762863467 -0.027436992469665817 -0.028443590549264458 -0.023017859444187959 0.036527004231872523 -0.0016650084023543963 -0.028383847405222658 0.025892519002898129
leaf_count=8 33 8 11 2 21 6 3
internal_value=0 0.186002 -0.110845 0.250747 -0.0345278 0.00785966 0.0416571
internal_count=92 18 74 10 41 30 24
shrinkage=0.1


Tree=9
num_leaves=8
num_cat=0
split_feature=2 1 1 1 2 0 0
split_gain=6.29345 4.07074 2.48365 1.66488 1.95689 1.06666 1.00302
threshold=0.47245000000000009 0.60420000000000007 0.56030000000000013 0.73440000000000005 0.53255000000000019 0.62500000000000011 0.62500000000000011
decision_type=2 2 2 2 2 2 2
left_child=1 5 -2 4 -4 -1 -6
right_child=2 -3 3 -5 6 -7 -8
leaf_value=0.026682979045951617 -0.025386155734902705 -0.036580456223083258 -0.034344854736256751 -0.036150129378854957 -0.018031787575636268 -0.020875349329074939 0.014446362820850345
leaf_count=7 37 7 8 8 7 4 14
internal_value=0 0.172193 -0.101761 -0.0142163 0.0319959 0.233154 0.0857374
internal_count=92 18 74 37 29 11 21
shrinkage=0.1


Tree=10
num_leaves=6
num_cat=0
split_feature=2 0 2 0 3
split_gain=4.74635 2.05713 1.8984 0.929481 2.78553
threshold=0.47245000000000009 0.58500000000000008 0.58930000000000005 0.54500000000000015 0.68750000000000011
decision_type=2 2 2 2 2
left_child=1 3 -2 4 -1
right_child=2 -3 -4 -5 -6
leaf_value=0.02077695720699041 -0.019733969298220799 -0.024757691414171439 0.0025630481260152734 0.034855196618099209 -0.043352881280021176
leaf_count=5 51 8 23 2 3
internal_value=0 0.161836 -0.0951962 0.215889 0.096705
internal_count=92 18 74 10 8
shrinkage=0.1


Tree=11
num_leaves=7
num_cat=0
split_feature=2 1 1 1 2 3
split_gain=3.94082 2.61027 1.86538 1.23007 1.26626 0.498758
threshold=0.47245000000000009 0.60420000000000007 0.56030000000000013 0.73440000000000005 0.53255000000000019 0.88195000000000012
decision_type=2 2 2 2 2 2
left_child=1 5 -2 4 -4 -1
right_child=2 -3 3 -5 -6 -7
leaf_value=0.02537003990968021 -0.024245101234989345 -0.035377318677170748 -0.032887346380172718 -0.035343050240399909 0.0089073642832023913 -0.019188087413239623
leaf_count=7 37 7 8 8 21 4
internal_value=0 0.162454 -0.0889811 -0.00443692 0.0404381 0.220271
internal_count=92 18 74 37 29 11
shrinkage=0.1


Tree=12
num_leaves=4
num_cat=0
split_feature=2 5 2
split_gain=3.20901 1.17485 0.873911
threshold=0.47245000000000009 0.55000000000000016 0.53255000000000019
decision_type=2 2 2
left_child=1 -1 -2
right_child=2 -3 -4
leaf_value=0.01980648148679744 -0.023791391177038657 -0.033029301153169731 -0.0024197665830776121
leaf_count=12 33 6 41
internal_value=0 0.157299 -0.0872535
internal_count=92 18 74
shrinkage=0.1


Tree=13
num_leaves=5
num_cat=0
split_feature=2 0 2 0
split_gain=2.28425 0.982201 0.752207 0.39184
threshold=0.47245000000000009 0.58500000000000008 0.53255000000000019 0.54500000000000015
decision_type=2 2 2 2
left_child=1 3 -2 -1
right_child=2 -3 -4 -5
leaf_value=0.0081408801821076567 -0.023238366309711132 -0.024264393622641385 -0.0017931601843221305 0.03302288295855401
leaf_count=8 33 8 41 2
internal_value=0 0.144016 -0.0785187 0.194042
internal_count=92 18 74 10
shrinkage=0.1


Tree=14
num_leaves=6
num_cat=0
split_feature=2 1 1 1 2
split_gain=1.55027 1.38529 1.18337 0.693071 0.488306
threshold=0.47245000000000009 0.60420000000000007 0.56030000000000013 0.73440000000000005 0.53255000000000019
decision_type=2 2 2 2 2
left_child=1 -1 -2 4 -4
right_child=2 -3 3 -5 -6
leaf_value=0.01841706029276893 -0.022664037187704291 -0.034644602732833756 -0.030783440908204562 -0.03392015942949464 0.0087097571221897326
leaf_count=11 37 7 8 8 21
internal_value=0 0.131994 -0.0702108 0.00748864 0.0481779
internal_count=92 18 74 37 29
shrinkage=0.1


Tree=15
num_leaves=6
num_cat=0
split_feature=2 0 5 1 1
split_gain=1.08274 0.365042 0.468701 1.19807 0.349488
threshold=0.36245000000000005 0.52500000000000013 0.55000000000000016 0.56030000000000013 0.73440000000000005
decision_type=2 2 2 2 2
left_child=-1 -2 -3 -4 -5
right_child=1 2 3 4 -6
leaf_value=0.024700875308918492 -0.028268140692178846 0.012552644207546378 -0.029161088527339063 0.003702549884775164 -0.032931233541278179
leaf_count=3 8 17 23 33 8
internal_value=0 -0.0325934 -0.00871038 -0.061156 0.00242605
internal_count=92 89 81 64 41
shrinkage=0.1


Tree=16
num_leaves=4
num_cat=0
split_feature=2 5 5
split_gain=1.1737 0.411402 0.303802
threshold=0.47245000000000009 0.75000000000000011 0.55000000000000016
decision_type=2 2 2
left_child=2 -2 -1
right_child=1 -3 -4
leaf_value=0.016667291282294116 -0.015167462754827095 0.0039763422696579972 -0.031786617256253737
leaf_count=12 55 19 6
internal_value=0 -0.06905 0.131479
internal_count=92 74 18
shrinkage=0.1


Tree=17
num_leaves=4
num_cat=0
split_feature=0 1 1
split_gain=0.503705 0.795865 0.0569848
threshold=0.58500000000000008 0.56030000000000013 0.73440000000000005
decision_type=2 2 2
left_child=-1 -2 -3
right_child=1 2 -4
leaf_value=0.009701843557721114 -0.025510751660030112 0.0035086086396236798 -0.032465563328103693
leaf_count=26 29 30 7
internal_value=0 -0.0669844 0.00275757
internal_count=92 66 37
shrinkage=0.1


Tree=18
num_leaves=3
num_cat=0
split_feature=3 2
split_gain=0.655278 0.482022
threshold=0.53570000000000018 0.42750000000000005
decision_type=2 2
left_child=1 -1
right_child=-2 -3
leaf_value=0.029392284792315829 -0.0036384046927491935 -0.027205522631177245
leaf_count=3 85 4
internal_value=0 0.202596
internal_count=92 7
shrinkage=0.1


Tree=19
num_leaves=3
num_cat=0
split_feature=3 5
split_gain=0.376325 0.112329
threshold=0.53570000000000018 0.55000000000000016
decision_type=2 2
left_child=1 -1
right_child=-2 -3
leaf_value=0.025922892652739539 -0.0032265209144980394 -0.035530494017901745
leaf_count=4 85 3
internal_value=0 0.19443
internal_count=92 7
shrinkage=0.1


Tree=20
num_leaves=4
num_cat=0
split_feature=3 2 2
split_gain=0.284199 0.419061 2.1229
threshold=0.88195000000000012 0.59725000000000017 0.47805000000000003
decision_type=2 2 2
left_child=1 2 -1
right_child=-2 -3 -4
leaf_value=0.013443869468081968 -0.010326479899123629 0.02345124588486314 -0.022379280290781706
leaf_count=13 42 8 29
internal_value=0 0.0578293 -0.000434769
internal_count=92 50 42
shrinkage=0.1


Tree=21
num_leaves=4
num_cat=0
split_feature=2 0 0
split_gain=0.117289 0.0318899 0.180314
threshold=0.47245000000000009 0.58500000000000008 0.54500000000000015
decision_type=2 2 2
left_child=1 2 -1
right_child=-2 -3 -4
leaf_value=0.0026250995160657172 -0.0052961129084866543 -0.021726506852895705 0.031216731486643452
leaf_count=8 74 8 2
internal_value=0 0.105182 0.152826
internal_count=92 18 10
shrinkage=0.1


Tree=22
num_leaves=2
num_cat=0
split_feature=2
split_gain=0.0400376
threshold=0.36245000000000005
decision_type=2
left_child=-1
right_child=-2
leaf_value=0.021269859415703359 -0.0024990577678567784
leaf_count=3 89
internal_value=0
internal_count=92
shrinkage=0.1


end of trees

feature importances:
Column_2=34
Column_0=30
Column_1=26
Column_3=11
Column_5=8
Column_4=2

parameters:
[boosting: gbdt]
[objective: lambdarank]
[metric: none,lambdarank]
[tree_learner: serial]
[device_type: cpu]
[data: ]
[valid: ]
[num_iterations: 100]
[learning_rate: 0.1]
[num_leaves: 8]
[num_threads: -1]
[max_depth: -1]
[min_data_in_leaf: 1]
[min_sum_hessian_in_leaf: 0.001]
[bagging_fraction: 1]
[bagging_freq: 0]
[bagging_seed: 3]
[feature_fraction: 0.8]
[feature_fraction_seed: 2]
[early_stopping_round: 0]
[max_delta_step: 0]
[lambda_l1: 0]
[lambda_l2: 0]
[min_gain_to_split: 1]
[drop_rate: 0.1]
[max_drop: 50]
[skip_drop: 0.5]
[xgboost_dart_mode: 0]
[uniform_drop: 0]
[drop_seed: 4]
[top_rate: 0.2]
[other_rate: 0.1]
[min_data_per_group: 100]
[max_cat_threshold: 32]
[cat_l2: 10]
[cat_smooth: 10]
[max_cat_to_onehot: 4]
[top_k: 20]
[monotone_constraints: ]
[feature_contri: ]
[forcedsplits_filename: ]
[refit_decay_rate: 0.9]
[verbosity: -1]
[max_bin: 255]
[min_data_in_bin: 3]
[bin_construct_sample_cnt: 200000]
[histogram_pool_size: -1]
[data_random_seed: 1]
[output_model: LightGBM_model.txt]
[snapshot_freq: -1]
[input_model: ]
[output_result: LightGBM_predict_result.txt]
[initscore_filename: ]
[valid_data_initscores: ]
[pre_partition: 0]
[enable_bundle: 1]
[max_conflict_rate: 0]
[is_enable_sparse: 1]
[sparse_threshold: 0.8]
[use_missing: 1]
[zero_as_missing: 0]
[two_round: 0]
[save_binary: 0]
[enable_load_from_binary_file: 1]
[header: 0]
[label_column: ]
[weight_column: ]
[group_column: ]
[ignore_column: ]
[categorical_feature: ]
[predict_raw_score: 0]
[predict_leaf_index: 0]
[predict_contrib: 0]
[num_iteration_predict: -1]
[pred_early_stop: 0]
[pred_early_stop_freq: 10]
[pred_early_stop_margin: 10]
[convert_model_language: ]
[convert_model: gbdt_prediction.cpp]
[num_class: 1]
[is_unbalance: 0]
[scale_pos_weight: 1]
[sigmoid: 1]
[boost_from_average: 1]
[reg_sqrt: 0]
[alpha: 0.9]
[fair_c: 1]
[poisson_max_delta_step: 0.7]
[tweedie_variance_power: 1.5]
[max_position: 20]
[label_gain: ]
[metric_freq: 1]
[is_provide_training_metric: 0]
[eval_at: 1]
[num_machines: 1]
[local_listen_port: 12400]
[time_out: 120]
[machine_list_filename: ]
[machines: ]
[gpu_platform_id: -1]
[gpu_device_id: -1]
[gpu_use_dp: 0]

end of parameters

pandas_categorical:null
